-0.788845
0.72198
0.350897
0.6938
-0.0864741
0.143572
-0.745889
0.618003
0.967067
0.247492
-0.309323
-0.327051
-0.944838
-0.52244
-0.643996
-0.185462
-0.309224
0.932521
-0.0418935
0.9129
0.924879
-0.245838
-0.912514
-0.227188
0.300696
-0.210667
-0.161527
0.507204
-0.247656
-0.121794
0.621053
0.479789
0.0966029
-0.68545
-0.99087
-0.216588
0.700189
-0.229653
-0.900476
0.608971
-0.712082
-0.568671
-0.610283
-0.420345
0.749045
-0.242622
0.80601
0.888372
0.118259
-0.164271
-0.506186
0.574856
-0.358665
0.312394
-0.553994
0.343744
0.58385
-0.620919
-0.793496
0.535109
-0.750833
-0.683458
-0.838787
-0.966709
-0.406579
-0.0679941
-0.585423
0.796527
-0.718804
0.70496
0.906807
0.382738
-0.311376
0.465211
0.80999
-0.615759
0.348087
-0.49876
0.305139
0.808982
-0.495403
0.506882
0.055742
0.794114
-0.428744
-0.47402
0.729141
-0.142869
-0.242655
0.668167
0.698836
-0.0786563
0.060657
-0.481811
0.283239
0.166134
0.278889
0.696085
-0.691632
0.644582
0.215374
-0.818183
-0.526993
-0.648581
0.101455
0.713826
-0.853234
-0.627296
-0.913158
-0.913163
0.868095
0.106537
-0.548105
0.629379
-0.387655
0.426003
-0.979638
0.794935
0.0407039
0.545026
0.729417
-0.303902
0.902483
-0.75661
-0.0134112
0.894023
-0.825674
0.0104437
0.204059
0.417487
-0.254859
-0.429428
0.0821195
-0.206896
-0.545802
0.533263
0.753382
0.529925
0.856144
-0.891554
0.804576
-0.888302
-0.105766
-0.63402
-0.279734
0.482042
0.720674
0.124523
-0.415436
-0.154795
-0.629825
0.435167
0.888843
-0.799848
0.956359
-0.595849
-0.915694
0.980451
0.784022
0.121103
-0.824784
0.552853
-0.0159209
0.323599
0.165902
0.292854
0.0488712
0.465077
0.956995
-0.908566
-0.539049
0.122548
0.572315
-0.0990039
0.76957
-0.0638169
0.286934
0.543876
-0.618675
0.369792
0.900431
-0.347617
-0.642543
0.809126
-0.224282
0.426672
-0.502609
0.989523
0.579777
0.719304
-0.604339
0.458157
-0.88343
-0.750574
0.886471
-0.325965
0.569311
-0.976576
-0.174153
0.869871
-0.428451
-0.379841
-0.680229
0.525756
-0.229596
-0.929568
-0.428859
-0.139262
-0.39072
-0.471102
0.959193
-0.510711
0.620846
0.674076
-0.368907
0.845961
-0.489647
-0.393094
0.912963
0.872182
0.803021
0.37637
0.504207
0.879043
0.390776
0.98126
0.082113
-0.476218
0.373708
-0.011967
0.156271
0.939578
-0.732735
0.208763
-0.200076
0.610408
-0.18077
-0.20087
-0.88131
-0.169318
-0.666117
0.0804169
0.481005
0.10964
0.487775
0.684369
0.282736
-0.244578
-0.0770977
-0.911408
-0.981977
-0.578633
-0.65361
0.675711
0.185117
0.651926
-0.765116
0.0875178
-0.822049
0.95503
-0.516018
0.900729
-0.470999
0.456496
-0.786282
0.38726
-0.900853
0.213821
0.0507619
-0.782299
-0.127388
-0.186628
0.287451
0.336526
-0.724489
0.882046
-0.0211493
0.38243
0.444813
0.789016
-0.18288
0.684701
0.036884
-0.141565
-0.958843
-0.395168
0.668238
-0.755528
-0.530275
0.730879
0.479087
-0.048014
0.926095
-0.162906
0.729195
-0.300088
0.755643
0.675914
0.612441
0.0559259
0.966048
-0.849407
0.352057
-0.722841
-0.175807
0.406683
0.988282
0.0564343
-0.892768
0.524156
0.466122
-0.925488
0.863402
0.559945
-0.367998
-0.885034
0.597556
-0.832989
-0.150391
0.969966
1.02106
0.821648
0.611902
0.272972
-0.572832
0.240879
-0.494788
-0.469879
-0.663929
0.0436706
-0.529868
-0.230164
-0.929855
0.362558
0.900239
0.110859
0.301
-0.939429
0.595005
-0.968343
0.0576649
-0.0544868
-0.456664
0.905524
-0.117367
-0.0562836
-0.740466
0.787571
-0.381636
-0.160648
0.710855
-0.187896
-0.084568
0.0214031
0.638595
0.962474
-0.553159
0.571243
0.977829
0.201639
-0.744348
0.726696
-0.39143
0.901657
0.120045
0.416385
0.740976
-0.51149
-0.662368
-0.251476
-0.592166
0.974414
1.0208
-0.650968
-0.320835
0.352874
0.739099
-0.18682
0.142113
-0.135367
0.344011
0.962292
0.740626
0.802281
-0.424636
-0.68073
0.0683847
0.768333
0.758775
0.342816
-0.240285
0.855785
-0.11043
-0.0849744
-0.841055
0.345622
0.256927
-0.436579
-0.963854
0.28404
0.968169
-0.467169
0.0490443
-0.0264546
-0.210044
-0.90451
0.612662
-0.0114549
0.0717486
0.535238
-0.615476
-0.364355
-0.117862
0.305637
0.579809
-0.977498
0.601209
-0.223688
0.185402
-0.825167
0.912864
0.669485
0.201092
-0.746101
0.0979
-0.0595529
0.199726
0.619279
0.178594
0.151941
-0.115887
0.0413519
0.700138
0.205537
0.696625
0.585138
0.234553
0.000996377
-0.694325
0.558333
-0.935797
0.422498
0.694512
0.729335
0.26162
0.282351
0.0546064
-0.507177
-0.324749
-0.812251
-0.553705
0.864657
-0.651231
-0.218648
0.900631
-0.283474
-0.854227
0.29289
-0.630495
-0.570816
0.558626
0.4111
0.509272
0.0641261
-0.221547
0.970979
0.264698
-0.944228
-0.525159
0.486019
-0.628558
0.733369
-0.813487
0.355893
-0.712212
-0.364772
-0.243918
-0.960099
-0.387338
0.867187
0.213399
0.709058
-0.331225
0.338416
-0.2076
-0.533526
0.0202504
-0.492859
-0.406978
-0.39444
-0.652671
0.809336
-0.320341
0.382
-0.479057
-0.0818565
0.055232
-0.260646
-0.386896
-0.826261
-0.876518
-0.387605
0.165516
0.787198
-0.33641
-0.100562
-0.185053
-0.351082
0.313715
-0.255858
-0.673249
-0.951795
-0.746125
0.862714
0.129045
0.555454
-0.803715
-0.260394
0.741814
0.978129
0.382713
0.719193
0.919742
0.308119
0.265489
0.392086
-0.226677
-0.0898094
0.795289
0.529805
0.0941991
0.350038
-0.588668
0.386758
-0.183565
0.890078
-0.685634
0.982845
-0.00192812
-0.948229
-0.227285
0.891784
0.103491
-0.074704
0.432057
-0.115182
0.186414
0.766147
0.172713
0.870056
0.745493
0.193147
0.206116
-0.546677
0.878896
-0.223792
0.670913
0.559773
0.0768161
0.510911
-0.893752
-0.651125
0.655201
-0.434434
-0.0851284
-0.705326
0.751105
-0.615902
-0.362189
-0.402911
0.293433
-0.199296
-0.338336
0.982169
-0.730253
-0.020457
0.613067
-0.272864
-0.496021
-0.248652
-0.0392861
0.393624
-0.914256
-0.64932
0.38978
-0.192496
-0.776855
0.455877
0.461019
-0.639006
0.740772
-0.965314
0.948891
0.155643
-0.472032
-0.911697
-0.442249
-0.433567
0.966485
0.596075
-0.316717
0.135373
-0.214923
0.0750964
-0.311384
-0.00097317
0.902945
0.883296
-0.0698283
0.332289
-0.407516
0.919463
-0.0210726
0.398506
-0.784478
-0.667606
0.955333
0.792593
-0.0182793
0.696044
0.179985
-0.142431
1.01784
0.338932
-0.714825
0.0347891
-0.347611
0.884689
-0.566497
0.632183
0.999535
-0.513411
-0.311819
-0.0259156
-0.597385
0.606317
-0.053045
0.767663
-0.795918
0.861759
-0.952756
0.35511
0.923498
-0.369162
-0.319445
-0.310511
-0.973826
-0.0454871
-0.574154
0.938396
-0.371434
0.500751
0.121369
-0.051975
-0.82511
-0.702942
0.833821
0.377083
-0.118517
0.765361
0.632524
-0.257404
-0.0676539
0.233696
-0.190336
0.713062
-0.538303
-0.926276
0.817085
0.126757
-0.589968
0.56388
0.281287
-0.873727
0.158482
0.152485
-0.987657
-0.883176
-0.0557289
-0.901984
-0.223098
-0.970698
0.195439
0.67654
0.0350615
0.235858
0.512416
-0.698212
0.527155
0.0797464
-0.198929
-0.531435
-0.939261
0.955017
0.213363
0.87995
-0.270877
-0.707664
0.346375
0.515398
-0.60672
0.320591
0.796476
-0.683902
-0.822489
-0.5492
0.275603
0.41546
0.78901
-0.159455
-0.42596
0.116221
0.953244
0.928438
0.960329
-0.0477115
0.115967
-0.845675
0.0787849
-0.589667
0.504211
-0.356988
-0.220539
-0.233468
0.514346
-0.688812
-0.461222
0.0240042
0.708642
0.420102
-0.826176
0.590045
0.447963
-0.0951621
0.429146
-0.485257
0.863015
-0.926681
-0.348695
0.338198
-0.770037
-0.187463
-0.572491
0.748694
-0.580971
-0.093
0.882061
0.276874
-0.49025
0.621215
0.233637
-0.215425
-0.941208
0.474495
-0.186752
0.691002
-0.732855
-0.332547
-0.817619
0.415518
0.309696
-0.244776
-0.485512
-0.918827
0.804219
0.712915
-0.463232
0.02052
0.292686
-0.0460825
-0.936179
-0.233046
-0.0709978
0.709663
0.154211
-0.832112
0.127992
-0.128012
0.534274
0.511089
-0.995681
-0.166437
-0.553081
-0.713106
0.264451
0.525319
0.410139
0.976442
-0.946983
0.501041
-0.383216
-0.935776
0.976068
0.578673
-0.529744
0.557822
0.324466
0.351391
-0.121476
-0.909102
-0.124615
0.560967
0.701667
0.0833336
-0.434506
-0.233547
-0.666736
0.447274
-0.158795
-0.401476
0.251597
0.97384
0.738113
-0.831503
0.75559
-0.417866
-0.491773
-0.997079
0.825267
0.31729
-0.713121
0.836439
-0.527942
0.205368
0.775137
-0.328549
-0.163861
-0.504028
0.197992
-0.430699
0.307149
-0.187065
0.173387
-0.875992
0.882113
0.924936
0.636191
0.259154
0.0606366
-0.327249
0.918138
-0.270193
0.847207
-0.647535
0.745749
0.323082
0.434388
-0.551498
-0.713288
0.628867
0.0261864
0.600958
-0.210613
-0.478035
-0.88935
0.914776
-0.362338
0.810355
-0.149153
-0.331744
0.34278
-0.530189
0.578729
-0.961499
-0.578812
-0.954881
0.796585
-0.975186
-0.843697
0.35084
0.618633
-0.444798
0.241637
-0.59777
-0.855579
0.273046
0.487658
0.62153
0.0497046
-0.282061
0.595343
-0.230245
-0.686241
0.905139
0.441964
0.416883
-0.510441
0.911828
-0.653692
-0.330938
-0.608097
0.953004
-0.590432
0.042878
-0.649819
-0.0873753
0.617197
0.274481
0.525446
-0.749173
0.453523
0.199398
-0.667905
-0.719024
0.511713
-0.639029
-0.0754413
0.442423
0.196061
-0.650329
0.321534
0.871176
0.872703
-0.222043
-0.463565
-0.250161
0.888289
-0.89111
0.457519
0.266221
0.590657
-0.362488
0.898204
-0.827573
0.534557
-0.605648
0.903579
0.331666
0.58696
-0.0913312
-0.548977
0.250764
0.620039
-0.815705
-0.173702
-0.93237
-0.980141
-0.934691
0.336404
-0.708839
0.805566
0.0968217
0.509002
0.0310543
0.135613
0.90358
0.067866
0.225927
0.365334
-0.12134
-0.214826
-0.466593
-0.246133
0.277419
-0.488955
-0.101462
-0.356508
-0.252609
-0.0675017
0.165762
-0.108951
0.652649
-0.794439
-0.838555
0.436496
-0.437204
0.308751
0.199517
0.380423
0.122572
0.878469
0.589155
0.619893
0.861237
0.61801
0.561289
0.898694
0.506762
0.778564
0.107178
-0.429694
0.347726
0.491083
-0.516119
-0.512046
-0.397025
0.972649
-0.050034
-0.850653
-0.346966
0.619962
-0.773945
0.345533
-0.391468
-1.0311
-0.00430536
0.441895
-0.559691
-0.284974
-0.676693
0.917013
0.795637
-0.279728
0.232732
0.102575
-0.915909
0.710095
0.952924
0.602905
-0.0729809
-0.470315
0.0189529
0.816509
-0.45479
0.682422
0.0141657
0.116651
0.314574
0.417328
0.624699
-0.464807
0.428219
-0.148113
0.944364
-0.81474
-0.833308
0.701421
0.539479
-0.641585
0.665604
-0.424277
-0.794162
-0.2236
-0.176331
0.256698
0.31523
-0.357722
0.501729
-0.440045
0.881808
-0.104664
0.215793
0.753941
-0.25761
0.692847
-0.799505
0.122008
-0.954655
-0.429331
0.727635
-0.244957
0.907836
0.354607
0.311772
0.392381
0.633049
-0.538444
-0.324345
-0.000781372
0.0256689
-0.900842
-0.500456
-0.876255
0.477262
-0.34677
0.242899
-0.0166766
0.718177
-0.803885
0.125814
0.0531548
-0.297686
0.593837
-0.389639
0.357563
0.46329
-0.913508
-0.399655
-0.306501
-0.00852285
0.369631
-0.018133
-0.701704
0.14478
-0.315089
0.254196
0.0146853
-0.502914
-0.0211051
0.739552
0.604438
0.330449
0.285712
0.508076
-0.699086
-0.661354
0.174534
-0.299947
0.0282423
0.915623
0.232048
-0.352943
-0.843861
0.77416
-0.772863
-0.786558
-0.790561
-0.0243543
-0.428918
-0.274846
-0.455547
-0.373959
0.0134036
-0.72285
0.302364
0.827221
0.350338
0.414985
0.10195
0.997787
0.574578
0.307741
-0.84671
-0.701452
-0.896286
0.778034
0.649212
0.738654
0.278006
0.522237
0.95165
0.0465788
0.979498
-0.742998
-0.0427272
0.939307
-0.889827
-0.95291
0.230929
-0.867575
-0.430255
0.365072
-0.387321
0.599951
0.22586
0.66315
0.287221
0.125746
-0.965328
-0.0306831
-0.673136
-0.820455
0.475874
0.97936
-0.173534
0.0402898
-0.961188
-0.375695
-0.248423
-0.46627
-0.145381
-0.763816
0.869798
-0.530784
0.230127
0.812335
-0.691579
-0.529953
0.314961
-0.697335
0.64259
0.238529
-0.917013
-0.0670337
0.348122
-0.878248
0.997239
0.383816
-0.178266
-0.578015
-0.807543
-0.203199
0.084846
0.353874
-0.580805
0.8852
0.588707
-0.086542
-0.810117
-0.881615
0.649355
-0.206693
0.445785
0.982168
-0.542703
0.112291
0.304625
0.0507557
0.439778
-0.744953
-0.589854
0.860958
0.920308
0.148258
0.109368
0.884318
-0.65456
-0.20774
0.562265
0.831532
0.481974
0.529732
-0.312238
0.691079
-0.0583432
0.308853
-0.248664
-0.686625
-0.141072
0.264691
-0.0709399
-0.659549
-0.0500051
-0.260285
0.0542446
0.64833
0.37443
-0.0502753
-0.381646
0.176295
-0.141136
0.142689
0.794557
0.146329
0.812452
0.538781
0.214843
0.57327
-0.612899
0.37622
-0.732761
0.406289
-0.244069
0.536586
-0.303491
0.235284
-0.848407
0.535981
0.604858
0.207319
0.328588
-0.413385
-0.77502
-0.137662
0.256326
-0.653944
0.561917
-0.638369
0.291452
-0.0085818
-0.611367
-0.924475
-0.693361
0.934739
-0.115244
0.76806
0.658343
-0.683991
0.61943
0.501127
-0.802856
0.00508036
-0.92279
-0.762541
0.431315
-0.366202
-0.0950909
0.86609
0.669582
0.530285
-0.963171
-0.479993
-0.425107
-0.907626
-0.0817122
0.156351
0.214082
0.957655
-0.241249
-0.40399
0.261888
-0.557076
-0.260253
0.520534
-1.07055
0.20255
-0.248017
-0.980077
0.933067
0.479517
-0.068103
-0.975715
-0.718706
-0.0728873
-0.301198
-0.203802
-0.694377
-0.159399
0.0503734
-0.568192
-1.00102
-0.993116
0.153352
0.462906
0.441046
-0.557636
0.597004
0.407236
-0.465757
0.528358
-0.24097
-0.921977
0.516112
-0.185012
-0.196528
-0.4601
0.187624
0.445416
0.186456
-0.301738
-0.775808
0.87365
-0.0941224
0.457202
0.103822
-0.30001
0.641927
0.177982
-0.77928
0.348336
0.95067
-0.753089
0.86482
0.77665
-0.967075
-0.630886
0.240637
-0.782529
-0.363569
-0.998768
-0.776543
-0.956935
-0.865559
-0.443576
-0.31318
0.237064
-0.42311
-0.0829329
-0.0717815
-0.66677
0.161209
0.590146
-0.99673
0.128046
0.504671
-0.957375
-0.887828
0.382206
0.358293
-0.0267864
0.740137
0.559154
0.947093
-0.201973
0.150605
-0.834796
-0.56448
0.727945
-0.386254
-0.760274
0.342944
-0.100722
-0.671776
-0.252918
-0.857871
0.839241
0.967182
-0.229675
0.454011
0.0565566
-0.482532
-0.125739
0.711249
0.410619
0.721655
-0.166035
-0.501736
-0.051531
0.91086
0.332047
-0.699071
0.18863
-0.154696
0.0621519
-0.243791
-0.526604
0.213128
-0.531847
0.846061
0.467753
0.0537005
-0.596785
-0.337188
0.508875
0.335118
0.0540505
0.142419
-0.910204
-0.189484
-0.290137
0.609483
0.60983
0.0344961
-0.512983
0.284513
-0.672073
0.764908
-0.795721
-0.768582
0.474713
-0.331934
0.849965
-0.995566
-0.141873
-0.0112606
-0.273963
-0.936878
-0.260444
-0.596562
0.133596
0.231545
-0.351859
0.087203
-0.751281
0.647678
0.935728
-0.875087
0.578816
0.423007
-0.536955
-0.260891
0.749766
-0.236333
-0.123523
-0.597137
-0.414472
0.232704
0.788279
0.427253
-0.862493
-0.31362
0.754888
0.106842
0.861697
-0.14672
-0.199359
-0.537754
-0.186565
0.451841
-0.915258
-0.267069
0.449425
0.17876
-0.514048
0.669491
-0.604627
0.341741
0.0236707
-0.717159
0.554012
0.346603
-0.0597042
0.600444
-0.625429
0.0100494
-0.506103
0.022173
-0.129174
0.0675423
0.968029
-0.111405
-0.0460131
-0.803129
0.086074
0.367419
0.567283
-0.699344
-0.0266877
0.886371
-0.360838
-0.414873
-0.800662
0.631739
-0.574259
0.1207
-0.904623
-0.660928
0.974713
0.55431
0.0476158
0.364587
0.0886723
0.74724
-0.0894553
0.0281873
0.694167
-0.73947
0.633687
-0.343187
-0.637796
0.994265
0.803988
-0.0929526
-0.474239
0.994507
-0.127505
-0.928056
0.0256254
0.0196709
0.881449
0.545322
-0.0434198
0.790431
0.644393
0.895175
0.546831
0.691801
0.140538
-0.312138
0.760261
-0.208963
-0.278107
-0.882752
-0.192736
-0.434622
0.271449
0.614313
0.645294
0.937121
0.258895
0.852707
-0.119369
0.775251
-0.151223
0.335931
-0.319064
-0.853929
-0.341149
-0.509668
-0.615815
-0.588577
-0.244539
-0.818648
-0.822749
0.116781
0.837506
0.80294
-0.97459
-0.0595068
-0.166357
-0.251254
-0.193884
0.681494
-0.508099
-0.805531
0.0375212
0.718502
0.546496
-0.783133
-0.992318
0.025619
-0.370019
-0.883625
0.829675
0.660545
0.0962028
0.240061
-0.0325403
0.409582
-0.0401731
0.495027
-0.738017
-0.447873
-0.875078
-0.00882016
0.458847
0.855732
0.938092
0.466005
-0.431455
-0.117338
-0.167819
-0.978555
-0.67444
-0.745984
-0.473439
-0.421748
0.657887
0.0564746
-0.399623
-0.628336
0.250149
-0.595593
-0.761008
-0.189139
-0.589655
0.220131
-0.607569
-0.478004
0.145478
-0.424209
-0.494103
-0.83375
-0.70511
-0.794076
0.596938
-0.352692
-0.167411
-0.725999
0.303907
0.340673
0.507365
0.272413
-0.386211
0.316989
-0.00952258
0.854615
-0.75566
-0.0117001
-0.438579
-0.88554
-0.02502
-0.667075
-0.285346
-0.392175
0.00568326
0.587188
0.916469
-0.486284
-0.963241
-0.150235
0.715297
0.726415
-0.320921
0.173348
0.573354
-0.0739976
0.876826
0.301785
-0.55729
-0.879807
-0.792767
0.189843
-0.203124
-0.797319
-0.530988
0.25431
0.0516188
-0.28708
-0.512172
-0.155724
-0.415027
-0.167592
0.542093
-0.534524
-0.580281
0.8108
-0.88823
0.413993
-0.753509
-0.839875
-0.790758
-0.640646
0.784105
0.399909
0.31126
0.543345
-0.191794
-0.719946
0.0726074
-0.49458
-0.105361
-0.379114
-0.862912
0.841719
0.624926
-0.737972
-0.727165
-0.916744
-0.779267
0.820877
0.0127361
-0.626026
-0.455925
0.196977
0.150892
0.446348
-0.121772
0.224738
0.0820164
0.329062
-0.0854094
0.577915
0.211118
-0.403306
-0.352155
-0.501448
-0.379433
-0.528777
-0.795645
-0.0481915
-0.364392
0.0446096
0.289356
0.176058
-0.353154
0.222842
-0.32871
-0.560403
0.247979
0.883504
-0.0750992
-0.303473
-0.0380534
0.960822
0.0377927
-0.54708
0.664446
0.469124
0.17408
-0.0714122
-0.200127
-0.956839
-0.112644
0.0567855
0.0508331
-0.446675
-0.804324
-0.584892
-0.915102
-0.283072
0.483678
0.120505
-0.656609
0.886849
0.836919
-0.81173
0.18672
0.0904456
-0.97749
-0.325508
-0.853208
-0.672683
-0.955318
-0.990915
-0.875652
-0.695669
-0.467772
-0.580563
0.00776324
-0.10981
0.0893618
0.969609
0.884168
0.889586
0.637838
-0.679776
-0.543599
-0.182822
-0.935764
-0.674357
0.80241
-0.909935
-0.246708
-0.456644
0.424261
0.587729
0.222745
0.473162
-0.406105
-0.493597
0.214171
0.0457571
0.975208
0.750873
-0.151152
-0.143109
0.342438
-0.276694
-0.651642
-0.0303434
-0.662684
0.97646
0.739773
0.307166
0.893519
0.953488
0.28966
-0.768376
0.0801796
-0.440439
0.163065
0.527287
0.279716
0.0446537
-0.968907
0.904094
0.120816
-0.0808982
0.132427
-0.880985
-0.159702
-0.748038
0.578185
-0.186608
-0.458223
-0.347334
0.206214
0.914201
0.0200076
0.194932
0.20766
-0.449632
-0.310791
0.993321
0.141991
-0.211536
-0.762872
-0.358815
0.367369
-0.73745
0.193226
0.902347
0.0495057
0.5347
-0.327519
-0.546237
-0.905477
0.724579
-0.785025
-0.413341
-0.0147895
-0.303305
0.717962
0.328912
0.336972
0.92982
-0.32643
-0.213834
-0.400938
0.0379157
0.992022
0.542705
0.406293
0.125538
-0.432273
-0.630117
0.783403
0.499452
-0.14516
0.927461
-0.662714
0.597826
-0.75534
-0.268702
0.738605
-0.604252
0.814388
0.36806
-0.391217
0.0995351
-0.46957
-0.866525
-0.193815
0.536182
-0.0750619
0.213217
-0.286802
-0.759257
-0.301677
0.22569
-0.619864
-1.00454
-0.0945835
-0.834923
0.42029
0.875763
-0.697929
0.187974
0.0938823
0.627107
0.403499
-0.149228
-0.198955
-0.800441
-0.405048
-0.58706
0.342201
-0.411895
0.329266
-0.131825
0.151937
0.269395
0.906018
-0.169474
0.253789
-0.138827
-0.190701
0.799539
0.187725
-0.610828
0.71484
0.589735
-0.475479
0.610293
0.862962
0.244684
-0.928113
0.273396
0.189602
-0.558338
0.966496
0.00690505
0.954519
-0.720308
0.959914
-0.0713415
0.882925
0.928877
0.582959
-0.794444
-0.135018
0.150667
0.851247
-0.479132
0.667957
0.63557
0.0204017
-0.990228
0.830025
0.946169
0.0374597
1.01571
0.903184
-0.21108
-0.251688
-0.502051
-0.705185
-0.131327
0.339685
0.252743
0.809857
-0.42715
0.462344
0.191462
0.175533
0.841963
-0.836461
-0.16554
-0.770961
-0.289722
-0.54098
-0.82368
-0.629028
-0.350436
-0.367829
-0.224654
-0.235005
-0.268188
-0.679653
-0.759666
-0.835525
0.303648
0.253821
0.206344
0.878694
0.0953951
0.803631
0.940459
0.41173
-0.247959
-0.463524
0.260684
-0.0545393
0.96038
-0.686334
0.206937
0.529068
-0.91061
0.360464
-0.0244561
-0.608897
0.275718
-0.518639
-0.364811
-0.579577
0.675852
0.396208
-0.00765215
0.566945
-0.714392
0.910286
-0.62636
0.40889
0.437719
0.345395
0.711973
-0.282578
-0.560955
-0.796242
0.271574
0.5289
-0.719669
0.294822
0.226936
-0.82974
-0.0612745
-0.063323
-0.522538
0.0482268
-0.54725
-0.544222
0.0229553
0.783949
-0.329071
-0.0276456
0.565456
-0.404407
0.802982
-0.556582
0.560851
0.913573
0.235565
0.648002
-0.844091
-0.979431
0.964613
0.828791
0.387555
0.462817
-0.480174
0.826148
0.482524
0.587873
0.81707
-0.359467
-0.762535
-0.578941
0.854305
-0.47669
0.101151
0.0740846
-0.187336
-0.31488
0.855563
0.622218
-0.0454376
0.920674
0.831953
-0.145901
0.577992
0.74239
-0.963249
0.0207954
-0.49794
-0.726061
0.982125
0.19883
-0.769109
-0.656844
0.410573
-0.329247
-0.208876
-0.517488
-0.699661
0.642494
-0.97068
-0.693096
-0.85053
-0.120657
-0.101757
0.892491
-0.793993
-0.218596
0.500342
-0.826191
-0.705335
-0.647481
0.928552
0.192996
0.748833
-0.122337
-0.00831325
-0.0107093
-0.460248
0.292972
-0.879398
-0.178923
-0.364447
0.0216097
0.451383
-0.814674
-0.377664
0.0935968
0.778139
0.380619
-0.914145
0.144777
-0.0429829
-0.838439
0.931612
0.0351411
-0.541022
-0.213737
0.979587
-0.632148
-0.26528
0.732262
0.693043
-0.482126
0.688855
-0.247512
0.129269
0.494724
-0.852542
-0.320286
0.187923
-0.277988
-0.879217
-0.424617
1.00599
-0.221103
0.983952
0.597679
-0.32428
0.575472
-0.886943
0.906933
-0.775784
0.51734
-0.922868
-0.933587
0.515974
0.234626
0.225479
-0.104484
-0.28554
0.693132
-0.268801
-0.766319
0.0787037
-0.379925
0.410559
-0.215524
-0.0847508
0.405275
1.02629
0.741138
-0.512164
0.6033
-0.357002
0.238966
-0.0315214
-0.690041
0.708755
0.972412
-0.304251
0.745543
-0.613897
-0.207311
0.624976
-0.547496
-0.449127
0.629452
-0.787551
0.638938
0.315021
-0.721233
-0.838277
0.0607275
0.0286927
0.552884
-0.00998934
0.0130293
-0.725061
0.302131
0.565166
0.744353
-0.897415
-0.455355
0.00930077
-0.666248
-0.211361
-0.608758
-0.3049
-0.36467
-0.726568
-0.913967
-0.792615
0.950982
0.367075
0.142894
-0.885885
-0.546704
-0.910193
-0.608852
0.804914
-0.974211
0.102216
-0.693398
-0.822785
0.966966
0.510647
0.633332
0.060852
-0.156678
-0.0771563
0.549049
-0.286817
-0.533648
0.910969
-0.386773
-0.377734
-0.466392
-0.100923
-0.702776
0.562197
-0.0530269
0.813775
0.973577
-0.837695
0.402996
0.267865
0.522361
0.928399
-0.724463
0.681105
0.182788
0.35048
0.450678
0.122194
-0.410599
0.840878
-0.263589
-0.448691
0.326043
-0.892209
0.106856
-0.851498
0.577862
0.97658
-0.488735
0.615409
-0.134086
0.649943
0.86335
-0.833972
-0.98792
-0.919
0.576184
-0.679721
-0.291538
-0.98794
-0.199375
0.947466
-0.0281759
0.859779
0.993911
-0.837656
-0.438119
0.174077
-0.914788
0.134215
-0.555731
0.214393
0.0281298
-0.824083
0.59081
0.947281
-0.557913
0.350588
-0.597274
0.75522
0.0192451
-0.368166
0.65404
-0.586668
-0.537023
0.833882
-0.262981
0.231391
0.0361932
-0.994164
-0.0311845
0.313048
-0.319652
0.940128
-0.0819084
0.345805
-0.815421
-0.0248148
0.302673
0.408396
0.446208
0.728435
-0.972738
-0.189581
-0.366075
-0.781276
0.152071
0.19984
0.761565
0.715471
-0.386464
-0.843989
-0.29521
0.615179
-0.347507
-0.655166
0.575763
-0.984928
0.596115
-0.790368
0.67037
-0.437158
-0.871186
0.55788
0.0837401
0.472891
0.171182
0.248714
-0.971369
-0.16182
-0.334775
0.784996
-0.134274
-0.515664
-0.509841
0.813352
0.0427481
-0.600968
0.66645
-0.0629903
0.0662326
-0.65105
0.796252
0.593892
-0.557732
-0.979504
0.533355
-0.619747
0.255604
0.873439
0.535469
0.522298
-0.613042
-0.563552
0.122527
0.830527
0.260359
-0.762762
-0.183706
0.510157
0.974775
0.81057
-0.702636
-0.891596
0.253192
-0.842603
0.400954
-0.184178
0.421382
0.245036
0.139967
-0.448068
-0.00150923
-0.0913835
0.185342
-0.582945
-0.200611
0.58574
0.998713
0.083884
-0.325859
-0.229334
-0.466045
0.463158
0.926802
0.485827
-0.944532
-0.118104
0.83014
0.601847
0.0256694
0.8073
-0.247689
-0.16857
0.585929
0.342763
-0.203827
0.783735
-0.644454
-0.70459
0.557985
0.741556
-0.2927
-0.0701655
-0.923471
0.665059
0.729211
-0.311171
0.0631574
0.625174
-0.177385
0.961921
0.988243
0.699674
-0.669557
-0.422005
-0.773413
0.815483
0.320117
0.225077
0.728596
0.935285
-0.536689
0.701386
0.176024
0.783284
0.459061
0.941626
-0.214292
0.498341
0.0230305
0.713655
-0.234594
-0.304814
0.474877
-0.261521
-0.341487
0.191238
0.46651
-0.108861
-0.212738
0.315308
-0.639297
0.266631
-0.891667
-0.869819
-0.322274
-0.727342
0.777037
-0.858738
0.00952269
-0.856059
-0.548876
-0.127153
-0.769015
0.984579
0.628856
-0.650035
0.0520278
-0.248984
0.460488
0.304404
-0.811157
0.0929507
-0.0228215
0.443943
-0.742797
-1.01063
-0.533967
0.413961
0.306606
0.991158
-0.247697
0.29912
-0.107272
0.668503
0.90062
0.0281618
-0.362256
0.588823
0.18849
0.35883
-0.41419
0.561967
0.437022
-0.971767
-0.473861
0.721511
-0.575104
0.747728
0.00906935
0.521572
0.774168
-0.722248
0.298486
-0.59337
-0.63259
0.662481
0.418576
0.194213
-0.789171
-0.764781
0.420409
0.664577
-0.448717
-0.118978
-0.629115
0.599437
0.256659
0.26615
-0.320282
-0.936611
0.619607
0.675983
0.273384
0.488025
0.673349
-0.572043
0.192908
0.159912
-0.0847074
-0.551297
-0.589694
-0.522635
-0.370264
0.84468
0.103975
0.925231
0.356051
-0.189163
0.498837
-0.347891
-0.235751
0.222747
0.587926
-0.502104
0.240211
0.742468
-0.574926
-0.0867134
0.268549
0.0859785
0.856224
0.57547
-0.757984
0.962219
-0.650979
-0.76913
-0.725667
0.212322
-0.464084
-0.375182
-0.520862
-0.0542807
-0.278736
0.906372
0.273581
-0.286219
0.923566
0.764079
-0.862926
0.73949
-0.845814
-0.216434
0.970301
0.80566
-0.27825
-0.716908
-0.116392
0.822932
-0.387016
-0.508251
-0.838967
-0.330165
-0.314637
0.381844
0.156632
0.916283
-0.808803
-0.520416
0.0570121
-0.0505965
-0.247551
-0.138161
0.64802
0.208338
0.749763
0.507569
0.692117
0.68125
0.824581
0.223521
0.767482
0.788245
0.350051
0.798503
0.860155
-0.895561
-0.224454
-0.71825
-0.37618
0.0814735
-0.212432
-0.0846899
-0.934784
-0.803389
0.391778
-0.964464
-0.893986
0.591139
0.654172
0.964524
0.475124
0.604047
0.00050267
-0.778513
0.00763307
-0.816682
-0.947882
0.790406
0.177966
-0.422665
0.657081
0.195325
-0.630045
0.617252
-0.694788
-0.480204
0.600537
0.455018
-0.905409
0.718275
-0.217931
0.786341
0.167053
0.031081
0.500356
-0.255634
0.230503
0.878999
0.707818
-0.00662327
-0.499324
0.900667
0.765725
-0.134747
-0.078358
-0.861385
-0.00909506
0.450925
0.378683
0.695822
-0.523319
0.781093
0.494072
0.421972
0.597182
-0.620565
0.104863
0.366134
0.414731
0.236992
-0.409767
0.759749
-0.427691
-0.0539882
-0.529296
0.385359
0.502949
-0.936776
-0.708291
0.988833
0.477715
-0.425431
-0.281852
0.214033
0.137025
0.240187
-0.790507
0.453247
-0.690814
-0.331372
0.332606
0.126957
-0.267571
0.651893
-0.193627
0.293063
0.487803
-0.008674
-0.200193
-0.749028
0.455198
0.971304
-0.699648
0.467376
-0.985573
-0.0841367
-0.337124
0.572745
-0.0409236
0.534857
-0.441656
-0.344059
-0.131397
-0.864864
-0.515563
-0.759818
-0.86002
-0.699297
0.684669
0.381289
0.721092
-0.191678
-0.291022
0.542851
0.430879
-0.372276
-0.778945
0.737722
0.309703
0.871897
-0.374604
0.465985
0.460017
0.52815
-0.759461
0.474258
0.0323969
-0.289925
-0.976296
-0.161982
-0.744081
-0.825151
-0.662382
0.3494
0.542987
-0.9717
-0.728453
0.762867
0.828903
-0.116547
-0.269478
-0.181729
0.530566
-0.189138
0.404012
0.276819
-0.809108
-0.840631
-0.726371
-0.626882
-0.01776
0.0809425
0.785607
-0.904127
0.279305
0.592994
-0.122801
-0.631203
0.179252
0.736309
0.314006
-0.500709
0.298258
0.958886
0.0776202
-0.560982
-0.40322
-0.223603
-0.616588
0.268882
-0.913553
0.880281
0.066085
0.956122
-0.151084
0.436937
0.283643
-0.458123
-0.448972
0.0580141
0.34444
-0.993893
-0.348816
0.0769055
0.812275
-0.00946026
-0.211303
-0.27297
-0.804227
-0.109762
-0.364785
-0.775691
-0.169012
-0.418307
-0.400751
0.911791
0.0175569
-0.0934935
0.514082
-0.00125055
-0.525438
0.0418621
-0.225151
-0.952571
0.757087
0.408309
-0.183519
0.923344
0.575285
0.255242
0.10795
-0.707668
0.973413
-0.364999
-0.867306
0.909046
0.667405
-0.822558
0.218161
0.840541
-0.521443
-0.138875
-0.599261
-0.22029
-0.714097
0.207585
-0.0533822
-0.356359
-0.96461
-0.764825
0.271906
-0.447346
-0.389822
-0.47059
0.254542
0.879134
-0.326711
-0.387849
-0.957991
0.77555
0.68561
0.519342
-0.535281
0.86292
0.0639603
0.342552
-0.60948
0.532032
-0.751607
-0.60525
0.443605
0.194953
0.440415
-0.600654
-0.080208
-0.298296
0.186954
0.446258
0.518109
-0.403807
-0.87584
0.595227
0.0507074
0.708429
0.294813
-0.950819
-0.681812
-0.918098
-0.159758
-0.819591
-0.00383969
0.0744026
0.872476
-0.479119
0.166991
0.263841
0.548742
0.446546
-0.145654
-0.0781575
0.439459
-0.809117
0.73025
-0.784968
-0.149007
-0.347744
-0.806378
-0.380617
-0.635455
0.347419
0.715065
0.730896
-0.446594
-0.91908
0.664677
0.511724
-0.749397
0.978029
0.922888
0.935984
-0.83983
0.455449
-0.0459091
0.221311
-0.0108467
-0.504484
-0.892819
-0.317389
0.875238
0.875847
0.201758
-0.496291
-0.212423
0.839193
0.422866
-0.699632
-0.640202
0.18764
0.16341
-0.202163
-0.0939203
0.154732
0.808959
-0.273273
-0.600149
0.808015
-0.231468
0.0949264
-0.437439
-0.489998
0.942393
-0.613984
-0.875428
-0.0739062
-0.728437
-0.111028
0.249699
-0.153847
-0.951256
0.560912
0.741238
-0.0653818
0.84104
-0.964531
-0.613158
-0.250491
-0.326801
0.8986
0.529308
-0.352153
0.649703
-0.350563
0.46502
-0.230803
0.479994
0.448392
0.101228
-0.446356
-0.307248
-0.188667
0.83579
-0.78716
-0.348678
0.466997
0.421423
-0.910994
0.0494126
-0.907676
-0.242745
0.108038
-0.42437
-0.443451
-0.332922
-0.794045
0.91401
0.573179
0.860955
-0.847719
0.583499
0.96156
0.548767
-0.724219
0.72363
-0.337949
-0.0708805
-0.831914
-0.689822
-0.343521
-0.626467
0.818649
0.86021
0.134792
-0.965333
-0.00660609
-0.415595
0.376622
0.519763
0.664034
0.6611
0.285797
-0.426532
-0.558887
-0.595102
0.00803271
-0.899809
-0.03109
-0.786446
-0.204125
0.236763
0.181253
0.117888
-0.38138
0.884182
-0.310147
-0.963739
-0.34046
0.69565
-0.795411
0.105298
-0.123889
0.665651
-0.272135
0.392132
-0.751372
0.40998
0.427396
0.402035
0.189317
0.949628
-0.823416
0.173075
0.864822
-0.531363
-0.425507
0.502559
-0.639429
0.0190876
0.351044
-0.992293
0.0989372
-0.691988
0.728534
-0.895517
0.74538
0.365179
-0.452037
0.573857
0.972402
0.286127
0.592626
-0.681512
0.726449
-0.00492122
-0.388339
0.820605
-0.763137
0.861149
0.652838
0.242721
-0.32892
-0.219401
0.936816
0.318609
-0.743093
0.602081
0.0695304
-0.889843
0.380905
0.421915
-0.604699
0.212131
0.412091
0.133089
-0.676443
-0.730376
-0.68189
-0.10945
-0.0323824
-0.242335
0.415457
0.749956
-0.202117
-0.932391
-0.547774
-0.726217
-0.533652
-0.639584
-0.270854
-0.279776
0.537019
0.122248
-0.266995
-0.363543
-0.733086
0.601565
0.194101
-0.858562
0.709579
0.527651
-0.266408
0.356933
0.19626
0.146965
0.357705
0.601364
-0.661863
-0.137626
-0.0144158
-0.771582
-0.0687311
0.106069
-0.540019
-0.271651
-0.625551
-0.595204
0.312267
-0.386985
0.197177
-0.816503
-0.81898
0.492469
-0.214093
-0.70993
0.739986
0.804182
0.70967
-0.936478
-0.359532
0.0964791
-0.636376
0.0197099
0.617915
-0.194591
0.00178974
-0.510319
-0.250117
-0.98879
0.0424911
-0.820512
-0.872899
-0.382259
0.125972
0.322712
-0.651471
0.178658
-0.848053
-0.349274
0.346214
0.398471
0.750823
-0.116902
0.082633
0.665136
0.976151
0.84513
-0.479662
0.168471
-0.480237
-0.793664
0.958279
-0.385343
-0.118173
-0.848574
0.930814
0.899494
0.996909
0.18443
0.80771
-0.0501991
0.704088
-0.579857
-0.170934
-0.413133
-0.817304
-0.424548
-0.518168
-0.775056
0.324373
0.651833
0.777697
-0.482126
-0.669034
-0.998375
0.885008
0.498048
-0.287193
0.71064
-0.214173
0.82471
-0.0678818
-0.846414
-0.0890371
0.424037
0.894153
0.0514007
-0.669491
0.694156
0.504296
-0.607813
-0.119434
0.264682
-0.861245
-0.291817
0.139605
0.0996006
-0.58273
0.385109
0.0149312
-0.917306
-0.82
0.512384
-0.8944
-0.466463
0.910494
0.280791
0.565794
0.898642
0.800028
0.884669
0.791779
-0.101802
0.456304
-0.599694
-0.520485
0.873381
-0.887919
0.740899
-0.351321
0.318571
-0.0663695
-0.468247
0.497785
0.75508
0.881593
-0.873294
0.538093
0.432465
-0.68837
-0.739403
0.832927
0.0720173
0.000779548
0.662596
-0.905888
0.278243
-0.338592
-0.224182
0.491963
-0.49265
0.0942909
-0.727744
0.830569
0.331667
-0.533802
0.0896956
-0.219041
-0.664445
0.946335
-0.708721
0.940274
0.758213
0.757502
0.195896
0.20581
0.883194
-0.3416
-0.221997
-0.995074
-0.298029
-0.657409
0.63005
-0.573597
-0.470609
-0.454629
-0.227203
0.428576
0.810804
0.302942
0.523312
-0.293422
-0.422772
-0.42102
-0.316804
0.866715
-0.384824
-0.0698758
-0.320775
-0.122238
-0.519279
0.945511
0.419021
-0.735432
0.23098
0.566244
0.490738
0.699618
0.208039
-0.885741
-0.325247
-0.624833
-0.232187
-0.671556
0.788927
0.248093
0.0739303
0.00913987
1.00194
-0.384714
0.298628
-0.703343
0.695639
-0.792994
-0.282435
0.477432
-0.382376
-0.115316
0.206037
0.588227
0.0696552
-0.734857
-0.794531
0.0873263
0.0447642
0.444081
0.525406
-0.0391566
0.39176
0.371975
-0.533999
-0.450028
0.0102658
0.567056
0.0397195
-0.841874
-0.0571393
0.677778
0.245715
0.54948
-0.114193
0.392719
0.848162
0.525139
-0.432347
-0.578
0.537712
-0.260935
-0.192221
-0.329521
0.992391
0.213806
-0.439145
-0.758177
-0.589684
0.843017
0.0697711
-0.161525
-0.24458
0.558602
0.593889
0.904884
0.285674
-0.623187
0.586884
0.432051
0.927306
0.693159
-0.681185
0.568675
-0.940972
0.655379
0.774839
0.42508
-0.668998
0.949226
-0.143618
0.221849
0.848861
0.715568
0.48906
-0.984454
-0.354911
0.441833
0.195053
0.566186
1.0399
0.9805
-0.0895051
0.5918
1.02193
0.521936
-0.498612
0.321889
-0.626927
-0.0713583
0.221624
0.111858
0.657827
-0.255865
0.336238
-0.52408
0.584674
-0.890537
0.569776
-0.481113
-0.144288
-0.610813
-0.70068
0.794486
0.569783
-0.988504
-0.197392
0.154027
-0.545718
-0.263122
0.874675
0.615675
-0.314189
0.958468
0.218405
0.0967152
-0.56188
-0.304861
0.139124
0.309676
-0.80486
-0.507903
0.25151
0.939594
0.0811707
-0.104268
-0.272461
0.725508
-0.666149
0.989609
0.646371
0.225078
0.685808
-0.176965
0.153
0.204732
-0.0133288
0.519704
0.00485333
0.70464
0.405278
-0.680867
-0.924878
0.396866
0.680134
-0.188215
-0.586546
0.261609
0.184584
-0.39182
-0.867311
-0.283368
-0.595069
0.054608
-0.896299
-0.760942
0.295183
-0.599237
-0.781062
-0.628906
-0.44905
-0.773932
0.0434788
-0.813481
0.745071
-0.562518
0.835352
0.555935
-0.486154
0.382368
-0.628485
0.411063
0.528021
0.30122
-0.499753
0.0369637
-0.779634
-0.957009
0.588295
-0.0589455
-0.268071
-0.64277
0.471228
-0.276244
0.716666
-0.330217
0.139423
-0.0558513
-0.163871
0.922827
0.861532
0.222777
0.113537
-0.602014
0.33442
0.800405
-0.164775
0.144228
-0.107774
-0.598088
0.297923
-0.5285
-0.748854
-0.899241
0.697937
-0.0649361
-0.647597
-0.983835
0.576431
0.374114
-0.208068
-0.136292
0.723447
0.590328
-0.928535
-0.368035
0.550232
-0.0112414
-0.218907
-0.631181
-0.427559
0.871484
0.77216
0.718628
-0.617521
0.946298
-0.281565
0.984552
0.470399
0.49751
0.453727
-0.0129334
0.150446
0.400047
0.867091
0.36721
-0.402639
-0.573413
-0.845281
0.211976
-0.415027
-0.148292
-0.293443
0.393601
-0.0250564
0.850191
-0.882792
0.000666272
0.201856
-0.140938
0.269196
-0.854341
-0.336972
-0.382042
0.383009
0.274796
1.0036
0.822697
-0.512061
0.773444
-0.906184
-0.852897
-0.417581
0.706728
0.847887
0.954042
-0.843099
-0.526069
-0.618599
0.384997
-0.778668
0.912859
0.952327
0.41485
0.404593
-0.0898053
-0.0910744
0.893396
0.99707
-0.777651
0.524252
0.761633
0.767131
-0.614189
-0.52836
-0.364338
0.0114514
0.123514
0.310429
0.478123
-0.735549
0.00878097
0.123281
-0.448622
0.0030795
-0.746119
-0.736573
-0.486209
0.645912
-0.697242
-0.797332
0.2932
0.536726
0.635726
0.599208
0.0690216
0.671166
-0.305153
-0.598617
0.622296
0.824235
0.534984
0.741363
0.499848
0.874429
-0.888053
-0.544914
0.460016
-0.526101
-0.943754
0.42041
-0.534436
-0.655876
-0.33006
-0.876808
0.767248
-0.580428
0.781295
0.178914
0.699705
-0.226272
-0.868071
0.380568
-0.25016
0.29031
-0.0780569
0.508805
0.477887
-0.775341
0.928554
-0.703754
-0.389096
0.511144
-0.763712
0.473318
-0.51943
0.770459
0.998066
-0.0197328
-0.840199
-0.628923
-0.064221
-0.0818625
-0.470422
-0.652731
0.222886
-0.461892
-0.896328
0.392431
0.230124
-0.830031
-0.566953
-0.318621
0.156389
-0.186342
0.168204
-0.1342
-0.639953
0.00125465
-0.840733
0.789059
-0.188221
0.240837
0.809603
-0.238149
-0.569504
-0.476138
0.256709
-0.475209
0.477493
0.501231
-0.793418
0.889787
0.117799
0.677156
0.958754
-0.523747
0.151442
0.994388
-0.87995
0.148891
-0.0806052
-0.692184
0.84223
-0.126175
0.487872
-0.546912
0.852791
-0.933738
-0.505205
0.397015
-0.83448
0.565444
-0.815543
-0.441257
0.0150392
-0.53361
-0.597811
0.428413
0.945173
1.00779
-0.757527
1.04555
0.72614
-0.620518
0.29459
0.649741
0.954397
-0.36215
-0.54448
0.643167
0.484963
0.96093
0.658473
-0.0905886
0.351627
0.546211
-0.469407
0.975913
-0.102773
-0.481549
-0.208023
0.687957
0.998069
-0.739457
-0.167773
-0.573558
-0.475361
-0.966613
-0.373777
0.560931
0.476484
0.752711
-0.818955
0.464939
-0.132644
-0.195482
-0.788773
0.404962
-0.482823
0.263938
-0.824041
0.169436
-0.336143
0.421522
-0.720584
0.341033
0.77331
0.154674
-0.168691
0.423987
-0.350739
0.962137
0.810585
-0.198195
-0.47054
-0.388517
0.572054
-0.562683
-0.238724
0.98379
-0.195039
-0.652205
0.812305
-0.934153
0.355147
-0.0767403
0.677667
0.372843
0.230799
0.493274
0.879887
0.476221
-0.00191563
0.349065
-0.322329
-0.0847357
-0.0974983
-0.628317
0.698734
-0.340493
0.429231
-0.580805
-0.620564
-0.758595
0.594387
-0.242487
0.134011
-0.280658
-0.5341
-0.277218
0.589966
-0.939199
0.0476838
-0.795292
0.0951259
-0.0386133
-0.73425
0.0523097
0.674751
-0.261329
0.871969
-0.846174
0.313148
0.18104
0.61036
0.657489
0.29928
-0.401047
0.21172
-0.556505
0.965578
-0.211361
-0.722935
0.773359
-0.564845
0.202824
-0.872979
0.710416
0.314948
0.195423
0.739268
1.00395
-0.527796
0.881885
0.318604
-0.66953
0.358858
-0.791092
0.327138
0.795472
0.601603
-0.783545
0.0652405
0.369276
-0.134685
-0.452629
-0.127608
-0.1783
0.779139
0.476653
-0.479695
0.967219
-0.108011
-0.783342
0.204332
0.31751
-0.542477
-0.73539
-0.20487
0.326262
0.494466
-0.889552
0.88998
-0.762057
-0.1943
0.0574261
-0.322444
0.799331
-0.564709
-0.126214
0.118343
0.892932
0.233092
0.635929
-0.325217
-0.73325
0.813777
-0.806367
-0.496101
-0.209452
-0.278341
0.357766
-0.958629
0.957228
-0.424614
-0.706961
0.979123
-0.277454
0.247322
0.633482
0.655614
0.129415
0.340362
-0.0152898
-0.17892
0.337961
0.884453
-0.12966
-0.86492
-0.00979531
-0.872242
-0.864098
0.51885
0.846496
0.813088
0.687528
0.910874
-0.13827
-0.229232
-0.611284
0.819715
0.914944
0.942656
-0.652262
-0.526112
0.556166
0.87295
0.253806
0.676158
0.0268354
-0.641523
-0.284931
-0.406462
0.844617
-0.504833
0.82449
0.8419
0.369143
0.291028
-0.48735
0.0343095
-0.879678
-0.0778933
0.0934818
0.410435
0.153568
-0.732455
-0.35697
0.345763
-0.62711
0.232751
-0.741496
-0.187235
0.248663
0.0405987
-0.774018
-0.0230865
-0.3995
-0.0705347
-0.581692
0.72034
0.466587
0.872897
0.103865
0.892292
0.587907
-0.526545
-0.284289
-0.324913
0.389544
0.734616
-0.0597919
-0.61764
-0.753509
-0.784055
0.773093
-0.879296
-0.764153
-0.413788
0.774272
-0.507032
0.444673
-0.736055
-0.893783
-0.543515
0.720146
-0.153592
0.0757135
0.195926
-0.154148
0.0189281
0.778633
0.118019
-0.885359
-0.163709
-0.0163052
-0.209723
-0.811491
0.282476
0.775171
-0.354023
0.967066
-0.461452
0.971241
0.791219
-0.00220678
0.117458
0.588113
-0.770509
-0.657145
0.608206
0.9275
-0.861008
0.231184
-0.523962
0.5644
-0.905869
-0.208859
-0.920196
-0.137947
-0.0167916
-0.498593
0.200006
-0.639838
-0.911454
0.956807
-0.0614253
-0.485138
0.631066
0.523678
-0.175882
-0.450035
0.610943
-0.338421
-0.835385
0.284008
0.826732
0.534063
0.0453285
-0.867395
-0.936406
-0.0367001
-0.153674
-0.0871067
-0.743066
-0.384514
0.0923843
0.0977894
-0.618293
-0.219443
-0.381008
0.750019
-0.0865059
-0.400313
0.302135
0.804176
0.991373
-0.918226
0.923674
0.556996
0.77631
-0.41179
-0.0881456
0.212581
0.606492
-0.194266
1.02155
0.379738
0.0138826
0.521974
-0.188911
0.0176257
-0.0767285
0.53235
-0.0422901
0.714543
0.626842
0.0483438
0.986748
0.371325
0.267433
0.148961
0.922742
0.423568
0.0372076
-0.629336
-0.409966
-0.0314701
-0.300514
0.888808
0.556243
0.0554081
0.811363
-0.21786
0.849744
-0.318873
0.526115
0.339999
0.978325
1.00457
-0.469305
-0.764433
0.658997
-0.567124
-0.216112
-0.0144413
-0.614417
-0.790792
-0.435821
-0.0785481
-0.606821
0.82854
0.742195
0.648191
-0.356015
0.876086
-0.135446
-0.545231
0.961317
-0.652257
-0.247907
0.64512
0.0586856
-0.570379
0.917709
-0.93646
-0.579713
0.887001
-0.200251
0.511304
-0.222862
-0.662626
0.133318
-0.135816
-0.0261958
0.198165
0.405442
-0.886181
0.236782
-0.215816
0.190502
0.603827
-0.725174
0.384956
-0.790624
0.91922
0.0846546
0.382718
0.843981
0.192185
0.694402
0.506175
-0.946828
-0.707126
0.674953
-0.822328
-0.491189
0.401609
-0.0486095
-0.437422
0.266418
-0.824927
0.685807
-0.768556
0.972769
-0.55031
-0.107968
-0.257487
-0.549025
-0.44029
0.473658
0.00761152
-0.494714
0.38143
0.212723
-0.738568
0.145273
-0.00748097
-0.180295
0.87829
-0.867863
0.512392
-0.0475277
0.0442543
0.578227
0.957768
-0.674768
-0.974352
-0.514566
0.567836
-0.409278
0.726171
0.717177
-0.933205
-0.308185
-0.264196
-0.56101
0.18723
0.0104541
0.099682
-0.640339
-0.784376
0.697132
-0.270724
-0.879756
0.444363
-0.811775
-0.104033
-0.826228
0.77527
0.265204
0.368658
-0.322773
-0.147465
-0.881312
0.692927
0.105391
0.0771219
0.188762
0.720421
-0.505189
-0.930778
0.589358
0.929081
-0.8646
0.787424
0.58346
-0.0987103
-0.00678853
0.856792
0.81794
-0.91052
-0.737709
0.052851
-0.571252
0.341629
0.845295
0.870588
-0.157678
0.0753655
0.990207
0.59657
-0.956066
-0.799166
-0.565386
-0.0470111
0.720052
-0.762013
-0.731664
-0.284745
-0.852183
-0.40125
-0.38362
-0.24707
0.203138
-0.782645
0.131904
0.211492
1.00557
-0.0471242
0.592105
-0.32016
0.0795652
0.744973
-0.0580083
0.0934384
-0.319316
0.88033
0.777158
-0.759549
0.736255
-0.987046
-0.221756
-0.378153
0.0310415
-0.261455
-0.263305
0.58641
0.215929
-0.894746
0.797436
-0.820845
0.632842
0.693166
0.337651
0.0270829
0.982136
-0.341689
-0.167691
-0.35531
-0.888855
0.134798
0.947143
1.0159
0.127649
-0.940629
-0.671207
0.86151
0.0786497
0.604532
-0.440152
-0.00485232
-0.439122
0.531511
-0.552913
0.0436487
0.162972
0.983814
0.360275
0.235336
0.639643
0.287786
-0.39432
0.414427
0.993385
-0.259895
0.0827496
-0.597991
0.33536
0.89886
0.357254
-0.126422
0.665736
0.343565
0.491481
-0.790873
0.645771
-0.758653
-0.746315
-0.160861
0.542302
0.0638555
-0.464705
0.456019
-0.114848
-0.27774
-0.359761
-0.464975
0.825729
0.471938
0.957895
0.920896
0.57106
-0.946364
-0.795802
0.480365
-0.326964
-0.0908262
0.971298
0.146086
0.704411
-0.0536259
0.350786
0.355758
0.530115
0.930023
-0.776174
-0.282985
0.918927
0.242276
0.877422
0.466045
0.939332
0.615313
-0.731224
0.0627587
-0.0362616
-0.0188823
-0.463645
0.789194
0.298764
0.876792
-0.936928
0.359579
-0.404463
-0.197915
-0.24829
0.630363
1.00809
-0.444248
-0.303762
-0.708877
-0.146692
-0.412272
-0.265838
0.732523
-0.423163
0.436029
-0.459198
-0.114701
-0.968132
-0.617359
0.657193
-0.11485
-0.0195634
0.356372
-0.954306
0.85177
0.239858
0.772459
0.984777
0.367106
0.679685
-0.470942
0.347501
0.0242062
-0.442191
-0.216017
0.000788768
-0.147905
0.626064
-0.127333
-0.0738744
0.335835
0.131582
-0.797873
0.80819
-0.390203
0.885985
0.880593
-0.601458
-0.546209
-0.0119093
-0.787738
0.142543
0.367797
-0.18551
0.607189
0.998007
-0.418711
-0.510125
-0.203274
-0.164653
-0.0931808
0.115124
0.0217902
-0.605582
-0.531181
0.564619
-0.819769
0.283615
-0.450952
-0.349158
-0.244293
-0.00656474
-0.153677
0.480312
0.0746308
1.02082
-0.874118
-0.471751
-0.478224
0.934184
0.553119
-0.335546
-0.437268
0.791195
0.920089
-0.515312
0.561074
0.525556
-0.479566
0.357625
0.911609
0.818876
-0.717105
0.23923
0.0614153
0.174434
-0.451638
0.0532008
-0.893371
0.283239
0.0924406
0.69177
0.37814
-0.885652
0.270044
0.647167
1.00145
0.716558
0.953048
0.0914154
0.431974
-0.0537583
0.338859
-0.695903
-0.690887
-0.251307
0.268861
0.500828
0.972599
0.284424
0.874583
-0.96166
-0.590458
-0.142027
0.969659
0.37281
0.718936
-0.270472
0.865884
-0.712362
-0.633899
-0.109464
0.159866
-0.568364
-0.29881
0.936402
0.714867
0.791385
-0.0853572
-0.740335
-0.967261
0.752672
-0.723543
0.466369
-0.936394
-0.12337
-0.409139
-0.59859
-0.635188
0.4126
-0.888925
0.854421
-0.787402
0.503422
-0.324387
0.293448
-0.898007
0.794367
-0.98165
-0.948613
0.951882
0.0632524
0.0260788
-0.288275
1.02309
0.796284
0.34565
0.329766
-0.513891
-0.284501
-0.359851
-0.792474
0.569133
0.293893
0.0672643
0.875759
0.483406
-0.901624
-0.241367
-0.54856
-0.611973
0.26852
-0.078977
-0.306117
0.291546
-0.66224
0.0421039
-0.858373
-0.636456
0.888269
0.45807
0.249144
-0.857138
0.133628
0.0954507
-0.128889
0.598482
0.456213
0.0265636
0.777665
-0.965502
-0.983354
-0.343619
-0.0686778
-0.309431
-0.100519
-0.80821
-0.395219
0.827933
0.398267
-0.886444
0.763948
-0.51207
0.819295
0.777575
-0.446881
-0.512031
0.669744
0.826945
0.709769
0.451149
-0.00118432
0.539355
-0.709097
0.0647648
0.666822
0.0154914
-0.851889
-0.285946
0.203011
-0.464689
-0.147893
0.710367
0.182477
-0.549764
0.120084
0.844195
-0.677647
0.680962
0.913479
0.681019
-0.655972
-0.10699
0.428759
-0.432006
0.0749691
0.391224
-0.573341
-0.0306366
-0.199555
0.031705
-0.662128
-0.116591
-0.276334
-0.615842
-0.294745
0.977309
-0.106569
0.945838
-0.697546
0.696162
0.493128
0.852639
0.607498
0.785781
0.20772
-0.623552
0.549599
-0.392184
-0.874349
0.210552
-0.168686
0.183588
0.79533
-0.763359
-0.22192
-0.369692
-0.399638
0.988993
-0.140037
0.91684
-0.382552
-0.690673
0.374277
0.540353
0.53267
0.752548
0.813377
-0.504436
0.442451
0.42485
-0.91203
0.615751
-0.670042
0.404187
0.0947078
0.0924446
-0.0793294
0.396004
0.0804322
0.266665
0.713927
-0.602477
0.848438
-0.243577
0.524282
0.997684
0.0886813
-0.255821
0.542533
0.501591
-0.950515
-0.818025
-0.717391
-0.993352
-0.537809
0.680645
0.860059
0.494751
-0.0365572
0.00379881
-0.386748
-0.269651
-0.728014
-0.365545
0.00955667
-0.866311
0.358614
0.563634
0.55222
-0.491225
-0.307672
-0.315535
0.0466219
0.762404
0.313726
-0.639241
0.22806
0.363916
-0.813876
-0.199997
0.959701
-0.170414
-0.00962797
-0.532534
0.266335
-0.0560945
-0.462577
-0.655336
-0.276359
0.50983
-0.148537
-0.426026
-0.760221
0.636862
-0.0487821
-0.924758
-0.422735
-0.171122
-0.586878
0.216748
-0.230684
0.522234
0.467472
0.987135
0.689798
-0.545426
0.04552
-0.615724
-0.425873
-0.211769
-0.336402
0.135699
0.911295
0.960568
-0.247395
-0.232752
0.389567
0.835172
-0.756562
0.358123
-0.301142
0.642655
0.531455
0.967276
0.255078
-0.221258
-0.884459
-0.387955
-0.666356
0.0855959
0.185405
0.211003
0.326238
-0.0259642
0.238594
0.794455
-0.72399
0.726256
0.53644
0.744718
-0.0892793
-0.886576
-0.672238
-0.0752534
0.342763
-0.670215
0.707119
-0.299061
0.953825
-0.301454
0.978893
-0.418038
-0.673319
-0.965817
0.171815
-0.263349
0.509657
-0.256655
0.0927437
-0.302428
0.471564
-0.561909
0.159381
0.781419
-0.813031
-0.48199
-0.0863861
-0.938813
0.854592
0.170463
-0.677139
0.452165
0.591335
-0.382422
0.624044
0.159243
0.511649
-0.679376
-0.0413045
-0.872411
0.418074
0.527667
0.0737068
0.98457
0.431116
0.0730395
0.626747
0.496055
0.517861
0.487559
-0.973213
-0.783836
-0.0520337
0.108597
0.740963
0.385171
-0.40412
0.837296
0.719642
0.951492
0.475388
-0.141821
0.03631
0.0727134
0.355748
-0.8582
-0.436616
-0.934566
0.905549
-0.0723771
0.159464
0.799747
0.780135
0.129453
0.539204
0.612005
0.471826
-0.430534
-0.630306
-0.92939
-0.00940702
0.823163
-0.9354
-0.0749427
0.609123
0.792291
0.764102
-0.643196
0.012542
0.195877
-0.267136
0.44149
-0.61128
-0.173512
0.473212
-0.777703
0.366407
0.686133
-0.0700603
-0.766643
-0.573567
-0.294794
-0.346784
0.379094
0.113748
-0.137436
0.926617
-0.821055
0.622232
0.679476
0.895254
0.642631
0.410247
0.400296
0.0282879
0.0664387
-0.562157
-0.295255
-0.495002
0.323873
-0.438204
-0.974963
-0.787725
-0.611156
-0.930414
-0.524829
0.401599
0.810848
0.409009
0.172586
-0.0190524
0.356039
0.774054
0.0939824
0.241519
0.0303375
0.543266
-0.19386
-0.0233987
-0.725975
0.564278
0.450715
-0.298859
0.157261
0.633819
0.419584
0.0138234
0.811518
0.834462
-0.238886
0.65815
-0.929668
0.854166
-0.245642
0.42842
0.495034
-0.871012
0.18834
-0.784065
-0.461838
-0.887078
-0.603894
-0.695466
0.0200411
0.890945
-0.170322
-0.246218
0.856229
-0.123049
-0.856112
-0.717139
0.934146
0.000500486
0.274233
0.536233
-0.848328
0.177447
0.0414722
-0.403121
0.908314
0.986416
0.578591
0.21379
-0.287218
-0.0799975
0.627232
0.464505
0.769463
0.0989638
0.203986
0.875632
0.339952
0.424382
-0.0289359
-0.490099
0.251055
-0.532975
0.498225
-0.320752
-0.411183
0.372355
-0.558639
-0.464486
0.245928
0.999069
-0.0894895
0.504751
0.875473
0.541222
-0.00604757
0.863978
0.881584
0.348414
-0.135127
0.957623
-0.0571541
0.262015
0.19922
-0.119559
0.670015
-0.446952
-0.369992
0.829478
-0.363387
0.805522
-0.576665
0.10215
-0.668187
0.791986
0.115858
-0.699786
0.720282
-0.387807
0.178172
0.87409
0.620389
0.830413
-0.784975
0.532133
0.865432
-0.115718
0.677626
-0.319703
-0.183503
-0.515684
0.588715
-0.554435
-0.922612
0.981142
-0.0042072
0.743749
-0.682915
-0.215147
0.0284218
0.700841
-0.637455
0.720347
0.669636
-0.102181
0.529427
-0.92613
-0.618695
-0.916983
0.840513
-0.715773
-0.478997
0.148986
0.746502
0.738283
-0.100426
-0.98884
0.714018
-0.0082159
0.858151
0.35067
0.352194
-0.953896
-0.385317
0.858006
-0.677926
-0.540484
-0.876175
0.655912
0.348045
-0.852718
-0.382789
0.909353
0.464473
-0.376788
-0.576777
0.399932
-0.874496
-0.912257
-0.451331
-0.124055
0.272946
0.813539
0.897375
0.0625631
0.704739
0.992683
-0.283592
-0.396308
-0.131695
0.662554
0.191091
-0.202538
-0.518534
0.256172
-0.102209
0.887745
-0.192815
-0.41556
-0.23314
-0.698896
-0.100812
0.911364
-0.344215
-0.587014
1.00535
-0.137173
-0.827255
-0.574254
-0.176857
0.704427
0.224703
0.136635
-0.351645
0.157296
0.182373
-0.430745
-0.423267
0.165652
-0.838062
0.962113
0.182109
-0.336726
-0.930336
-0.915816
-0.1919
0.669009
-0.463709
-0.924753
-0.119421
-0.66365
0.982609
-0.47069
0.677823
-0.580223
0.878115
0.711891
-0.00870517
-0.558703
-0.776965
-0.747466
-0.0558588
0.30033
0.717276
0.120757
-0.335542
0.715141
-0.907767
-0.689404
-0.757315
-0.626684
0.588709
0.128603
-0.691206
-0.102183
0.896187
0.380964
-0.0116696
0.186163
0.882131
-0.339904
-0.681174
0.135918
-0.0666456
-0.397703
-0.806766
0.42419
-0.741038
-0.689996
0.801008
-0.288742
-0.0982967
0.605983
0.63121
-0.937793
0.705224
0.397611
0.401504
0.765594
0.885839
0.713281
-0.292669
-0.863835
-0.718519
-0.61703
-0.891002
0.713232
-0.305926
0.920436
-0.028889
-0.161717
-0.280851
0.234156
0.0213381
0.814579
-0.317618
0.539591
0.200369
-0.681014
0.338018
0.152866
-0.25709
-0.416434
-0.828889
-0.453921
-0.554579
0.0210822
0.63088
0.876231
0.191877
-0.931795
-0.452871
0.3151
-0.543224
0.770778
0.208208
0.513402
0.106259
0.595142
0.252613
-0.0257342
0.701131
0.518788
0.827666
-0.764395
0.93079
0.153673
-0.166019
-0.799466
0.620661
0.12943
0.967593
0.32168
0.442603
0.284252
0.611203
-0.866164
-0.50864
0.92406
-0.635267
-0.453028
0.31665
0.33751
0.549278
0.74571
-0.240967
-0.217193
0.337316
-0.334663
0.0285857
-0.235551
0.36731
0.264858
-0.530937
-0.632064
-0.931125
-0.6552
0.273233
-0.780827
-0.0391856
0.40979
-0.825648
0.0680442
0.800935
0.868031
-0.632854
0.330206
0.215925
0.486446
0.501384
-0.403593
0.248327
0.213171
0.900965
0.641024
-0.370115
-0.0100998
0.819696
0.547936
-0.404394
0.40873
-0.462992
0.824139
-0.142477
-0.855508
0.77052
0.672868
0.857088
-0.873856
-0.550337
-0.408049
0.258201
-0.719928
0.959052
0.0381602
-0.121648
0.885935
-0.0850151
-0.426994
-0.887193
0.18861
-0.341924
0.294169
-0.324086
0.983835
-0.872984
0.0250466
0.320549
0.478915
-0.427686
-0.450856
-0.783368
0.259052
-0.862131
-0.90194
-0.898501
-0.613516
-0.604946
-0.740863
0.333429
0.912755
0.00721919
-0.313656
0.504221
-0.101935
0.147801
-0.402851
-0.23142
0.863176
0.7013
0.20894
-0.0640868
-0.559597
-0.748878
0.301086
1.03516
0.596123
0.388779
-0.150879
-0.162034
-0.48079
-0.448769
0.0205215
-0.27772
0.0451487
-0.758801
0.100896
-0.420863
0.604585
0.661189
-0.206847
0.933488
-0.520449
0.542589
0.716618
0.951214
-0.00702379
0.725958
0.636763
0.951462
0.595826
-0.452604
-0.165688
-0.834044
-0.889801
0.524122
0.783791
-0.269213
0.159808
0.398797
0.2708
-0.994041
-0.153023
-0.650161
-0.210195
0.298924
-0.286375
-0.76167
0.216343
0.559874
0.628284
-0.139218
0.116709
0.859023
0.039282
0.779745
-0.696797
0.431164
-0.905716
-0.794338
-0.593805
0.438788
1.01536
0.380327
0.145731
0.373642
0.853898
0.576995
0.762146
0.354194
0.21573
-0.14038
-0.247888
0.713738
0.313891
-0.827709
-0.470826
-0.978522
0.666605
0.696346
0.203545
0.522497
-0.929326
-0.868564
0.343908
-0.375811
-0.646479
0.891608
0.0194977
0.923026
0.650589
0.414431
-0.535456
-0.443179
-0.24621
0.0554151
0.378272
-0.840867
-0.434673
-0.759604
-0.997333
-0.18258
0.284932
-0.045477
0.58062
-0.625727
0.408771
0.98096
-0.37622
0.0424066
0.728868
0.872816
0.8706
-0.872035
0.766258
-0.127577
0.346708
-0.926213
-0.835732
-0.738289
0.286814
-0.0824149
0.913127
-0.444398
0.85771
0.207646
-0.0768306
0.728385
0.240547
0.537879
0.0523422
0.663908
0.154955
0.107301
0.00046202
0.996823
0.239951
-0.847456
-0.788424
-0.410639
0.627286
-0.503148
0.573999
0.089471
-0.0369378
-0.519855
0.393341
-0.706301
-0.317309
0.458954
0.255544
-0.331492
-0.522132
0.755102
-0.873483
-0.0485348
0.725362
0.481683
0.328009
0.464275
0.943438
-0.57122
0.704412
0.0937907
0.250351
-0.615967
0.0973911
0.400623
0.471199
0.874152
0.106706
0.845462
-0.0709563
-0.953732
-0.47109
-0.640118
-0.0758907
0.49898
-0.250174
0.36368
-0.190818
-0.154811
0.354816
0.925808
0.517417
-0.770831
0.916705
0.882271
0.093781
0.51675
0.287757
-0.343176
-0.485661
0.897787
0.18562
0.542646
-0.952155
-0.912359
0.285355
0.297323
0.622073
0.855355
0.0664968
0.220465
-0.539562
0.801036
0.734441
-0.358218
-0.590434
-0.690565
-0.315073
-0.850378
0.96037
-0.882732
0.0872482
0.454086
-0.205699
-0.981111
-0.279163
-0.0802981
0.418945
0.82441
-0.919048
-0.184396
0.481984
-0.363548
0.849354
-0.236555
0.782117
1.00028
-0.790051
-0.486052
0.514956
0.4009
0.264261
0.873213
0.483644
0.626243
0.867338
-0.489111
-0.537468
-0.116365
0.34613
-0.225375
-0.335365
-0.114581
-0.205418
-0.516321
0.333405
0.359908
-0.454884
0.0247537
-0.00857082
-0.411485
-0.625427
-0.111193
0.379755
0.958535
-0.371148
1.00196
0.568284
0.512894
-0.209422
-0.757147
0.430107
-0.587927
0.69504
-0.1724
0.0279619
-0.271386
0.558445
-0.355276
0.46042
-0.485452
-0.722691
-0.100705
-0.638292
0.580871
0.411757
0.659211
-0.589757
0.915956
-0.318407
-0.871012
-0.133189
0.998921
-0.378925
0.287835
0.116682
0.127367
-0.694911
-0.26492
-0.760671
-0.198224
-0.787317
-0.57138
0.60312
-0.876916
-0.252734
-0.953707
0.680837
0.330625
-0.683846
0.379963
-0.371531
-0.676599
-0.655241
-0.170749
0.0639029
-0.104005
-0.0998825
0.202118
0.800902
-0.0190109
-0.0715995
0.853874
0.571223
1.02062
0.946177
0.991248
0.297307
-0.428491
-0.86404
0.116436
-0.537336
-0.661339
-0.891116
-0.707927
0.523918
-0.945586
-0.657694
0.373075
-0.220425
-0.781831
-0.582646
-0.885726
0.728096
0.183041
-0.519274
-0.235217
0.690193
0.522014
0.528275
0.798388
-0.397373
1.00075
-0.623552
-0.824035
0.940805
0.465924
1.01565
-0.456494
-0.199855
-0.710233
0.763733
-0.295543
0.312613
-0.0770712
0.750247
0.0979956
-0.135307
0.00165942
0.201997
-0.823245
0.97788
0.55818
-0.726063
-0.66972
-0.50597
0.121677
0.949805
-0.234803
1.05203
0.124761
-0.037714
-0.569129
0.338051
-0.830803
-0.750905
-0.244006
0.510868
-0.230865
-0.495981
-0.966598
-0.0733374
-0.563769
0.434589
0.125087
-0.826361
0.18619
-0.621601
0.446906
-0.454889
0.383012
-0.560189
-0.771352
-0.763001
0.155903
-0.451175
-0.595347
0.7143
0.723767
0.70076
0.294412
0.466832
0.702842
-0.691143
0.534633
-0.710176
-0.271488
-0.468266
-0.781974
0.374659
-0.167299
0.596725
-0.442668
0.949319
0.420978
-0.502503
0.405121
-0.74778
0.940257
0.397266
0.75343
-0.707187
-0.410734
-0.0994878
0.709786
-0.756993
-0.561098
0.032384
0.0451131
-0.00904952
-0.685977
0.891864
0.109774
0.556127
0.774695
-0.0361776
-0.633361
0.798648
-0.305073
-0.877364
0.495959
0.385648
-0.797093
0.811232
-0.280067
0.728266
0.414743
0.253317
-0.625648
0.471003
-0.58383
-0.735273
-0.663356
0.805433
-0.516287
0.970776
0.608725
-0.679613
-0.0426038
-0.453073
0.36429
0.881636
0.39338
0.482298
-0.407659
-0.9254
0.0439482
0.889547
0.981919
-0.893552
-0.947835
-0.100737
-0.430937
1.00254
-0.833434
0.13629
0.48108
0.592342
-0.86388
-0.116412
0.999533
0.716321
-0.310229
-0.695489
-0.57448
0.607805
1.01281
0.329424
0.974908
0.946279
-0.62672
-0.706599
-0.584041
-0.471974
0.301272
0.233413
-0.982117
0.91349
0.195953
0.229839
0.339617
-0.867169
0.444134
1.10376
0.787728
-0.333366
-0.455732
0.570539
0.803908
-0.118815
0.139522
0.496399
0.419538
0.197423
-0.125553
-0.822674
-0.0423311
0.952147
-0.71341
0.71825
0.2087
0.461485
0.903536
0.702482
-0.316129
-0.93129
-0.0795915
-0.651057
0.699575
0.248495
-0.366708
0.217846
0.425107
0.917545
0.233834
0.934668
-0.281571
-0.297238
1.03047
0.371072
0.898643
-0.421416
0.909562
-0.0851428
-0.101279
0.128631
0.230128
0.612439
0.579796
-0.275445
0.118029
0.290433
-0.450406
-0.284173
-0.502924
-0.484236
-0.661884
0.82717
1.10436
1.05714
0.36054
-0.594808
0.680603
-2.44699e-05
-0.132338
-0.00449529
0.57313
0.0121564
-0.209083
-0.743063
-0.469339
0.0114892
0.779818
0.27844
-0.399164
-0.127802
-0.025124
0.949954
0.244189
-0.297583
-0.908564
0.246916
0.383642
0.193881
-0.743022
1.10821
0.431454
-0.829382
0.670212
0.734615
-0.46818
0.233494
-0.169359
0.617537
0.905009
0.629787
0.546039
1.06257
0.400613
0.987828
0.607329
-0.449169
-0.939711
-0.742713
-0.932897
-0.31562
0.111584
0.197888
-0.550994
-0.137491
0.78465
0.203675
0.551232
0.57947
-0.809809
-0.664051
-0.418519
-0.454298
0.637577
-0.338781
0.521424
-0.18593
0.991065
-0.647545
0.655917
-0.609781
0.977843
0.204492
-0.77538
-0.258732
-0.229437
0.384542
-0.427503
0.989559
-0.989913
0.484791
0.974246
-0.882715
-0.723604
0.995973
0.0155754
-0.305683
-0.685862
-0.721891
-0.0516994
-0.868875
0.732095
0.303566
0.412897
0.140144
1.07691
-0.43319
0.867861
0.796555
0.82583
-0.202806
-0.43443
0.55975
0.710185
-0.129021
-0.645787
-0.602218
-0.524277
0.533078
-0.320188
0.509392
-0.77348
1.05643
0.19059
-0.127415
-0.287883
-0.0830167
0.894245
0.17945
0.143009
-0.72089
-0.610154
0.770618
-0.648389
0.334487
-0.390256
-0.756776
-0.15498
0.414841
-0.620031
0.649767
0.117548
0.145285
-0.402915
0.322085
-0.333867
0.758992
-0.680057
0.23575
-0.00460328
1.04916
0.333624
0.391769
1.07018
0.114168
-0.70397
0.239086
0.270234
-0.800711
0.0423649
-0.83985
-0.392034
0.695827
-0.523014
-0.535831
-0.250276
-0.704927
0.690919
-0.272879
-0.947265
-0.439509
0.0484211
0.070674
0.762892
-0.351413
0.53507
-0.537512
0.429895
0.416976
-0.412996
-0.338778
-0.368669
0.478869
-0.862586
0.718274
-0.38182
0.701991
-0.338619
1.0272
-0.192393
0.264588
0.0984715
-0.755248
-0.201822
-0.521193
0.38711
-0.154911
-0.232234
-0.821969
0.0561975
0.842822
-0.192322
0.511927
-0.503999
0.728424
0.137364
0.0840314
0.218989
0.985345
-0.281877
0.0562041
-0.0312945
0.249179
0.723071
-0.235143
0.448882
0.198592
0.0781337
-0.810035
0.505671
-0.354109
0.128254
0.830627
0.848384
-0.818765
-0.897955
0.841579
-0.663223
-0.156356
-0.969924
-0.169613
0.240449
-0.114092
0.814288
0.159516
-0.137855
0.660998
0.214277
-0.255771
0.664315
-0.74209
1.09145
-0.309095
0.491457
0.512506
0.903181
0.652526
0.995484
0.307701
0.844587
-0.294347
-0.994605
-0.975524
0.272472
0.690706
-0.807433
0.742789
0.337501
0.103408
0.879488
0.622107
0.572459
0.219541
0.105748
-0.559978
0.47926
-0.604666
1.06063
-0.878234
-0.619661
-0.297121
0.156881
-0.00268566
0.0778905
0.0555715
0.69446
-0.385939
-0.262671
-0.323163
0.595785
-0.732697
-0.0827099
-0.663838
-0.772566
0.0372112
-0.984004
-0.449047
0.649877
-0.289439
-0.62293
0.0259523
-0.192023
0.129789
0.61795
-0.723122
-0.404478
0.168785
0.0806295
0.0424235
-0.46616
0.0161742
-0.554911
0.321404
-0.847535
-0.678909
0.382373
-0.8096
0.208691
-0.634987
0.555889
-0.564175
0.804927
0.167144
-0.26213
-0.304261
0.736894
-0.563777
0.627002
-0.158301
0.480048
0.962828
0.47208
0.0296782
-0.986895
0.599991
-0.680489
0.0431748
0.109249
0.72613
0.967827
-0.123661
-0.422071
0.952717
-0.971063
0.921883
-0.471781
-0.751513
0.411253
0.295871
-0.40858
-0.303114
-0.28941
-0.275108
-0.199748
-0.00365264
-0.390736
0.17084
0.421018
0.351477
0.332065
0.22895
0.568609
-0.659364
-0.748149
0.744296
0.176333
-0.286653
0.545044
-0.537441
-0.399262
0.0704106
-0.613093
0.404424
0.683153
-0.800541
-0.460142
0.29056
0.783123
0.132124
0.501632
0.328904
-0.657582
-0.999869
-0.242195
-0.311833
0.820216
0.0982217
-0.150567
0.848992
0.0467223
0.08037
0.772559
-0.280907
-0.0414655
-0.133943
0.641023
0.723325
0.129726
-0.354234
0.998404
0.951439
0.332588
0.423205
0.470345
-0.00204986
-0.82363
0.617782
-0.448602
-0.448633
0.729044
-0.459408
0.297552
-0.272866
0.493018
0.207651
0.711074
0.392823
-0.940301
0.620022
0.0473731
-0.884862
0.360069
-0.401615
-0.365084
-0.784767
0.28501
0.653079
0.0882668
0.800658
0.47347
-0.135103
-0.446888
-0.242801
-0.420944
-0.606238
-0.86645
-0.824436
0.55604
0.548762
0.305639
0.404521
0.899054
-0.240944
0.708866
0.0586765
-0.466157
0.483156
0.00574546
0.0989409
0.790065
-0.580652
-0.0630103
0.476553
-0.424798
-0.901757
-0.879609
-0.635087
0.706352
0.536201
0.312869
-0.459425
-0.346901
-0.527892
-0.781624
0.791262
0.916052
0.360137
-0.944802
0.37301
-0.448052
0.444968
-0.672988
-0.663564
-0.264275
-0.1937
0.540047
0.866721
0.451663
0.0286493
0.771587
-0.553898
-0.275975
0.313896
-0.876717
-0.721759
-0.413606
0.231759
0.805377
-0.0993451
0.456622
-0.906998
0.105993
-0.500571
-0.300764
0.075171
0.376405
-0.242122
0.180868
0.644349
-0.818514
0.438219
-0.163779
0.0512263
0.332145
-0.908032
0.069678
-0.470376
-0.094244
-0.25431
-0.321027
0.155785
0.386027
-0.960268
0.413228
0.569803
-0.148277
0.626881
-0.280788
-0.567102
-0.254347
0.662479
0.641895
0.934234
0.00751824
-0.433251
-0.0633585
0.708101
0.304384
0.237993
0.868164
-0.427277
1.02074
-0.495583
0.388781
0.3723
0.975228
0.932659
0.253809
0.153185
-0.516257
0.459422
0.455758
0.649101
0.908757
-0.0668115
-0.439101
-0.049685
0.706482
-0.406008
-0.623529
-0.327552
0.19702
-0.353665
-0.805676
0.918807
-0.815646
0.647245
-0.176384
-0.480707
-0.313698
0.0960406
0.07891
-0.450233
-0.739403
0.0916881
-0.744373
0.142249
0.37644
-0.926684
0.445846
0.773284
-0.313925
-0.854184
-0.512491
0.626929
0.49192
-0.773133
-0.597124
-0.939966
0.666246
0.243176
0.493083
0.767703
-0.175453
-0.628674
-0.00479321
-0.81281
-0.634957
-1.00023
-0.788304
-0.471685
-0.383461
0.586212
-0.687501
0.356211
0.708201
-0.118646
-0.579541
1.00362
-0.538779
-0.99053
0.0884082
0.328916
0.690733
-0.0992124
0.471006
-0.626557
-0.0149724
0.787423
0.731861
-0.0214191
-0.307059
-0.707073
-0.733618
-0.293899
-0.500256
0.0541138
-0.542186
-0.637169
0.709689
0.837053
0.457804
-0.78741
0.40018
-0.860124
0.189618
0.544424
-0.16785
-0.338196
-0.320497
-0.0554959
0.363644
0.0659509
0.925979
0.996459
0.0216333
-0.74133
-0.317654
0.211661
0.533897
-0.50666
-0.946165
0.259853
-0.990082
0.969065
-0.968376
-0.906755
-0.674863
-0.602574
0.554058
0.175701
-0.487451
0.176049
-0.0727403
0.281095
-0.0311536
-0.300506
-0.696809
0.585319
-0.553606
0.496322
-0.469064
0.429481
-0.00169072
-0.369854
0.251878
-0.0994756
-0.554428
0.84442
-0.370103
-0.354858
0.316382
-0.889156
-0.691472
-0.878858
0.744796
-0.101554
0.517772
0.0437346
0.298912
-0.596823
0.415431
0.833185
-0.436285
0.0751977
0.186418
0.077962
-0.0702985
0.695656
0.123075
-0.755111
0.202521
0.843783
0.034093
0.591454
-0.901339
0.308768
0.608623
-0.226845
-0.166461
-0.854555
-0.0641841
-0.0137153
-0.0240304
-0.307613
0.127219
-0.603438
-0.884806
-0.173119
0.392414
-0.528727
-0.897877
0.294016
-0.166381
-0.0449721
0.598601
0.698938
-0.186507
0.534898
-0.609052
-0.182925
-0.181474
0.782016
-0.0369035
0.54851
0.914484
-0.0083726
-0.28105
-0.838637
0.137602
-0.601869
-0.971313
-0.126992
-0.459319
-0.674606
0.041788
-0.0637183
0.548765
0.0293844
-0.906284
0.0331297
0.540434
0.350092
-0.988173
-0.904974
-0.597409
0.990915
-0.228388
-0.141679
0.707213
-0.338766
0.551285
0.792881
0.89579
0.279236
-0.300544
0.0647048
-0.526482
-0.660311
-0.537209
0.0416533
0.000208437
-0.669093
-0.611649
0.128552
0.906978
-0.855232
-0.618167
0.657809
0.79593
0.285079
0.276519
-0.241454
-0.698833
0.904325
0.373492
0.620398
-0.653377
0.133854
0.635595
-0.426967
0.520743
-0.145698
-0.928846
-0.860024
-0.739214
0.871021
0.8072
-0.527025
-0.702131
1.00068
0.304709
-0.534484
0.406414
-0.899006
-0.236209
0.705818
-0.198481
-0.249051
0.772184
0.745193
0.915311
0.636975
-0.622297
-0.223832
-0.327884
0.198007
-0.0580691
-0.415397
0.524998
-0.792995
0.0758395
0.277806
-0.282504
-0.128351
-0.875552
0.341904
0.467839
0.610303
0.84356
-0.920457
0.104651
-0.0157895
-0.321803
0.599068
0.296215
-0.212416
-0.708377
0.166463
0.687178
0.487571
0.194254
-0.348653
-0.413777
0.16553
0.191338
-0.741839
-0.380238
0.387058
-0.834104
0.233414
-0.825101
-0.638582
0.879684
0.407591
-0.675874
-0.832702
-0.706912
-0.765915
0.116642
-0.0366633
-0.41009
-0.135455
0.672924
0.373956
0.444263
-0.314353
-0.469015
-0.983652
0.829512
0.686111
0.645074
0.211096
0.574407
-0.0678066
-0.334284
0.252194
0.273786
0.821502
-0.0542141
0.494838
-0.0627065
0.454251
0.983998
0.774478
0.546436
-0.359781
-0.991662
-0.523718
0.529434
0.460133
0.452815
0.94255
-0.646548
-0.96949
-0.518787
0.00730009
0.466027
0.0691968
-0.62734
0.698934
0.590135
0.0622552
-0.448266
0.472269
0.459569
0.239426
0.207391
0.0710486
-0.415749
0.848133
-0.260703
-0.915922
0.790867
0.543542
-0.529472
-0.0048124
-0.378086
-0.778421
0.566265
0.908611
-0.283205
-0.586994
0.945958
-0.459862
-0.489765
-0.949013
0.573485
0.495743
-0.421798
0.520567
0.744217
0.296942
0.219341
-0.780297
0.167448
0.556138
0.8334
0.273632
-0.324978
-0.0953365
0.586573
0.514155
-0.294531
0.163609
-0.66088
0.0876653
0.688886
0.288042
0.685208
0.627949
0.909984
0.424034
0.911643
-0.528122
0.782425
0.130229
0.0215473
0.961127
-0.383165
0.533829
-0.260936
-0.358791
0.705543
0.320631
-0.617579
-0.690315
0.934775
-0.438682
-0.123511
-0.570214
0.210502
-0.843654
0.972868
-0.133544
-0.770643
-0.570576
0.524457
-0.709853
0.359798
-0.946298
0.899353
0.154833
0.965364
-0.75876
0.449015
0.114029
-0.301677
-0.582622
0.979374
0.122109
0.431499
0.459723
-0.275417
-0.70975
-0.110336
0.472298
-0.268921
0.622373
-0.528904
0.618725
0.855829
-0.773213
-0.0730799
-0.66028
0.241719
0.188375
0.790037
0.105619
0.764719
-0.0521193
-0.593285
0.474908
-0.331986
-0.456809
-0.51062
-0.169821
0.695669
-0.215535
0.664096
0.680927
-0.82454
-0.785663
0.26989
0.411746
0.0666523
-0.390214
-0.00974843
0.168942
0.611097
-0.651476
0.407852
-0.203944
-0.279901
0.999625
-0.980988
0.923878
-0.849591
0.514738
0.150234
0.188046
0.746225
0.219976
0.815028
-0.339649
-0.0960661
-0.0175702
0.682743
0.803291
0.96263
-0.205935
0.888113
-0.138874
0.723317
-0.185274
-0.499206
0.209552
0.58421
-0.623935
-0.817513
0.756691
-0.763012
0.501946
-0.155992
-0.809428
-0.168364
-0.748573
-0.156178
0.141097
-0.0355973
0.0243123
-0.821293
0.41741
0.276987
-0.517898
-0.62957
0.065262
-0.684432
0.718917
0.331267
0.237193
-0.455161
-0.61884
0.0183592
-0.543935
0.505443
-0.917007
-0.275092
-0.00291239
0.257242
-0.373711
0.454012
-0.360553
-0.51797
0.73161
-0.212821
-0.331399
-0.129262
0.438239
-0.804497
-0.342281
-0.399131
-0.963518
0.919468
0.840589
-0.55642
-0.0336865
-0.499245
-0.444147
0.352235
0.166782
0.544208
-0.305691
0.345709
-0.911626
-0.747032
-0.89565
-0.860922
0.339675
0.0664812
0.205502
-0.0575347
-0.479659
0.546445
0.103908
-0.0606104
-0.458458
-0.267177
0.462436
-0.797658
0.475503
-0.607617
-0.00370192
0.88185
0.408114
0.134541
-0.588005
0.461892
0.23203
0.157878
0.353291
0.192319
0.864951
0.208983
0.894194
-0.635963
0.589047
0.513
-0.806369
-0.311799
-0.688827
-0.647381
0.375886
0.791889
0.732118
0.189141
-0.115881
0.198806
0.608331
0.741092
0.41465
-0.442937
-0.267337
-0.582068
-0.786099
0.394633
0.986237
0.174393
-0.606865
0.46168
0.405315
-0.61298
0.73306
0.348822
0.807039
0.313641
-0.528358
0.989651
0.025136
0.596147
0.362874
0.519468
-0.468443
0.971224
0.161446
-0.215863
0.885926
-0.621151
-0.877134
0.246248
0.484815
-0.72446
0.331376
-0.351786
0.78237
0.401971
-0.309451
-0.207999
0.579906
-0.483658
0.782363
0.355552
0.639242
0.895963
-0.765855
0.350265
-0.00488641
-0.439523
-0.306419
-0.949139
0.324707
-0.419912
-0.819537
-0.0772666
-0.891936
0.964712
0.769171
0.0847858
0.0543526
-0.739866
0.0132028
0.101302
-0.592354
-0.80503
-0.198636
0.480795
-0.271301
0.312637
0.606681
-0.417069
0.837373
-0.34108
0.737457
0.668054
-0.92961
-0.804628
-0.0661274
-0.029027
0.65333
0.276403
-0.696751
-0.368991
0.927763
-0.885738
0.095632
-0.999834
-0.592418
-0.414028
0.446383
-0.36544
-0.541812
-0.36331
-0.284672
-0.134468
-0.096571
0.935161
0.480627
-0.542309
-0.682274
0.550839
-0.0342467
-0.324967
-0.375289
-0.922526
-0.312242
0.834684
-0.448182
0.732194
-0.231145
0.632215
-0.65302
-0.770317
0.740616
0.690596
0.133947
-0.622692
0.327221
0.0803464
-0.393545
0.391701
-0.766224
0.586223
0.322284
-0.277973
-0.227857
-0.48496
-0.467507
0.314071
0.522195
-0.773407
-0.530606
-0.174664
-0.153049
-0.769613
0.131809
-0.851612
0.417652
0.0296853
0.217457
-0.769272
0.026932
0.756292
-0.517962
-0.512192
-0.554947
-0.146475
0.820878
0.0246559
-0.166531
-0.0887344
0.38538
-0.527252
0.507902
0.883309
0.823978
-0.0391696
0.537164
-0.720228
-0.988813
0.419205
-0.482488
0.509036
-0.767561
0.725613
-0.161888
0.617295
0.102983
0.842218
0.779614
0.595436
-0.343918
0.783295
-0.384211
0.646792
0.970189
0.655849
-0.831998
-0.609738
-0.714621
-0.857483
-0.162108
0.416178
0.483211
-0.563825
0.081876
0.190574
-0.433627
-0.161518
-0.335023
0.235737
0.461681
-0.72765
0.766543
-0.0189393
-0.927491
-0.352671
0.719048
0.250833
-0.26925
0.761781
0.0143586
-0.542353
-0.950377
0.138744
-0.231325
-0.457846
0.103437
-0.710818
0.596248
-0.494444
-0.600487
0.917824
-0.465472
0.148401
-0.987662
-0.834334
-0.435604
0.74773
-0.344889
0.779968
0.831175
0.0934023
0.0464382
0.435164
-0.158659
-0.827491
0.451356
-1.00043
0.308326
-0.602245
0.505538
0.116017
0.362697
0.101116
0.411631
0.614204
0.688643
-0.619917
-0.41876
-0.483311
0.453803
-0.0278291
-0.559285
-0.369543
0.761765
0.629926
-0.565436
-0.00950118
-0.539981
-0.642097
0.0209731
0.599631
0.3409
-0.261568
-0.192813
0.966478
-0.435468
0.0417292
-0.340303
0.232679
0.221409
-0.684523
-0.76508
0.439397
0.596183
-0.827511
-0.534279
-0.945294
-0.897451
0.451466
0.694892
0.53098
0.230553
0.885065
0.964075
-0.883232
-0.365869
-0.451211
-0.624866
-0.64848
-0.14896
-0.285762
0.161911
0.208307
-0.750289
-0.480359
-0.84544
-0.217424
0.137737
0.133587
0.370248
-0.630415
-0.876286
0.480736
0.433382
0.970584
-0.702971
0.366789
-0.358723
-0.220052
-0.562748
-0.238234
0.0167143
-0.664853
0.524687
-0.531827
-0.00868749
-0.931158
0.819205
-0.324784
0.440326
-0.835137
0.0848893
0.0201098
0.822285
0.666938
0.337013
0.646089
0.966113
-0.868629
-0.791996
0.966493
0.979617
0.160528
0.848601
-0.438324
0.14741
-0.49125
-0.776502
0.269741
-0.565011
0.363919
-0.478995
0.780105
0.332424
-0.714999
-0.0299091
0.562165
-0.189688
0.511181
-0.17568
-0.516025
0.391538
-0.373374
0.0807347
0.235515
0.51295
0.128397
-0.660911
-0.522238
-0.613373
-0.135965
0.345386
-0.582267
0.162409
0.893465
0.669585
-0.947203
-0.491115
-0.741563
-0.955725
0.0645612
0.855119
0.91945
-0.162113
0.743453
-0.80448
-0.334792
0.383916
0.776629
-0.04097
-0.19619
-0.513239
0.232768
-0.302845
0.609541
-0.012577
-0.967801
-0.825804
-0.585971
0.0111387
0.430998
0.937256
0.570485
-0.312242
-0.480999
0.579107
-1.02574
0.962712
0.236783
-0.430412
-0.873295
-0.782786
0.576204
-0.690711
0.119414
0.704334
-0.113744
0.690058
0.0921046
-0.542973
0.0746638
0.549844
0.488586
-0.646147
-0.407368
-0.828444
-0.876555
0.121784
-0.692389
-0.427499
-0.94169
0.0784153
-0.13886
-0.0171036
-0.234365
-0.814332
-0.0393905
0.711563
0.586486
0.957847
0.648104
-0.959081
0.261012
0.262171
-0.373834
0.609731
0.8221
-0.740999
-0.1731
0.15302
-0.73197
0.30542
0.674973
-0.510276
-0.67717
0.447437
-0.345686
0.43248
0.192287
0.44716
0.466066
0.890388
-0.645598
-0.763433
-0.204835
0.287125
-0.307514
-0.0579049
-0.848554
-0.0853258
0.296868
0.756385
-0.902362
0.687612
-0.71752
0.436237
0.903494
-0.47076
0.171192
-0.683854
0.63064
0.311049
-0.330609
-0.235701
-0.67439
-0.861335
-0.69604
-0.429101
0.22903
-0.154564
0.971757
-0.523668
0.825599
-0.620884
-0.797426
-0.641214
-0.0756878
-0.630871
-0.538271
0.657247
-0.00335347
-0.573068
-0.563829
0.107244
0.716554
-0.85676
-0.640182
-0.00303718
-0.239818
-0.981887
-0.969334
0.187279
-0.261627
-0.323663
-0.53277
0.812854
-0.590982
-0.25444
-0.32997
-0.831019
-0.492913
0.484024
-0.145616
0.679232
-0.379065
-0.934341
-0.782573
-0.411095
0.733055
0.569206
0.941024
-0.100075
0.339333
-0.931162
-0.28413
-0.393091
-0.984354
-0.143178
-0.393684
-0.311908
0.0301672
-0.980101
0.242885
0.68749
0.699836
0.0163902
-0.215144
-0.170867
0.939995
0.789701
-0.578445
-0.891095
0.902239
-0.946512
-0.782565
-0.638113
-0.572298
0.87023
-0.56614
-0.250291
-0.506227
-0.563939
0.878375
-0.194859
0.385315
0.475924
0.537969
0.897939
0.00413696
-0.116321
-0.971575
0.604825
-0.76319
0.274222
-0.229836
-0.505134
0.31851
-0.183307
-0.372432
0.139526
0.020222
-0.107273
0.810075
-0.643706
-0.606182
0.30124
-0.694043
-0.822636
0.374581
0.123171
-0.346611
-0.322436
-0.0485496
-0.65922
0.505714
0.83132
-0.0603383
0.647052
-0.809687
0.394456
-0.28211
0.347211
0.515679
-0.0394424
0.321389
-0.995849
0.730506
-0.446212
-0.520346
0.66858
-0.725027
-0.652172
0.114425
0.939455
0.893327
-0.353821
-0.407697
0.575074
0.426994
-0.872807
0.224465
0.0673973
-0.336452
-0.518043
-0.370388
-0.20073
0.0445877
0.170952
-0.106216
0.88946
0.875022
-0.913823
-0.657926
-0.133635
0.243353
0.69429
-0.229253
-0.890647
0.300678
0.346933
-0.893555
-0.582822
-0.549166
0.00200796
-0.159588
-0.953679
0.0969682
-0.896183
0.412954
-0.211149
0.116917
0.965025
-0.602781
-0.00367007
0.16893
-0.2471
-0.626097
-0.926551
0.918707
-0.755222
0.923556
0.374894
-0.519378
0.306319
-0.859796
0.0859641
-0.0978525
-0.24937
-0.744429
0.0774023
0.268404
-0.159353
0.924749
-0.55248
0.420786
-0.0303698
0.502986
-0.40429
-0.981667
0.8554
-0.524966
-0.776219
-0.935481
-0.374404
-0.185279
0.0486595
0.427171
0.785296
0.905238
-0.711294
-0.981423
-0.313236
0.10983
0.238052
0.583086
0.483491
0.34853
0.869404
-0.469817
-0.355692
-0.19198
-0.872823
0.515976
-0.551421
0.440315
0.281601
-0.353761
-0.042389
-0.423648
0.0282295
0.839635
0.846347
-0.0114115
-0.718617
-0.781954
-0.510803
0.870581
0.569328
-0.71786
0.993428
-0.231649
0.448616
0.185822
0.674512
-0.732576
-0.224651
-0.714739
0.32445
-0.52774
0.728875
0.0675102
0.0692385
0.515769
-0.037702
0.83393
0.763608
-0.83488
0.797378
-0.546673
0.0209795
0.852816
0.10161
0.378409
-0.976329
-0.318315
-0.135113
-0.924612
0.0808338
0.945026
0.871452
-0.564379
0.541442
-0.812067
-0.41727
-0.493329
-0.363466
-0.560179
-0.477095
-0.549271
-0.524318
-0.820331
0.149522
-0.775333
0.757196
0.292416
0.888886
-0.828778
0.685515
0.506155
-0.236085
-0.820572
0.737113
-0.859896
-0.680121
-0.619714
-0.332054
-0.733241
-0.767296
-0.5975
-0.615731
-0.677368
0.862312
-0.341596
-0.611557
0.162676
-0.133305
-0.968288
0.37474
-0.0189388
0.82085
-0.40699
0.421328
-0.408844
0.518467
0.729217
0.471551
-0.0766388
-0.626373
0.176557
-0.89629
0.321931
-0.94976
-0.355061
0.777516
0.662075
-0.314385
-0.312508
0.327632
-0.10165
0.872423
-0.251906
-0.753984
-0.938048
0.171318
-0.901994
0.0362824
-0.851431
-0.884256
-0.555185
0.226327
0.523224
-0.299476
0.0425537
0.666492
-0.799925
0.275261
-0.533807
0.513676
0.130951
0.177705
-0.562186
0.0839514
0.209997
0.780421
0.450387
-0.146467
-0.0385612
0.674309
0.342561
-0.615902
0.831849
-0.28505
-0.361307
-0.28367
-0.0966421
0.438139
-0.549743
-0.967472
0.499031
0.693785
-0.926527
-0.386613
-0.0325698
0.395039
0.758561
-0.29833
0.980941
-0.762809
-0.40779
-0.512739
0.42104
0.568511
-0.326768
0.366495
-0.983587
-0.0449906
-0.187498
-0.560475
0.899831
0.674256
-0.725556
-0.73341
0.522779
-0.674505
0.734956
0.317565
0.898712
-0.803738
-0.0409536
0.771067
0.880875
-0.266545
0.0898703
-0.358817
-0.588233
-0.184973
0.912114
-0.720773
-0.688883
0.819416
-0.278839
0.23441
-0.409215
0.215652
0.307534
-0.570842
-0.0783003
-0.718546
-0.258701
0.191689
0.625853
0.910966
0.444158
0.0251405
-0.281803
0.215706
-0.879827
0.598981
0.692578
-0.378798
-0.650821
-0.451805
-0.103164
-0.349248
0.406509
0.92261
0.694103
0.216594
-0.676343
0.0134548
0.45722
0.467044
0.65438
0.280527
0.145889
-0.59309
-0.376538
0.616013
0.363843
-0.337114
0.267264
-0.507133
0.712058
0.0577133
0.121011
0.620881
-0.104585
0.106989
-0.936905
-0.782322
0.812584
-0.187999
0.298066
-0.690923
-0.80372
0.880057
-0.859903
0.0530991
0.0884157
0.387397
-0.798993
0.258427
0.395161
0.529932
-0.945619
-0.220341
0.452108
0.647458
0.814577
0.344551
0.717493
-0.302065
-0.0686222
-0.567988
-0.890891
-0.353464
-0.667807
0.823744
-0.137831
-0.905364
0.810074
0.0769739
-0.860437
0.182303
-0.840766
-0.352994
-0.432333
-0.968609
0.749576
-0.281014
-0.333258
-0.473435
0.159317
-0.238059
-0.637412
-0.967714
-0.118652
0.912622
0.394836
0.119333
-0.324233
0.175268
-0.407765
0.558858
-0.349059
-0.252076
-0.0556199
-0.374936
0.868155
-0.717559
0.157335
0.109839
0.86567
0.795656
0.803625
0.49488
0.0518669
0.720217
-0.0338936
0.839469
0.602502
-0.138867
0.542973
-0.646096
-0.413684
-0.482921
0.0887907
-0.858625
-0.887502
0.097738
0.611023
-0.682308
0.30343
0.473793
-0.937935
-0.602824
-0.813487
-0.248659
0.103983
-0.465963
0.364897
0.562828
-0.412704
-0.584585
0.345929
-0.300974
-0.440145
-0.826122
0.480999
0.262254
0.149691
0.35
0.98579
0.382324
0.165636
-0.447628
-0.479381
-0.85261
0.846205
-0.720384
0.840986
-0.249323
-0.119205
0.118986
-0.261655
-0.275264
-0.842009
0.516394
0.262367
-0.958525
0.239084
0.188255
0.672027
-0.592769
-0.297618
-0.0862471
-0.60159
-0.577677
-0.535824
0.842843
0.812878
-0.411231
-0.862224
0.47273
0.130411
-0.147366
-0.235438
0.635737
0.92509
-0.182517
0.732482
0.878339
0.319129
0.0155348
-0.74151
-0.758817
-0.318778
0.588492
-0.202278
0.319591
0.350608
-0.879965
-0.213873
0.858116
0.704029
-0.0641582
0.446213
0.786664
0.308644
0.22424
-0.797181
0.935138
0.246566
-0.780535
0.76634
0.0590467
0.720313
0.402065
-0.958144
-0.0637457
-0.946094
0.0719793
0.0217282
-0.248087
-0.542296
-0.936424
-0.207533
0.945612
0.955084
-0.704911
-0.895382
0.892693
0.35245
0.619843
0.963091
-0.802094
0.0445287
-0.224331
-0.456313
0.754797
-0.0748974
-0.440148
0.321774
0.592237
0.34237
-0.0768762
-0.809114
-0.396257
0.864476
-0.977282
0.552383
0.435976
0.367577
0.682915
0.755958
0.410906
-0.271774
0.483137
0.348107
-0.00328435
0.0550454
0.522861
0.905849
-0.527731
-0.494448
0.751831
-0.448381
-0.775697
0.287597
-0.419194
0.857779
-0.27759
-0.543018
-0.625275
0.108079
-0.461348
0.177068
0.360745
-0.496038
0.343743
-0.17514
-0.286088
0.47936
-0.278105
0.730708
-0.801564
0.430377
0.323033
-0.463578
0.776849
-0.581028
-0.158353
-0.80005
-0.79578
0.28739
-0.990831
-0.732956
-0.598448
-0.468832
-0.91089
0.462696
0.324968
-0.712154
0.932749
-0.83526
-0.720188
-0.0128413
0.019489
0.427151
0.102145
0.8191
0.632542
-0.529006
0.512521
0.395167
-0.356078
-0.238023
-0.0973064
0.663722
-0.750705
0.0483116
0.527586
-0.893782
-0.0549913
-0.651772
-0.582333
0.762213
-0.526878
-0.515486
0.180024
0.624474
0.522263
-0.955713
-0.814346
-0.954469
0.17537
-0.137029
0.0664279
0.844067
0.720393
0.0403339
-0.136188
0.244799
-0.94431
-0.567709
0.799363
-0.317785
-0.415783
-0.750387
0.66607
-0.692423
-0.86831
0.763905
-0.39538
-0.725882
0.29459
0.312826
0.501442
0.401578
0.385311
0.480603
0.38098
-0.591412
0.0613794
0.55347
0.0352063
0.275573
-0.328133
-0.551553
0.798723
0.623758
0.841029
0.296075
-0.105056
0.721292
0.93537
0.387553
-0.6384
-0.655713
-0.0153928
-0.721151
-0.133076
0.774573
-0.923253
0.465022
-0.3332
-0.35503
0.0100824
0.311483
-0.468358
0.303204
-0.775097
0.078963
-0.562171
-0.640255
0.464154
-0.769941
-0.801621
-0.952373
0.774366
-0.0416885
0.912883
-0.236764
-0.817903
-0.496588
0.3534
0.0119618
-0.997534
-0.188393
-0.0779011
-0.587371
0.401536
-0.462093
0.519454
-0.344233
-0.834795
-0.756973
-0.0329137
-0.0188304
0.80553
-0.360722
-0.951597
0.729484
-0.719334
-0.614605
-0.16231
-0.106393
-0.140629
0.886177
-0.132937
0.824499
-0.171279
-0.819633
-0.00237381
0.571501
-0.700685
0.803823
0.443573
-0.537518
-0.935406
0.375602
0.114325
0.843031
-0.369474
0.417545
0.0324446
-0.635739
-0.804956
0.399449
0.618357
-0.202892
0.0772313
-0.924666
-0.737862
0.82488
0.22157
-0.275083
0.225117
0.946547
-0.828488
0.618837
-0.430535
0.847969
0.45048
0.508868
-0.172292
0.978868
-0.835764
0.512936
-0.0155066
0.684253
0.578768
-0.976225
-0.966292
0.380014
-0.590008
-0.754372
-0.843975
0.656759
0.386599
0.388755
-0.484108
0.0280534
-0.0894701
0.634594
-0.937946
-0.342414
-0.174195
-0.740679
0.427327
-0.737599
-0.782106
-0.692103
-0.157668
-0.915075
-0.698491
0.342896
-0.414906
0.987407
-0.388096
-0.111536
0.0798107
-0.125146
0.316917
0.495036
0.66304
-0.740239
0.118449
0.193489
-0.443399
-0.970199
0.410156
-0.962356
-0.313196
-0.69358
0.623785
0.775034
0.670349
-0.152424
0.61205
-0.197234
0.303033
-0.510097
0.591401
0.677895
0.205261
-0.164508
-0.59031
-0.868957
-0.558528
0.123447
-0.355302
0.0809274
-0.396006
-0.705033
-0.702209
0.827454
0.761173
-0.523011
-0.625294
0.467243
0.98156
0.621455
0.679021
-0.686607
0.878025
0.95815
0.585145
0.00576598
-0.282428
0.68074
-0.664888
-0.664475
0.98927
-0.634811
-0.918145
-0.565939
0.114004
0.952103
-0.231157
0.632757
0.198276
-0.0484902
-0.58969
-0.362546
0.178755
0.524448
0.429377
-0.237194
-0.680042
0.686556
0.487144
-0.908457
-0.983843
-0.963615
0.302115
0.938618
0.173058
-0.9334
-0.673181
-0.653957
-0.699255
0.549268
-0.865983
-0.744333
0.0804785
0.365758
0.220047
0.987271
-0.630287
0.400592
-0.721358
0.113067
0.128641
-0.603952
0.338925
-0.634192
0.804567
0.74085
0.066423
0.71826
-0.652111
-0.971815
-0.197906
-0.237472
0.476957
0.540698
-0.0485156
-0.975705
0.460975
0.789991
0.911958
0.73907
0.373122
0.613889
-0.721024
-0.834582
-0.466518
0.574721
0.319586
-0.998907
0.575163
0.590203
-0.0348193
-0.515286
-0.0271285
0.344733
0.917345
0.0943508
-0.73224
-0.779859
-0.0485081
0.406529
-0.30963
0.705875
0.395411
0.218827
-0.276657
-0.812852
-0.672826
0.572719
-0.182612
0.582279
-0.9662
0.0249223
0.617082
-0.844697
-0.175935
-0.61274
0.0622597
-0.210238
-0.673869
0.695927
0.172689
0.254706
0.856303
0.928682
0.396145
0.36657
-0.154839
-0.377127
0.0186048
0.879787
-0.525075
0.937889
-0.0233117
0.69524
0.610955
-0.483582
-0.642844
-0.50734
0.94913
-0.268176
0.0770045
-0.0548801
-0.174699
-0.163078
0.236617
-0.294078
0.202415
-0.793831
0.558871
-0.546508
0.791767
-0.111807
-0.493769
-0.93858
-0.778424
-0.0817506
-0.52804
0.738545
-0.459605
-0.29828
-0.850493
0.720585
0.860968
-0.548531
-0.014153
0.796273
-0.797998
-0.434233
-0.512826
0.133251
0.771594
0.422813
-0.0725624
0.108822
-0.554173
-0.848863
-0.373323
-0.94692
-0.060285
-0.209443
-0.111252
0.954088
0.510824
0.844965
0.225052
-0.763018
0.591895
0.986292
-0.871783
0.401729
-0.521755
-0.651654
-0.855933
0.613229
-0.32451
-0.740853
-0.159427
0.200345
0.181738
-0.460604
-0.187051
-0.866684
-0.332341
0.519743
-0.67201
0.483178
-0.504865
0.656382
0.939064
0.199397
-0.166816
0.995587
0.915973
-0.021392
-0.182765
0.349996
-0.991251
-0.828134
-0.828937
-0.689584
-0.282159
-0.522984
-0.924549
-0.13921
0.492712
-0.833015
-0.405855
-0.619343
0.515195
0.970229
0.112838
0.456609
-0.942596
0.26714
0.384149
0.157031
-0.198413
-0.610895
0.189888
0.896786
0.192838
0.0593716
0.864705
-0.715925
-0.0182637
-0.59531
-0.0517676
0.0935223
-0.880212
-0.878811
0.497555
0.698828
-0.799544
-0.171456
-0.529445
-0.990474
0.393826
0.391981
0.577918
0.0683164
-0.583568
-0.687615
-0.386945
0.251481
0.704634
0.639492
0.477868
-0.223697
-0.815183
-0.713178
0.406894
-0.280439
0.359205
0.844519
0.730364
0.65631
-0.720515
0.81559
0.403343
0.626758
0.547327
-0.786001
0.947602
0.532037
0.788676
0.314195
0.544127
-0.564757
0.820281
-0.357213
-0.855619
-0.332187
0.74317
0.687998
0.4721
-0.556582
-0.651435
0.705459
-0.0132724
0.804415
0.269932
0.55048
-0.809887
-0.891962
0.548589
0.620101
0.91705
-0.502597
0.441747
0.654102
0.562587
-0.153008
-0.0756769
-0.990285
-0.200594
0.916205
-0.133892
0.756328
0.655392
0.252432
0.213149
0.230854
0.78889
-0.0683943
-0.228594
-0.0038199
0.562272
0.643974
-0.33296
-0.247164
1.0157
0.434619
-0.287047
-0.686044
0.968977
-0.219915
0.0352067
-0.895774
0.907242
0.737086
-0.107953
0.235964
-0.231004
-0.161904
0.292985
0.0359482
0.459725
0.531448
-0.363986
0.641101
-0.455241
-0.0758652
-0.899837
-0.549938
-0.326495
-0.694409
-0.0436083
0.760333
-0.74477
-0.432087
0.843994
-0.00736889
0.0381209
0.880224
-0.0271967
0.307439
1.04362
-0.700486
-0.0824569
-0.858915
-0.189743
0.0261111
0.610682
-0.532173
0.933177
0.226279
-0.554015
0.0913958
-0.465609
0.935389
0.991305
-0.409571
-0.292302
0.676533
-0.97526
-0.359659
-0.634249
-0.167766
-0.500347
0.286344
0.451605
-0.429268
-0.0942629
-0.647489
0.551735
0.840247
0.538367
0.75102
-0.198604
-0.944495
0.61404
0.881067
-0.0777592
0.137443
-0.0108179
-0.174603
0.302355
-0.695279
-0.21678
-0.641572
-0.468434
0.00997384
0.833828
-0.252072
-0.953551
0.3223
-0.265842
0.831654
0.540063
-0.722283
-0.289043
0.0681172
0.293597
-0.293295
0.182859
0.216215
0.776438
0.232506
0.253996
0.148966
-0.718431
0.358409
-0.277141
-0.233619
0.54683
0.134184
-0.624946
0.593555
-0.339084
-0.239501
-0.468841
0.33941
-0.161862
-0.325407
0.0510954
0.244099
0.682333
-0.638783
0.789504
0.492143
-0.483779
-0.403531
-0.190673
-0.710964
-0.436933
-0.0288129
0.460407
-0.277554
0.987381
-0.99112
-0.630609
-0.835922
0.303532
-0.504585
-0.40181
0.840023
0.846392
-0.844235
-0.357628
0.9236
-0.939223
-0.52428
0.360645
-0.327237
0.076654
0.995371
-0.0198501
-0.725672
-0.671328
0.793944
-0.0653275
0.989543
0.518555
0.286074
-0.00548182
0.317813
-0.0051992
0.366277
-0.185783
0.640404
0.865062
-0.54721
-1.00598
-0.630355
-0.872582
-0.0884813
-0.419551
-0.750698
0.812141
-0.571224
-0.158086
-0.823446
-0.570964
0.70905
-0.39167
0.71768
-0.381738
-0.0549879
-0.0608827
0.106052
-0.768183
0.376664
-0.762064
0.138426
0.870053
0.70445
0.722519
-0.318303
0.484259
0.356936
0.868365
-0.993536
-0.375965
-0.39362
-0.817202
0.834595
0.798612
-0.501219
0.0438798
-0.706466
-0.0492292
-0.611163
-0.599992
-0.0852751
-0.838445
0.25023
-0.912609
-0.504581
-0.676512
0.408224
-0.56291
-0.932432
0.132117
-0.0644464
-0.303621
-0.700752
-0.431793
-0.904732
0.152629
0.510854
0.246219
0.921864
0.517853
-0.333436
0.76497
-0.12158
0.0407562
-0.428738
0.843334
0.113862
-0.927658
0.443043
0.245227
-0.685925
0.832709
-0.202963
0.317019
0.440171
-0.506348
-0.490604
-0.709731
0.652919
0.913315
-0.425599
0.595464
0.844094
0.117797
0.545143
-0.125272
-0.64025
0.183295
-0.619509
0.947083
-0.15507
0.990977
0.839851
0.611832
-0.0817459
-0.858519
0.693196
-0.498546
-0.398283
-0.787766
-0.178226
0.650648
-0.464538
0.773062
-0.122594
0.446619
0.130842
-0.289624
0.813504
-0.0338932
-0.688808
-0.045286
-0.393425
0.585033
-0.920995
0.767465
-0.254592
1.03477
1.00885
-0.687895
-0.574069
-0.843563
0.51795
0.675735
0.474047
-0.23687
0.0454563
0.824912
0.706282
-0.747444
-0.508775
-0.939637
-0.250788
0.208736
-0.722462
-0.579545
0.366547
-0.0221849
-0.097834
-0.605735
-0.650775
0.159478
0.513212
0.849098
-0.642274
0.27908
0.336248
0.0381343
-0.258016
-0.589549
0.759831
0.963399
-0.642946
0.679803
0.0639215
-0.211972
-0.651996
0.600279
-0.242392
-0.532111
0.293427
-0.41097
0.100572
-0.954877
0.417273
0.158002
0.191657
-0.0122231
-0.832846
-0.213836
-0.261741
-0.331507
0.543085
-0.590076
0.440924
-0.225263
-0.807468
-0.442747
0.162057
-0.528448
0.908411
-0.968055
-0.431763
-0.597168
-0.31769
-0.064001
0.723887
0.855441
-0.836594
-0.726537
0.481755
-0.0276049
-0.298148
0.568799
0.273654
0.923056
0.621813
-0.213796
0.107466
-0.611396
0.719936
0.835872
-0.957185
0.154901
0.839203
-0.945227
0.169414
0.844299
-0.432374
-0.415014
0.99131
0.153945
0.541758
-0.52103
-0.302087
-0.0258405
0.241177
0.813275
0.832602
0.196779
-0.8536
0.559528
1.0628
0.249333
0.876148
-0.453184
-0.942739
0.839415
0.903962
0.392212
-0.177573
-0.215335
-0.260255
-0.747458
-0.104288
-0.0735954
0.459166
0.987167
0.0599211
0.377216
-0.122791
0.260838
-0.384658
-0.132304
0.253345
-0.521861
0.229692
-0.314698
-0.473303
0.0576815
0.100508
0.833092
-0.284964
-0.474934
-0.0543094
0.588411
0.658186
-0.679434
-0.430259
-0.275188
1.03216
-0.830117
0.964881
-0.749138
-0.763171
0.887667
0.70643
-0.549886
0.902423
0.77177
0.868949
0.770256
0.883849
0.734026
-0.950317
0.647218
-0.899919
0.606445
-0.508516
0.165732
0.43618
-0.45501
-0.892528
-0.0509617
0.588075
-0.467755
-0.493555
0.19416
0.553987
0.547266
0.813032
0.196909
0.820884
-0.729523
0.823661
0.231962
-0.824873
-0.683036
-0.17178
-0.106709
-0.889355
-0.924718
0.512551
0.60272
0.159926
-0.824302
-0.258414
0.67204
1.05486
-0.624678
-0.658895
-0.717507
-0.693128
-0.792965
0.576294
-0.609271
0.824517
0.510526
-0.510311
0.455813
0.284842
-0.61074
-0.823491
0.90291
0.307274
0.578809
-0.679975
-0.597608
0.125448
-0.23894
-0.213705
0.878413
0.682414
-0.577516
0.732813
0.308436
-0.315888
1.08043
-0.170716
0.802436
1.00267
0.577511
0.342099
0.282428
0.449108
0.83619
0.799009
0.752858
-0.428607
-0.599739
0.678479
0.0309131
0.145199
-0.178335
0.665312
0.511702
0.790974
-0.892978
-0.985828
-0.841624
-0.0354469
0.603733
-0.12894
1.00825
-0.121257
-0.0799308
0.574989
-0.717212
0.745059
0.0120455
0.884186
0.243068
0.260664
0.176387
0.778712
-0.100518
0.513444
-0.0217071
-0.408565
-0.633682
-0.123471
0.668313
0.263678
0.132918
0.418929
0.531027
0.140697
-0.689433
0.383077
-0.056077
-0.202764
-0.044923
0.189337
0.0335496
0.0790009
-0.0568846
-0.866472
-0.081231
0.638246
-0.0512971
-0.848302
-0.0319469
-0.073094
-0.423393
0.183268
0.248027
0.967818
-0.0901902
0.63956
-0.983888
0.288737
-0.681753
-0.698479
0.489393
0.228664
-0.80644
-0.687054
0.697731
0.268491
-0.408488
-0.123897
-0.911238
0.567059
0.494561
-0.737082
0.0654019
-0.706458
-0.774227
0.791954
0.433919
0.821561
-0.220083
-0.308312
-0.0987997
0.699882
-0.550919
-0.47873
-0.240569
0.669199
0.628416
0.394357
0.139339
0.680246
0.212578
-0.164251
0.24572
0.363916
0.860891
-0.379894
0.718879
0.0975557
0.424156
0.44982
0.948977
0.36702
-0.129294
-0.194302
-0.903894
-0.534404
-0.301622
-0.620127
-0.910179
0.35266
-0.785933
-0.202435
0.597633
0.179024
0.152667
0.562443
-0.952444
-0.888311
0.823946
-0.825288
0.895451
0.904922
0.310285
-0.00977284
0.42739
0.733804
-0.833259
-0.311089
-0.377085
0.817282
0.611013
-0.125886
-0.152691
0.384857
-0.647992
-0.651789
0.213302
0.0155773
-0.00807526
0.718014
0.195249
-0.75865
-0.0381764
0.12584
0.275967
-0.452857
0.118713
0.516788
-0.329258
0.546391
-0.305502
0.586872
0.60368
-0.601479
0.610409
-0.516009
-0.880666
-0.0256889
0.563167
0.149353
0.503514
0.415616
-0.0162616
-0.746513
0.202061
-0.0807163
0.638529
0.998271
-0.676444
-0.229484
0.839455
0.411273
-0.948779
-0.140327
-0.497558
0.7739
0.092337
-0.0879901
-0.0760325
0.580163
-0.743178
-0.584934
-0.0235565
-0.773682
0.493223
-0.126231
0.658729
0.0878467
-0.619299
0.593479
0.0693186
0.0430213
-0.112941
-0.619116
0.198216
0.861383
0.856342
0.163441
-0.671109
-0.89047
0.321803
-0.0334036
-0.0343022
-0.14822
0.541104
-0.850081
0.821655
-0.996767
0.620519
-0.856744
0.925962
-0.713366
-0.529807
0.891985
-0.641707
0.907445
-0.778061
0.829211
-0.978147
-0.0703147
0.571651
0.0173791
-0.810161
-0.509807
0.226554
0.599801
-0.880198
0.184341
0.448787
0.32596
0.49194
-0.394739
0.0538939
-0.450385
-0.981072
-0.0252391
-0.911715
-0.512789
-0.728265
-0.988369
-0.909866
0.340559
-0.695406
0.181843
0.0616068
-0.174633
0.0513738
-0.193545
-0.326995
0.314701
-0.109239
0.717787
0.734495
0.80212
-0.40957
0.782117
0.706528
0.27425
0.072022
-0.559513
0.382675
0.423935
0.677238
-0.340824
-0.12229
0.786078
-0.71869
-0.202663
0.840604
0.152219
