-0.098204
0.0981567
0.083655
-0.0123255
0.09253
-0.0170677
-0.051403
0.0258074
0.0159888
0.094234
0.0807949
0.045511
0.0349642
0.00882012
0.0507858
-0.0424575
-0.0711328
0.0399196
-0.0476143
0.0578158
0.0406519
0.0449121
-0.0420431
0.0346474
-0.0166278
-0.0872605
-0.0230262
-0.0980017
-0.0453096
0.077307
0.0571875
0.087075
-0.0988064
-0.043981
0.0456339
0.0639749
-0.00539154
0.0472761
0.0964032
0.0913265
-0.0195159
0.0943156
-0.00256015
0.0108722
0.00902844
-0.0972319
0.00564779
0.0748338
-0.0313708
0.0430202
0.0550496
0.0853905
-0.0763358
-0.0564543
0.0810635
-0.0692882
0.021064
0.0286537
-0.0791041
-0.0520003
-0.0888715
0.0148314
-0.0733604
-0.0848856
0.0667355
-0.0877458
-0.023746
0.0310122
0.0673721
0.0467906
0.0421761
-0.0378637
0.0120287
-0.0257841
-0.0930844
0.00761734
-0.0855439
-0.0583091
0.0401617
-0.0817467
-0.0738324
-0.0235687
0.0227948
-0.0399977
-0.0594366
-0.0789748
-0.00259978
0.0798092
0.0458753
0.0947167
-0.0818825
-0.00261987
-0.0479552
0.0573152
0.034387
0.0507661
-0.0662418
0.0898421
0.108659
0.0708722
-0.0430453
0.102674
-0.0665464
-0.0530159
0.0152959
-0.0825764
0.0384132
0.0539689
0.0972333
-0.0118768
0.0325641
0.0829997
-0.0806123
-0.0638301
0.0690857
0.0606802
-0.0216874
0.0114749
0.093286
-0.0553708
0.0140793
-0.0619376
-0.0253319
-0.0625589
0.0365421
0.124979
0.105221
0.113281
0.111505
0.0578206
0.0414667
0.0952529
-0.0131675
0.0421686
0.0309594
-0.0442994
-0.00489252
-0.0828577
-0.0531537
0.0259222
-0.0188745
-0.00541665
-0.0694359
-0.0770624
0.0162009
-0.0723142
-0.000897696
0.0173133
-0.0504328
0.0281892
0.0729832
0.0408772
-0.0507043
-0.0257877
-0.0605065
0.0523
-0.026233
-0.0743233
-0.0818271
0.0494125
0.0501165
-0.0912858
-0.0749971
0.0231083
-0.0123447
0.0883353
-0.010184
-0.0933895
0.0056108
0.0725063
-0.0437473
0.0342112
-0.00236518
0.0014518
-0.0414053
0.0134441
0.0459933
0.090505
0.0746314
-0.00918647
0.104228
0.0149119
0.0595574
0.0666301
-0.00250074
0.0585543
-0.0307117
-0.0730078
-0.0741369
-0.0697897
-0.027261
0.0264748
0.00983096
-0.0418449
0.0498837
0.00121364
0.0509788
-0.0637196
0.0360639
0.0870203
0.0434501
0.00389371
0.0593302
-0.0615706
0.00616621
-0.0577175
-0.0780193
0.0438599
-0.073166
0.0551093
-0.0558892
0.0828913
0.0155998
0.0611552
-0.0930705
0.0566597
-0.0977045
0.0329126
-0.0828753
-0.0993968
0.0172856
0.037464
0.0510449
0.0744878
-0.0646393
-0.0152254
-0.0531701
-0.00118902
-0.0386282
-0.000735677
-0.0173171
0.0968722
-0.0998392
0.0166831
0.0785458
-0.0503118
0.0505599
0.0446516
-0.0190327
-0.0494387
0.0967926
0.0862339
-0.0779036
0.0970902
-0.079668
-0.017188
0.0083731
-0.032879
-0.0583544
0.0262319
-0.0839082
-0.0644558
-0.0293967
-0.0707305
-0.0776696
-0.0976327
0.0649998
-0.0198145
0.00738567
0.0643777
0.0833515
0.0846039
0.0434072
-0.0925975
-0.0807201
-0.0873135
-0.0268984
-0.0307993
0.00186553
-0.0163605
0.05171
-0.0687118
0.00159647
-0.0979257
-0.0929085
0.0067479
-0.00727205
0.0755932
-0.0167084
-0.0532519
0.0559995
0.0200232
0.0498749
0.0530704
-0.0503772
0.0112115
-0.0728802
0.00259111
0.00432745
0.0254222
-0.0774563
0.00329652
0.0616061
-0.00899333
0.00291749
0.0808193
-0.0568649
0.100384
-0.0137805
-0.0562731
-0.0879196
0.103274
0.0157581
0.0357854
-0.0295335
-0.0251156
0.0127404
-0.0849379
0.0127449
0.0612293
-0.00240913
-0.0276376
-0.0118466
0.0966716
-0.049525
-0.0276347
-0.0668333
-0.100531
-0.100869
-0.0713435
0.0115184
0.0585867
0.0275032
0.0496538
0.0936683
-0.0182448
-0.0623567
-0.00921686
0.101469
-0.0440748
0.0987842
0.0716363
-0.0224577
-0.0734176
-0.0171654
-0.0977273
-0.0950055
0.0109334
-0.0635819
-0.08917
0.0831705
-0.103753
0.0153559
-0.0111731
-0.0487632
-0.0453909
0.111694
0.0788963
-0.0208364
0.0470339
0.111663
-0.0404352
-0.010486
0.085189
0.118782
0.11369
0.0863168
-0.0507902
0.00851968
-0.0724135
0.0315046
-0.007893
0.0340775
0.0513364
0.00510847
-0.0444124
-0.0195306
-0.0790054
0.013883
0.0933825
0.0919349
-0.0791451
-0.067493
-0.00876094
0.0556293
-0.0243378
0.10585
-0.0111124
0.0326521
0.0554067
0.0960714
0.11991
-0.0505356
-0.0358933
0.040355
0.0108282
0.0918606
-0.0320087
0.0633473
0.0888674
-0.0119714
-0.0325681
-0.0604684
-0.0354473
0.0851615
0.0204865
0.011308
-0.019809
0.0267594
-0.0109818
0.109305
-0.0018309
0.0989245
0.0713855
0.0916811
0.0585478
0.108279
0.0972136
-0.0547537
0.0451967
-0.00638111
-0.0185913
0.00556063
0.037212
-0.104559
0.0248175
-0.0844881
-0.0786021
-0.0570756
-0.0298948
0.0119376
0.041458
0.0602992
0.058416
0.0610699
0.073054
0.0190262
-0.0163283
-0.00394545
0.0920842
0.0173395
0.123492
0.0926756
0.0853521
-0.00507581
0.0721609
0.0717688
0.100387
-0.0421043
-0.0872685
0.0714419
-0.0682037
-0.0754141
0.0839488
0.0583525
0.0363603
-0.0454578
0.045829
-0.0570564
-0.0166993
0.0570694
-0.0191826
0.00379836
0.0209026
-0.056038
0.0696045
-0.0531501
-0.025916
0.0545118
0.106555
-0.0134988
-0.0648753
0.00483488
-0.0641967
0.0699225
-0.0204997
0.0251188
-0.0204195
-0.0317086
0.0321162
-0.0498007
-0.0548162
0.0595222
0.0266558
-0.0185412
-0.0195025
0.0689987
0.0942233
0.0391741
-0.0120027
-0.0846337
-0.0275421
-0.0277904
-0.0420798
0.0983597
0.10374
0.0480116
0.0530149
0.0349796
-0.0401741
0.0769876
-0.012709
0.0579149
0.0842386
-0.0193226
-0.0383616
0.000757028
0.0170743
0.00646197
-0.0850911
-0.033531
-0.0786673
-0.0516916
-0.0796768
0.0199572
-0.0229537
-0.0927047
0.0753734
0.0198013
0.0322378
0.0570178
-0.0135856
-0.0814457
0.0988875
-0.0185447
-0.0345718
-0.0638147
-0.0158828
0.0688462
-0.0146653
0.0654435
0.100478
0.0599208
-0.0431882
-0.0474329
0.129088
0.00968051
0.0554188
-0.0408773
0.0881924
-0.0844122
0.0306449
-0.054056
-0.00637338
-0.0903624
-0.0615389
-0.0761648
-0.0197611
-0.0752431
0.0851036
-0.0227313
0.0495285
0.0802845
0.017229
0.0810196
0.0637119
0.0358197
-0.0763833
-0.0246092
0.0535684
-0.00788062
0.092601
0.0262987
-0.0227041
-0.0482332
-0.0263847
-0.0135439
0.0261213
-0.0979121
0.00732168
0.0507738
-0.0540503
-0.0153644
-0.0409281
0.0465899
-0.0662266
0.0233065
-0.0145061
0.0671006
0.030836
-0.0893676
0.0690964
0.0171963
-0.0887809
-0.0498799
0.0695243
-0.00176075
0.0135916
0.125452
-0.0141799
0.145548
0.0210935
-0.0899021
-0.0159271
0.054384
0.0264729
-0.0419894
-0.0637651
0.041046
-0.0547173
0.00932935
-0.0806607
0.0915115
0.0590851
0.0877749
-0.0934184
0.0769934
0.0253369
-0.0606997
0.00710888
-0.0701547
-0.0328219
-0.047119
0.0108075
0.0323907
-0.0505268
0.0959581
0.137802
0.0112575
-0.0749422
-0.00148873
-0.0600199
0.0943175
-0.0725461
-0.0117737
0.0847405
0.00668204
-0.0271843
0.0583831
-0.0340543
-0.085464
-0.0487658
0.043463
-0.0222116
0.0178026
-0.0652004
0.0593358
-0.0730566
0.0332012
-0.0337689
0.122896
0.0489198
-0.0615468
-0.0738248
0.0406763
0.0673124
-0.0199052
-0.0384842
0.0851566
0.0510264
0.0754733
-0.074029
-0.0429205
-0.057321
0.0812638
-0.0951058
-0.0365961
-0.0578339
0.0836969
-0.0920572
0.00203945
-0.0498983
-0.0333116
-0.00186929
-0.0107164
0.0830364
0.0905834
0.110541
0.000828677
0.0235412
0.00181977
-0.0813946
0.00501539
-0.0416936
0.0638525
0.0314033
-0.0809101
-0.00293344
-0.0530276
-0.0813294
-0.0569532
-0.0880535
-0.000291451
-0.0319485
-0.00973584
0.078995
0.0173206
0.0650062
-0.0878968
0.0646338
-0.0391497
0.0376998
0.100978
0.0984045
-0.0398253
-0.0541721
0.00845581
0.0192347
-0.0266253
-0.0923687
0.0238704
-0.0306689
0.0772234
0.0399299
0.0197549
0.0168386
0.059709
-0.0796148
-0.0235847
0.0384423
0.0687593
-0.0547943
0.0254374
-0.0647613
0.0124789
-0.0813516
0.053592
0.0438661
0.00487639
0.0245093
0.0343118
0.0442164
-0.0276071
-0.0980393
-0.1052
0.0250517
0.0738319
-0.0409668
-0.0373292
0.00129272
-0.0299867
0.0131306
-0.0101121
-0.0186708
0.00375382
-0.0253367
-0.0419817
-0.0422105
-0.0047618
0.0536879
-0.0499111
-0.0521222
-0.046034
0.0364261
0.0633228
-0.00373118
0.0394105
-0.0630251
-0.094577
0.056688
-0.0420963
-0.0284169
0.036161
-0.0891567
-0.0579952
0.0855586
-0.0194949
0.0457857
0.00875994
0.0983559
0.0091885
-0.0618132
-0.0120651
0.0791976
0.0217423
0.0229104
-0.0441572
0.0267942
-0.0249585
-0.0794309
-0.0869022
0.0511261
0.0160626
0.0139063
-0.0103901
-0.059184
0.086437
0.0786446
-0.0269031
-0.0384315
-0.0173814
-0.054989
0.0541454
-0.0842547
-0.0468119
-0.0979311
-0.0479006
-0.0927935
-0.0668168
0.0851727
-0.0212643
0.010076
-0.0678505
-0.0314735
0.0191167
0.057146
0.0285704
-0.0559039
0.0754619
0.080944
-0.0227466
-0.0500711
0.0343291
0.0174281
-0.0504626
-0.0468213
0.037592
0.00838952
0.0148264
0.0778787
0.0168201
-0.0693342
0.0207314
-0.0252324
-0.0426125
-0.082689
0.0847767
-0.0969201
-0.081368
0.0835245
-0.0998578
0.0487261
-0.00648712
-0.0855851
-0.0359967
0.0581544
-0.00346522
-0.0196433
0.0368915
0.0727905
0.0524554
0.0432406
0.00819556
-0.0201043
0.0515955
-0.0449614
-0.044049
0.0512354
0.0907531
-0.0821025
-0.0504085
0.078431
0.0775831
0.0063711
0.083355
0.0265147
-0.06206
-0.0855332
-0.00914294
0.0791627
-0.0659272
-0.0174498
0.0669942
0.0564147
-0.087746
0.052949
0.0242447
-0.00379155
-0.0131906
0.0907073
0.0680002
0.0371934
-0.00562517
0.0732215
0.0963152
-0.0867279
0.028394
-0.0754749
0.0321382
0.0245558
0.0639874
0.0385997
-0.0747094
0.0876826
0.0659115
-0.0547525
-0.0752504
0.0589916
-0.0970453
0.0460031
0.0039407
0.0787382
-0.00168647
-0.051386
0.0426105
-0.0333927
0.0171942
0.0745842
-0.0627702
-0.0418743
-0.00934158
-0.0661782
-0.103748
0.0013548
-0.0743559
0.110931
-0.0186806
0.0045024
-0.00725178
-0.0670394
0.0924307
-0.0434887
-0.0189959
-0.0627224
-0.0584756
0.0546019
-0.0113285
0.085675
-0.0702641
0.0311514
-0.0649116
-0.0680338
-0.0853627
-0.00035395
0.0509506
0.0191679
-0.112931
-0.103617
0.0108628
-0.0454597
-0.0696002
0.0355398
0.110301
0.102412
0.00499201
-0.0188413
-0.0539903
0.0509154
0.0266663
0.0899633
0.0899481
-0.0258368
-0.0687658
0.0589512
0.0700311
-0.0967927
-0.0461418
-0.00189735
-0.0796541
-0.0968445
0.00395022
-0.0447769
-0.00850852
0.0127696
-0.111642
-0.0477184
-0.068259
-0.0741383
0.0404643
-0.0283214
0.0703256
0.114291
0.104298
-0.0275305
0.0144476
0.067373
-0.0221036
0.0568012
-0.0595115
0.0202521
0.0184543
0.017707
0.0835655
-0.0270985
-0.0214896
0.0138799
0.0774792
0.0314108
0.0549242
0.0109637
0.059589
0.00354066
0.0438073
-0.0170538
-0.03236
-0.0752437
0.0195625
-0.0511429
0.11121
0.115965
0.106803
0.0298403
0.112075
0.0107359
-0.0676729
-0.0700244
-0.0759289
0.0763208
0.0741373
0.0826739
0.0725735
0.00086339
-0.0481881
-0.0679868
-0.0732704
-0.00408443
0.0310605
-0.0827371
-0.100566
-0.10782
-0.0229587
-0.0298427
0.0156312
0.0665751
0.072574
0.120964
0.0812935
-0.0244867
0.00789419
-0.00874257
0.0234379
0.0601703
0.0748034
0.00758279
0.0831403
0.0980332
0.0632876
0.0145245
-0.0821169
0.0344515
-0.0619314
0.0944771
0.0210339
0.0776952
-0.0135427
-0.0823508
-0.111922
0.0318768
-0.0448536
0.0526905
0.00989639
-0.0869828
0.0859552
0.11788
0.0017055
-0.0716889
-0.0131502
-0.142346
-0.0796899
-0.0383762
-0.0552153
-0.0505425
0.0232165
-0.047468
-0.0126028
-0.00210523
0.000205815
-0.0467013
0.100289
0.0387191
-0.0340093
-0.0504689
-0.00916109
-0.0345069
0.0724626
-0.0784381
-0.107517
0.022774
-0.0263416
0.130912
0.124899
0.0721931
-0.0334034
-0.10493
-0.0781763
-0.0985469
-0.0844671
-0.0989084
-0.0222769
0.00520637
0.0292804
-0.0951506
0.0455539
0.0463664
-0.0387197
-0.0987691
-0.0864166
0.0306419
0.0202005
0.0653873
0.0292806
0.0807276
0.052359
-0.0136186
-0.0914607
-0.0631228
-0.053459
0.0330292
-0.043085
0.0747576
-0.0892343
-0.132243
-0.0534274
-0.0788447
-0.17486
-0.104721
-0.027635
-0.05845
-0.0046038
-0.0235876
-0.0552528
0.0545418
0.0869603
0.0176097
-0.0358555
-0.0769801
-0.0390932
0.0227595
0.0727838
0.0687952
0.00808981
-0.0737982
0.0894018
0.110147
0.0253328
0.157761
-0.0763993
-0.0427954
-0.0583703
-0.0761967
-0.042905
-0.0215566
-0.0669912
0.0204248
-0.0409493
-0.00693555
0.0179963
-0.0620217
-0.0365899
-0.00868227
-0.0772952
-0.0041978
-0.0728533
0.0988291
0.0855835
-0.0539654
-0.0728238
0.0410896
-0.0353872
0.0599593
0.0376001
0.0419622
0.0264922
0.0965164
0.0080786
-0.0175864
-0.107574
-0.0611657
-0.114455
-0.0596653
-0.108692
0.0177129
-0.139319
-0.0567672
-0.111746
0.0245459
0.00795547
-0.0982432
-0.0257474
-0.0192637
0.0959583
-0.0524939
0.0631961
-0.0579977
0.0606259
0.064497
0.0224532
-0.0368043
-0.0282675
-0.0108131
0.148837
-0.0439766
-0.0619042
-0.0636624
0.0264599
-0.0574362
-0.0597289
0.0158762
0.00177612
-0.118592
-0.0749185
-0.0159121
0.0165245
-0.0908605
0.0860434
0.00365899
-0.0988507
-0.0899519
0.0694661
0.0596204
-0.0202087
-0.0142367
-0.0874207
-0.0651343
-0.0426964
-0.0230386
-0.0714638
0.0476488
-0.00833845
-0.0859712
-0.0283302
0.0446627
0.0691155
-0.0634586
0.0727983
0.0600164
0.021329
-0.0119766
0.0327188
0.0157298
-0.0139403
-0.0493667
0.0193816
-0.0378584
-0.0460692
-0.0612069
-0.00631343
-0.0124303
-0.0778498
-0.005608
-0.0448349
0.0693802
-0.0379271
0.0150354
-0.052964
0.122946
0.0921226
0.0534256
-0.0797997
-0.0732929
-0.0903785
0.00475077
0.100199
0.108332
-0.0383084
0.0840195
-0.0542137
0.0179484
0.0739729
-0.0969085
-0.0716362
-0.0702318
-0.00359483
-0.0422277
-0.0272856
-0.0285496
-0.096967
0.0307491
-0.0778582
-0.0794292
-0.0724637
0.0757219
0.0033331
0.107226
-0.0928785
-0.0304482
0.010378
0.022086
0.0527127
0.0808886
-0.0509087
0.0666186
-0.0132823
0.0474211
-0.0621258
0.0524662
-0.0660908
-0.00584613
-0.0598871
0.0155914
0.0669439
-0.0156446
0.0543311
-0.0210045
0.0179988
-0.0315462
-0.0343283
-0.116473
0.0482326
0.0762554
-0.0687895
0.0946202
-0.0678981
0.0448628
-0.00573385
-0.0534778
-0.00873312
0.080382
0.125181
0.0530713
0.0280221
-0.0404481
-0.0897107
-0.0433101
-0.0634309
-0.0827754
0.0838844
0.051901
-0.0256476
-0.0740212
0.0985997
0.0385048
0.0398209
0.0804779
0.0231223
0.0828493
-0.0792343
0.0231954
-0.114015
-0.0901084
-0.103756
0.0600945
-0.0878763
0.0118635
0.0304818
-0.0490737
-0.0507825
0.030894
0.0228895
0.0424972
0.0332303
-0.0305631
-0.039979
0.0772703
0.052304
-0.0803536
0.0354954
-0.01961
-0.0478712
0.0280986
-0.0358942
-0.0330533
-0.0479666
-0.0579817
-0.084809
-0.0332716
0.0593884
0.00984142
0.0665454
-0.0734384
-0.0761997
-0.00518383
0.0493019
0.0701203
-0.00516531
0.0469319
0.0556511
-0.0633266
0.0369043
-0.016262
-0.0777396
0.0341656
0.0558537
-0.0657294
-0.0270457
-0.00239557
0.0535116
-0.00281183
0.0706632
-0.0799039
-0.0767443
-0.0233032
0.031864
0.0116181
0.00193989
0.0114401
-0.0432276
0.0722377
0.049791
0.0682904
0.0342677
-0.06928
0.0159416
-0.0673556
-0.0437296
-0.0348125
-0.0192009
0.0142451
0.0267179
0.0907763
-0.0853003
0.0249744
-0.0216423
0.0207412
-0.0359198
0.0967076
-0.0519383
-0.00903092
0.0542511
-0.0383558
-0.0047823
0.0612241
0.00704316
0.0138687
0.107503
0.0122009
0.0899045
0.0695998
-0.00909957
0.108626
-0.0454679
0.0533391
0.0429812
0.0722873
0.0506914
-0.0149167
0.0524754
-0.0119681
-0.04299
0.0582514
0.0884433
-0.0528571
0.00663705
0.0753235
0.0582579
0.0538099
-0.00875873
-0.104416
-0.0731487
-0.00957255
-0.0170365
0.112881
-0.0465131
-0.0086075
-0.041215
0.0814248
0.0336555
-0.0661372
-0.0102087
0.0601791
0.0648767
-0.00829894
0.0777239
-0.00606792
0.0608536
0.0217415
-0.0803761
-0.0397031
0.00323137
0.0446071
0.0473258
0.087632
0.00902946
0.05956
0.0705323
-0.018158
-0.0754152
0.0127214
-0.0310331
-0.0517995
-0.0189202
0.0512215
-0.0401015
0.130878
0.106064
0.0705534
0.0898383
0.0730421
-0.0447514
-0.0602399
0.072723
-0.0558514
-0.0729301
-0.0361089
0.00301772
-0.0928367
0.00388584
-0.0359867
-0.0420916
0.0994404
0.0693132
0.0641067
0.0588482
-0.0714863
0.0456463
-0.0549202
-0.0721838
0.0508403
0.0567399
-0.0321899
0.10037
-0.0226116
-0.0521876
0.0538501
0.0361951
-0.0186532
-0.0968961
-0.0933111
-0.0848139
0.0115005
-0.0998122
-0.0402966
-0.0988314
0.0277066
-0.0857409
-0.0769018
0.0504652
-0.0172272
-0.089665
0.0319219
-0.00276168
0.0148835
0.0318482
0.095069
0.0228193
-0.0827148
0.045571
0.00347306
-0.0671542
-0.00483271
-0.0472201
-0.0741859
-0.0585402
0.0873644
0.00343875
-0.0244034
0.0511006
0.00758903
0.0675511
0.0322619
-0.0275768
-0.0351895
0.0141472
-0.0450813
0.0472305
0.00219026
0.0280004
0.0441541
0.0560871
-0.0804437
-0.0182989
0.0602778
0.00782308
0.00274624
-0.0991056
-0.0952507
0.0761017
-0.0783807
-0.0345253
0.0385035
-0.0512638
-0.0739792
-0.0841821
-0.0388344
-0.0553162
0.0916374
0.0401237
-0.0256352
0.0138369
0.0124217
0.0728248
-0.0267159
0.0627295
-0.00169637
0.0374949
0.0776049
-0.0591769
0.00811199
-0.078335
-0.0858315
-0.0819936
-0.0558571
0.0607724
0.0527818
0.0496845
0.0776541
-0.0205647
-0.0267767
0.0768465
-0.0694938
-0.0373346
0.08001
0.0112081
-0.0785915
0.0559034
0.00149916
0.00721225
0.00720026
0.0840002
-0.0202947
-0.0863344
-0.0894658
0.00502975
0.0613233
0.0342205
0.0918391
-0.0624763
0.0695977
0.0519033
-0.0110849
0.0573729
0.0511786
-0.0235382
0.022906
-0.0566789
0.0273803
0.0115657
0.0247014
-0.0613035
-0.0560659
-0.0731654
-0.00615393
-0.00293539
-0.096535
-0.0230155
0.0260733
-0.0830093
0.0686739
-0.0836854
0.0290201
0.0233131
0.0691966
0.0867827
0.0396685
0.0420835
-0.0207378
0.0903025
0.0593575
-0.0179046
-0.0398256
-0.0640765
-0.0909452
0.027868
-0.0691001
-0.009156
0.048642
0.0695865
-0.0549721
0.0301903
0.0460475
-0.0911008
0.0449527
-0.0689467
-0.054079
0.0515678
-0.0768208
-0.0912249
-0.0557374
0.0599488
-0.0855794
-0.0774361
0.0498025
0.0273009
0.0917257
0.0952492
0.0118159
-0.0639928
-0.0769401
-0.0164486
0.0563231
0.0621146
0.106024
0.0874912
-0.0368113
-0.00759182
-0.0836471
0.0921764
-0.0666006
-0.0039075
-0.0960108
-0.0335449
0.00744279
0.0818956
-0.0769991
-0.010864
0.0864071
-0.00243797
0.0421827
0.0579794
-0.0616363
0.0557169
-0.0252703
0.0122928
0.0803101
-0.0453477
0.0795884
0.0805277
-0.00260328
0.103678
0.102442
0.098634
0.00218997
-0.0423183
-0.0192293
0.0543521
0.0138222
-0.0824119
-0.0171598
0.0183466
-0.0582638
0.0514116
0.0766969
0.0283541
-0.0232317
0.0586599
0.0524665
-0.0377328
-0.0427705
-0.0490266
-0.0706545
0.0784449
0.0418974
-0.0629076
-0.0427728
0.0431163
-0.0697288
0.0637583
0.0480673
-0.0584176
0.0987218
0.0643189
-0.0631657
-0.0416515
-0.0882852
0.0520107
0.0190262
-0.0129719
-0.0173198
0.0680917
0.0431933
-0.065441
0.0560435
0.0174715
0.0676277
-0.101769
0.0441334
-0.0794598
-0.0530806
0.0186441
-0.0460056
-0.0119705
-0.00698832
0.0834807
-0.0577534
-0.0823135
-0.0710721
-0.0217682
0.0541219
-0.0894488
0.0475083
0.0556649
0.0852962
0.0545085
-0.0506483
0.0100439
-0.0596613
-0.0833117
0.0572882
0.00275924
0.0976093
-0.0375518
0.0614977
-0.0064968
0.0359549
-0.0152561
-0.0749318
-0.112414
-0.0932764
-0.110525
0.0368297
-0.00426021
0.0298129
-0.00246817
0.0833427
-0.0250466
0.0142324
-0.0765878
-0.030092
-0.0963093
-0.0186617
-0.0355532
0.0717717
-0.0734542
-0.0613637
0.0309895
0.0446337
-0.0728322
0.0928062
0.0111808
-0.107995
-0.0575346
-0.101967
-0.080902
0.0497175
-0.00463234
0.0313132
0.0552536
-0.0350158
0.0576295
-0.0491083
0.0666557
0.0713792
-0.081974
0.0406293
-0.0644734
-0.0941383
-0.124014
-0.108385
-0.112509
0.0152323
0.00319087
-0.0497816
0.00981653
-0.0802358
0.0959406
-0.0964352
-0.0897796
-0.096224
0.054962
-0.0734365
-0.0597884
-0.0455138
-0.0229481
-0.0649231
-0.0704045
0.0668784
0.00995791
-0.0717845
-0.00372121
-0.00693774
0.0490628
-0.124287
-0.0846769
-0.137659
-0.00842404
-0.0505205
0.0635228
-0.0132069
0.00357542
0.0564818
0.0723055
-0.000975516
0.0780812
0.0186484
-0.0688715
-0.0828544
-0.0476561
-0.0288978
0.0135923
-0.0466959
-0.0877482
-0.101317
0.0490485
0.0964546
0.0405412
0.0360173
0.0968347
-0.0414009
-0.0651241
-0.140875
-0.141752
-0.0668653
-0.01008
0.00579654
0.0450739
0.0406304
0.0339583
0.0650416
0.0668674
-0.0464712
-0.0548868
-0.0596121
0.0577225
-0.0253371
-0.0163123
0.0402985
0.00840078
0.0538402
-0.0404828
-0.0488085
-0.066079
0.0222613
0.0902588
0.0148484
0.0569194
-0.0634948
0.0075263
-0.124061
-0.120955
-0.12444
-0.00552414
-0.0594543
-0.0890816
0.0851985
-0.0334026
0.00737181
-0.0969436
-0.00587538
0.0323599
0.0317164
-0.027694
0.0348161
0.00490041
-0.0889041
0.0572862
-0.0964248
0.0528611
-0.0128736
-0.0694235
-0.0507346
0.100137
0.0850005
-0.0605319
-0.141178
-0.0185217
-0.0849336
-0.110384
-0.0349224
0.037162
-0.0322352
-0.0729893
-0.0891889
-0.0178055
-0.00943994
-0.0526085
-0.0984019
0.0437209
-0.0351399
0.0277841
0.0926668
0.0756075
0.0835556
0.0546962
-0.0166564
0.0488337
-0.062651
-0.0381045
-0.00370817
0.0596218
-0.0308651
-0.00982923
-0.106487
0.0169877
0.0677878
-0.00300056
0.0576471
-0.0961773
0.0435095
-0.0849927
0.0835328
0.00666678
0.0973839
-0.0981984
-0.0350226
-0.0157076
-0.0676974
0.0662278
-0.0235087
-0.00872121
0.0891981
-0.0285841
0.0508013
0.0580403
-0.0782736
0.0702186
0.0598154
0.149952
0.0614764
0.0635337
-0.072474
0.0141951
0.0599038
-0.016809
0.0591751
0.0915843
-0.0343057
-0.0684321
0.0750686
0.0470447
-0.0378746
0.0679084
-0.00665647
0.0857542
-0.0861564
0.0172646
-0.0145328
0.0111911
-0.0448934
-0.0931984
-0.0133052
-0.0525675
0.0425537
0.0101629
0.0262988
-0.0524853
0.0646495
-0.0644963
0.000115981
-0.0721363
0.0803142
0.00510931
0.0720554
-0.066381
-0.0864353
-0.0201106
-0.0169504
-0.0350267
0.0439347
0.0309749
0.0133447
-0.0257271
-0.0410743
0.0660299
-0.105918
-0.0457552
0.0402436
0.0790937
-0.0741365
-0.0767875
-0.0439286
-0.0806893
0.0625571
0.137359
-0.0487222
-0.00498553
-0.0409911
-0.0502808
0.0318811
0.0366193
0.029574
-0.0380532
0.0091052
0.0138551
-0.0477265
-0.0572686
-0.0209114
0.015545
-0.00948926
0.0816579
-0.0803863
-0.0869759
-0.067502
0.0172663
0.081781
-0.00291557
0.0100543
-0.0713436
-0.0297135
-0.0191785
0.0981934
0.0733475
0.0325424
0.0231105
-0.103563
-0.0106209
-0.0764984
0.0906718
-0.0611663
0.0821397
-0.0811492
-0.0473567
-0.0902391
0.0578589
0.0167978
0.0908659
-0.0545492
-0.0761741
-0.0243561
-0.079857
-0.00314834
0.0503846
0.0375599
0.0372137
0.0597168
0.090011
-0.0420161
0.0245035
-0.0125854
0.130489
-0.0317978
-0.119447
0.0117964
0.0344941
0.0920452
0.0346306
0.0733183
-0.0203161
-0.0134524
-0.0284954
0.0345954
0.0739766
0.017493
0.0323201
0.0844574
-0.0686785
-0.060798
-0.0852163
-0.0513427
-0.00243139
-0.00434668
-0.0425455
0.0503081
-0.020469
0.0816469
0.117073
0.0726567
0.00517604
-0.0768149
-0.103333
0.0196987
-0.0655645
-0.0309302
0.0808052
-0.0285939
-0.0809788
-0.100381
-0.058456
-0.0634401
-0.0848331
0.0270947
-0.0156155
-0.000931783
-0.00417506
-0.0634206
0.0597483
0.0602291
-0.0353738
-0.0277822
0.0276624
-0.0857904
-0.0240189
0.101822
0.14643
0.156164
0.0748469
0.0495332
-0.094477
-0.0795502
-0.0709689
0.0254541
-0.054083
-0.0339321
-0.0312747
-0.0821341
-0.0308314
-0.0742256
0.0841183
0.0418256
-0.0375215
-0.0904949
0.0281783
-0.024339
-0.0319768
0.0570101
3.48306e-06
-0.11999
-0.0256432
-0.0841068
-0.0574109
-0.0106573
0.0078228
-0.0469727
0.018655
0.0708367
0.0786312
-0.0501409
0.0817714
-0.114827
-0.00598991
0.0666724
0.0583517
0.0464341
-0.00820029
0.0390677
-0.0686805
-0.00646591
-0.0062233
0.0322555
-0.0131109
-0.00737442
0.0139131
-0.0369645
-0.0984461
-0.0931233
0.0244393
-0.0176402
0.0798711
-0.0800076
0.102158
0.0545497
0.0973784
0.0224948
0.0362727
0.0438476
-0.0388298
-0.0304196
0.00459626
0.00180862
0.0350239
-0.0267019
0.0462641
0.0318374
-0.074568
-0.00827713
-0.0990938
-0.0139643
0.0946427
0.0422863
0.0464659
0.0704269
0.0758928
-0.0278797
0.00550722
0.0653217
0.0584918
-0.0747647
-0.0381573
-0.0519983
-0.0339332
-0.092484
0.0253178
-0.0217856
-0.0636481
-0.0947164
-0.0161732
0.0260968
0.0416212
-0.0755485
0.0957571
-0.0195005
-0.027528
0.0866378
-0.092851
-0.0480457
0.0646576
0.0992536
-0.0535661
-0.0112555
-0.0268026
-0.0710636
0.0610047
0.0540264
-0.0732673
0.0826954
0.0441882
0.0246967
0.0181919
-0.115901
0.0159296
-0.10104
-0.00989205
-0.0293831
-0.093521
-0.0128656
-0.0776948
-0.096775
-0.0416135
0.0232405
0.024966
0.00135001
-0.0585649
-0.00310527
-0.0939558
-0.0453631
-0.0532557
-0.0675211
0.0471925
0.0433252
-0.0741599
0.00990328
-0.0881109
-0.0598966
-0.111069
-0.00145447
-0.0732798
-0.0805713
0.021112
-0.0460015
-0.0693576
-0.0736473
-0.0827915
-0.00628575
-0.0133873
-0.0413849
-0.0672925
-0.0226752
-0.0133939
0.0708441
-0.0811816
-0.0819934
0.000464013
-0.0863656
-0.0984688
-0.0177047
-0.0133442
0.0633811
-0.000734647
0.0266477
-0.0496381
-0.0193038
-0.0728926
-0.104503
0.00239794
-0.0581099
0.029131
0.0714376
0.0316336
-0.040072
0.00742505
0.0161287
0.0104947
-0.0746504
-0.067327
0.0873164
0.0238201
0.0697684
0.072224
0.0551843
-0.00365747
-0.0588317
0.0445053
0.0679934
-0.0293041
0.0661924
0.0145843
0.0768744
0.0499302
-0.0309385
0.0581182
0.0653073
0.0671388
-0.0732031
-0.0164952
0.0164671
0.0172952
-0.0874983
0.0619989
-0.0961917
0.0389915
0.0534407
0.00711758
0.0984034
0.00130144
0.023793
0.0334553
-0.0888827
0.0088948
-0.0443735
0.0225629
-0.0507414
0.0134841
-0.0948331
0.0684353
-0.00956713
0.00315036
0.0820352
0.019388
-0.00808391
-0.0605411
-0.0292491
-0.0194988
-0.0914214
-0.0426136
-0.0497595
0.040587
0.0683549
-0.0933274
0.0230933
0.0180347
0.0494044
-0.0212451
-0.0331981
-0.0699184
0.0696842
0.0650256
-0.0110066
0.0584321
-0.00351211
0.0977181
-0.0205637
-0.099098
-0.0296708
-0.0120521
0.0818651
0.00922848
-0.0410722
-0.0826019
-0.0407046
0.0745551
-0.0225464
-0.095434
-0.0888125
0.0522056
0.082829
-0.0662923
-0.0819346
-0.0880917
0.0896511
0.0707702
0.0444176
-0.000655272
-0.0369385
-0.0655651
0.087906
0.0193277
-0.0826189
0.0226708
0.0586105
-0.0670318
-0.0179655
-0.0337569
0.00328096
-0.00866981
-0.0896303
0.00467331
-0.036023
0.00845315
-0.0964802
-0.0182538
0.0773085
0.0379813
-0.0177012
-0.0769692
0.0216801
-0.0377085
0.0559003
-0.0409381
-0.0394688
0.0546207
0.0775985
0.0511982
0.0716566
0.024155
0.0804746
-0.0268696
0.0289089
-0.0425688
0.0863819
-0.0451456
-0.0140294
0.029984
0.0826645
0.0467052
-0.0769075
0.043544
-0.0071507
-0.0370454
-0.0111981
0.0382805
0.0636357
0.0565383
0.0142987
0.0739731
-0.0946309
-0.0873866
-0.0183102
0.0724033
-0.0184837
-0.0828134
0.0288373
0.0684065
0.0128779
0.0134
0.0771568
-0.0262777
0.0145025
0.0202939
-0.0555721
-0.0751505
0.0496199
0.00302528
-0.0752568
-0.0438422
0.0114507
-0.0201486
-0.0216725
-0.0694218
-0.0651407
-0.0339275
-0.055412
-0.00232605
-0.0502582
-0.071543
-0.0314079
0.046919
-0.0970924
0.0348742
-0.05512
-0.098148
0.0293546
-0.0167546
0.0334466
0.0418833
-0.085619
0.0731054
-0.0105489
-0.0602537
0.041853
-0.0371022
-0.0710884
-0.116531
-0.0192033
-0.0881678
-0.0857821
-0.0680011
-0.0802672
0.0467726
0.01317
-0.00438171
-0.0604975
-0.057406
-0.0207191
0.0298645
0.035332
0.000388552
0.0216891
0.0537692
-0.00723996
0.00302634
0.0417677
-0.0113094
0.0805805
0.0496245
-0.00647168
0.0723333
0.0798779
0.0702428
-0.0416875
-0.127687
-0.130614
-0.139313
0.0499052
-0.00806042
-0.0149032
0.0583063
-0.0631738
-0.0992468
-0.0517275
-0.0544616
0.01584
0.0522518
-0.0834908
0.0313182
-0.0132345
-0.0013743
-0.0240863
0.0423856
0.0267057
0.0735991
-0.00693585
-0.0142916
-0.0159244
0.0446967
0.0819152
0.00722805
0.0270027
-0.0557423
0.0579547
0.0579321
-0.081602
0.0307168
-0.0446854
-0.102269
0.00556484
-0.0637331
-0.037941
-0.0704016
-0.00618449
0.0831984
0.0424663
0.0959004
0.00943395
0.00409896
-0.0417595
-0.0877992
0.0339951
-0.0613261
0.0522711
0.070807
-0.0903079
-0.0724944
0.0956938
-0.00947845
-0.038272
0.110671
-0.0518128
-0.0638442
-0.04524
-0.0217372
0.0368777
0.0390276
-0.0850998
0.0524098
-0.0490663
0.0363037
-0.018504
0.075981
-0.0138893
-0.00855495
0.0916143
-0.0778009
0.0204242
0.0586824
0.0624744
0.0478408
-0.0137439
0.0415401
0.0833739
-0.0384098
-0.00243377
0.0265458
-0.013619
0.105569
0.0969358
0.0979699
0.0163939
-0.0486354
0.0217047
0.0479633
-0.037116
0.077951
0.0818217
-0.00398511
0.0188715
0.0670974
-0.0867243
0.0921956
0.0225898
0.0999144
-0.0558721
-0.0458301
-0.0538505
-0.0795399
0.00118467
0.01776
0.0717958
-0.0389254
0.0212578
0.0567725
-0.0561261
0.0775781
-0.0525269
0.0888862
-0.0537068
-0.00303792
-0.0335022
0.0351088
-0.0996259
0.0913309
-0.0983888
-0.0745558
0.0955856
0.0127166
0.0891151
-0.0370011
-0.0485396
0.00184961
-0.0809456
0.0712625
0.0982432
0.00951191
-0.0776703
-0.0550713
0.0614274
0.0186566
0.0552072
0.0605718
0.0195374
0.10236
0.0269837
0.0543271
-0.0283743
0.00512611
-0.00921431
0.0635374
0.0492382
0.0566561
0.0870723
0.0707257
0.00388548
0.00122084
0.0363168
0.0321759
-0.0215206
-0.0331936
0.00625033
-0.0766423
-0.0491965
0.100966
0.101126
0.0504771
-0.00534355
0.0161165
0.101568
-0.0227097
0.00824919
0.0977413
0.0732566
-0.0895006
0.0377286
0.0378739
0.0748969
0.00606594
0.0136541
0.0110072
0.0712741
-0.0787787
0.0104558
-0.0150239
0.0476201
-0.0137326
0.0945663
0.0884736
0.0587584
-0.00695668
0.0502451
0.0614434
0.0750964
-0.00842351
0.0983512
0.0399702
-0.0540902
-0.0523719
0.0962241
0.0985973
-0.0575727
0.115878
-0.0469796
0.0767323
-0.070962
-0.0396358
0.0442384
0.0675661
0.0779623
-0.0138356
-0.00742491
0.0687142
0.0977193
0.0016537
0.0192723
0.106834
0.0327558
-0.0149317
0.0313065
0.135829
-0.0515963
0.0951841
-0.00209642
0.117132
-0.0216914
-0.0309251
0.0707672
-0.00869246
0.0188503
0.109427
0.0519035
0.0870784
0.0352545
0.0334675
0.0580104
0.0704065
-0.0438217
-0.079168
0.0482732
-0.0486875
-0.00155278
-0.0264475
-0.0507204
0.108335
0.0445961
0.0631528
-0.0120501
-0.0263263
0.0946171
-0.0546693
0.0746057
0.110318
-0.0169981
0.0384105
0.0917363
0.0119223
0.0627584
0.00329439
-0.00996246
-0.0129677
0.028312
-0.0162643
-0.110214
0.0351911
0.0573436
0.0997455
0.0801927
0.00334059
-0.0707726
0.0912537
0.0941008
0.0884457
0.00492227
0.0247842
-0.049896
0.00973603
0.0158297
0.0624461
-0.0831992
0.0963787
0.0125155
0.0937283
-0.02854
-0.0549224
0.0871647
-0.0145878
0.0949675
-0.00463407
0.0521625
-0.0286962
0.0166603
0.0719679
0.0565118
0.0105814
0.0242794
0.00905881
0.0657526
0.0861531
-0.0306125
0.0937018
-0.00125735
0.0293586
0.0261739
0.0489371
0.0921846
0.0831457
-0.0208336
0.0810128
0.0616823
-0.0674372
-0.0141716
-0.0180887
0.050838
-0.0041859
-0.0816722
0.0879239
-0.00665031
-0.0238196
0.0637146
-0.0761528
0.0661755
0.0751536
0.0460511
0.0379089
0.0127084
0.0515807
0.0292213
0.0410386
-0.0720494
0.0202193
0.0354526
-0.0399947
-0.0966491
-0.0212692
0.0538545
0.0591572
-0.0758138
-0.0603866
0.0782346
0.0400523
0.0982115
-0.0115305
0.0598506
0.0249486
0.0959097
-0.0293084
-0.017076
0.00722289
-0.0898671
-0.0778408
0.0320401
-0.0447274
-0.0891691
0.098281
0.0147901
0.0534608
0.0638538
-0.106495
0.0249403
0.0523154
-0.122849
0.00622719
-0.0776686
0.0558254
-0.043006
-0.069385
0.0139873
0.00653918
0.0138172
0.00627286
0.0688897
-0.0192475
-0.019262
-0.00757553
0.0124149
0.0217873
-0.0240115
-0.0579098
0.0635898
-0.00339544
-0.0921657
0.0778475
-0.0266506
-0.0460629
-0.111966
-0.0248131
0.0416684
-0.122167
-0.120531
-0.0317545
-0.111852
-0.148768
-0.132344
-0.0716746
-0.0066059
-0.0230308
-0.10427
0.0220612
0.102712
0.024233
0.0334164
-0.0415351
0.0769208
-0.0660964
-0.101002
-0.099094
0.0987681
-0.0044577
0.0318103
-0.0178014
0.0821979
-0.0053487
0.0219017
0.0201908
-0.133713
0.023725
-0.00889942
0.0154467
-0.094008
-0.0415837
-0.0575483
-0.109606
-0.0418729
-0.0253881
-0.0849361
0.0974925
0.0466606
-0.0297051
0.0466479
-0.100513
0.0843392
0.0789621
-0.0636584
-0.0189583
0.0347946
-0.0647659
0.0921991
-0.0868235
0.086278
-0.0584906
-0.0873512
0.00697616
-0.088851
-0.130576
-0.108017
-0.147239
-0.0503795
0.0177766
0.0048835
-0.109508
-0.112019
0.0780263
-0.0120166
-0.0667469
-0.00102167
0.0375858
-0.0766655
0.0584261
-0.0249626
0.0954606
-0.00861655
-0.0426562
-0.0485956
-0.0343904
-0.00129728
0.0682798
0.0733544
0.0996851
0.0715672
0.0830342
-0.0670068
-0.0470906
0.0120671
-0.118474
-0.0227045
-0.0112141
-0.0312008
0.0794911
0.0432927
0.0637869
0.0801647
0.108326
0.039423
0.0777052
-0.0221458
0.0149504
-0.093546
0.0432916
-0.0310841
0.0448086
0.0324604
0.0830883
0.0326103
-0.000582
0.0391258
-0.0277896
-0.0469672
0.0337176
-0.0195149
0.0500224
0.0886475
-0.0801537
0.0576494
-0.00516813
0.0193964
-0.0608305
-0.00932238
0.0543614
0.0461643
-0.0153986
-0.0357033
0.0337167
-0.0451568
-0.0955087
-0.0673971
-0.0437555
0.00235442
0.0154773
-0.0219938
-0.0216118
-0.0887361
0.0696884
0.0290289
-0.0882117
0.0542072
0.028671
-0.0630436
-0.0748012
-0.0552445
0.0678268
-0.0115328
0.0131157
-0.0451665
-0.0621888
0.00395221
0.00313242
-0.0100185
0.0280881
-0.020681
-0.0644592
-0.00871764
0.0264265
0.0409709
-0.0879313
0.0204544
0.00296077
0.05428
-0.00815535
0.0561804
0.0128762
0.0220884
0.0238044
-0.0951928
0.0148822
0.102694
-0.00654381
0.0186004
-0.053919
0.0924309
0.0843158
0.0718786
-0.0399582
-0.0869955
-0.0884225
-0.0647954
-0.0359454
-0.0607148
0.0476314
0.0341689
0.0677177
0.015609
0.0392976
-0.0648842
-0.0782203
0.0939987
-0.0356413
-0.00492543
-0.0729788
0.00118944
0.0713428
-0.0792863
0.069755
0.0388851
-0.0430121
-0.0167392
0.0476543
-0.0651292
0.0386416
-0.0281801
-0.0546876
0.00541747
-0.000657269
0.0898032
0.0981841
-0.000859075
0.0425326
-0.0704235
-0.0609818
0.0782658
0.0348546
-0.0520718
-0.00861337
-0.0520601
0.0509077
-0.0063275
-0.0824092
-0.0876226
0.0885246
0.0410112
-0.0744955
-0.0907236
-0.0751788
0.0615215
-0.0943589
-0.000131286
-0.0697667
-0.0705208
-0.0441767
-0.0185009
-0.0297548
0.0783219
0.036256
-0.08538
0.0147016
0.0834055
-0.0387558
0.0312235
0.0101822
-0.049388
-0.0846456
-0.0468889
-0.0969119
0.00953273
-0.0760822
-0.0260672
0.0605063
-0.0942685
0.0617882
0.0540303
0.0446623
-0.0840105
0.0030859
0.054041
0.0510217
-0.0209553
0.0360863
-0.0855644
0.00507063
0.0288819
-0.0884809
-0.0772055
0.0954556
0.0335948
-0.0446023
-0.0513089
0.00434061
-0.0440454
-0.090496
-0.0785809
-0.0719185
0.0695516
0.0910119
0.0720199
-0.0146016
-0.0470522
-0.0876693
0.0918889
-0.0387192
0.0992111
0.0730211
0.0846947
0.0583109
-0.100061
-0.0551472
-0.0934158
-0.0306028
0.0930145
0.0958065
-0.0754031
0.0506132
-0.0556622
0.0367084
-0.0377186
-0.0867454
-0.00381303
-0.0689551
-0.0507116
0.0355037
-0.0256103
-0.0391024
-0.0349916
-0.0932784
-0.0157602
0.0930209
0.0906352
0.0840646
-0.0189204
0.00669455
0.0779865
-0.0102934
0.0738616
-0.0387315
-0.00358846
-0.0831151
0.0776718
-0.0700045
-0.0142197
0.0707575
0.0294215
0.0422326
-0.0258729
0.0366951
0.00854095
0.0762326
0.0225892
0.0844588
-0.00124605
-0.0171522
0.0106651
0.0636614
-0.0562538
0.0710559
-0.00491504
-0.0834432
-0.0831856
-0.050657
-0.025685
0.0466254
0.109313
0.101912
0.117527
-0.0604502
0.000675063
-0.0244559
-0.064864
0.0139948
0.01736
-0.0654452
0.0586511
0.0694244
0.021152
-0.0735783
0.0210827
-0.0214759
0.0750996
-0.0511044
-0.0574851
-0.00272191
0.0603526
0.010791
0.0988958
-0.0473985
0.112663
-0.0077758
0.152203
-0.00265899
0.0380766
0.0640302
0.126591
0.0341983
0.0101793
-0.00987563
0.0709002
-0.0682264
0.0655933
-0.0963307
-0.0720037
0.080503
-0.0763443
0.0787198
0.0571085
-0.0922007
0.050217
-0.0950671
-0.0764771
-0.0694601
0.0107461
0.0596302
0.0695734
-0.0129373
0.00518443
0.0467037
0.12875
0.00203862
0.135577
0.0237772
0.00714851
0.113654
-0.0718893
0.0255219
0.00877762
-0.0200604
-0.100933
-0.0810262
0.0195618
-0.0667875
-0.0674553
0.0670699
0.0553985
0.0680161
0.0354702
-0.0626012
0.0990104
0.116113
0.0579255
0.101304
0.0434988
0.128371
-0.0479753
-0.0240019
-0.0141455
0.0225793
0.115998
-0.0042878
0.0183816
0.0476688
-0.0871996
0.0766416
-0.0192676
-0.0674449
0.0406009
-0.0861505
-0.00979952
-0.0615356
-0.070554
0.0965245
-0.00681906
-0.0934573
0.050682
-0.031264
-0.0214849
0.0714821
0.131245
0.084586
0.0204783
0.0740945
0.091485
0.107106
0.0066152
0.0296345
0.066774
0.0520552
0.0306681
0.0922629
0.0920073
-0.0589426
0.0564525
0.0762224
-0.0486086
-0.0995151
-0.103365
-0.0111146
0.00572274
-0.00673163
-0.0443626
-0.0493794
0.0918042
0.0821581
-0.0065484
0.0161873
0.0327789
-0.0419513
0.11981
-0.0568222
0.0765076
0.0526943
-0.0506886
-0.0021083
-0.0412898
-0.0219714
0.0862966
-0.02879
-0.0315966
0.0200598
0.067562
0.036093
-0.0402961
-0.0605876
-0.0116631
-0.0303195
0.0435691
-0.0206346
-0.0898862
-0.0173102
-0.0636621
-0.0619884
0.0321262
0.110207
0.078332
0.0255828
-0.0791412
0.0391077
-0.0341421
-0.0778898
-0.034115
-0.104523
0.0390051
0.0811966
0.0925215
0.106722
0.0435886
-0.0224683
-0.0426311
0.052655
0.0326172
-0.0733139
-0.0987251
-0.0631153
0.0237024
-0.0139688
-0.0982823
0.0276172
-0.0803922
-0.0883925
0.074178
0.0602921
0.031988
0.0463364
0.0408017
-0.108959
-0.0300694
-0.0796839
-0.139211
-0.124292
0.0506312
-0.0371375
0.113286
0.113298
0.104037
0.0362155
0.0978683
-0.0913045
0.0737125
-0.105669
-0.0915008
-0.103124
0.0770752
0.0646322
0.00883861
-0.00126782
0.029157
0.0280682
-0.0596304
0.011925
-0.00276787
0.0210522
-0.172812
-0.144695
-0.0963433
-0.0165233
-0.17434
-0.072725
-0.049913
0.0118687
0.102812
0.103186
0.054787
-0.0472496
0.0683779
-0.0173476
-0.0364742
-0.0160621
0.0669803
0.0484862
0.0582087
-0.0718834
0.0707592
-0.0590786
-0.00854783
-0.077011
-0.0248517
-0.0274814
-0.0916984
-0.0602067
-0.178678
-0.0464583
-0.142729
-0.140375
-0.0851733
-0.109758
0.0319236
0.144296
0.167544
0.0468203
0.0778497
-0.0942613
0.0046469
0.0686622
0.045322
-0.0183741
-0.0212599
-0.0684687
-0.0336159
0.0682732
0.0698069
-0.0203395
-0.0972169
-0.0912907
-0.0398839
0.057044
-0.170101
-0.0327319
-0.174048
-0.0815349
-0.145429
-0.0700749
-0.0739065
-0.0323857
-0.00442937
0.0356825
0.183467
0.125931
-0.0411355
-0.0783164
-0.0446613
-0.0422888
-0.0765916
-0.0121651
-0.0956703
-0.0367044
-0.0900525
0.0195333
0.0576833
0.0698412
-0.0249135
-0.0662757
-0.0272829
0.00367601
-0.0286606
-0.184822
-0.05628
-0.123666
-0.14065
-0.0110403
-0.0705274
0.019397
0.105742
0.153916
0.106503
0.111845
-0.0162769
0.00063706
-0.0723291
-0.0393521
0.00753446
-0.0821565
0.0260836
0.0216375
-0.0547968
0.065363
-0.0601668
-0.0114819
-0.00746834
0.0943605
-0.0830183
-0.0247989
0.0566045
-0.118693
0.0264351
-0.00584508
-0.0305279
0.0236711
0.0208872
0.0386656
0.0658269
0.141421
0.0679837
-0.0561273
0.0343698
-0.0410266
0.0913307
-0.00283108
-0.0661355
0.0363068
-0.0805768
-0.0828567
-0.0851745
0.0341151
-0.0598628
0.0389063
0.0559702
0.100305
-0.0823358
-0.0275224
-0.104163
-0.105373
-0.0967459
-0.0318634
-0.041125
0.0189438
0.0908496
0.111519
0.15964
0.167078
-0.0389716
0.0893682
-0.0291685
0.0330084
0.0705991
-0.00403935
0.033337
0.0602164
0.0483982
-0.0268805
-0.084374
0.0239337
-0.062357
0.0407281
-0.0361391
-0.0591384
0.0755556
-0.0493986
0.00081824
-0.0481828
-0.0669399
-0.00598333
-0.0297572
0.0205889
0.0411834
0.0133118
0.146669
0.115852
0.0300992
-0.0212158
-0.000152409
-0.0590221
0.0147908
0.0451382
0.0200292
-0.0245001
0.0830271
-0.0208535
0.0648424
-0.0742269
0.0837848
0.0880502
0.0545255
-0.0965907
0.0280757
0.0450775
0.046899
-0.0846112
-0.00844345
0.0640764
-0.0128031
-0.0282356
0.0284529
-0.0290847
0.127928
-0.0798629
-0.08644
-0.00669284
0.00351027
0.0425699
-0.00700436
-0.0511241
0.0551081
0.0123629
0.0415436
0.0727151
0.00580595
0.0862586
-0.0548598
0.0331885
0.0629598
0.0472727
0.0203265
-0.0542408
0.0349275
-0.0668722
0.0591523
-0.0406499
0.0217384
0.0861832
-0.0793594
0.0694438
-0.0237518
0.0196797
0.0306031
-0.0240593
0.0102338
-0.0798067
0.0793863
0.10699
-0.0524273
-0.0961031
-0.0167992
0.0996815
0.0978816
-0.0187632
-0.0699209
-0.0428619
0.028951
-0.0930043
0.0742445
0.0118823
0.119047
0.0359821
-0.010591
-0.0531027
-0.0522365
-0.0200994
-0.00789841
0.0113174
-0.0515458
0.0181087
-0.107048
-0.0500889
0.0878439
-0.0843084
-0.0276701
0.0098245
0.0235803
0.0712656
-0.0725324
0.077198
-0.031311
-0.0267447
-0.0784709
0.0248155
-0.0914965
0.0897572
-0.00530853
0.00367307
0.122408
-0.00280683
0.0138758
0.0366504
0.0294029
-0.00612748
-0.0497977
0.01878
-0.0460467
-0.0769853
0.0252734
-0.0737396
-0.0500315
-0.0108126
0.0613796
-0.0520384
0.050291
-0.0813635
0.0603313
-0.0696552
0.087442
0.000184663
-0.0319257
-0.0253018
0.000316269
0.0172044
0.0167127
-0.0317319
-0.0022198
-0.0465444
-0.00285969
0.0943289
0.070854
0.0307401
-0.0241246
0.0228954
-0.0549967
-0.0684373
-0.00783523
0.107684
0.0781655
-0.0781139
-0.00635195
0.0344517
-0.0100084
-0.074332
-0.0496894
-0.0265942
0.0451455
0.0199877
0.0849773
-0.0760784
0.0591465
0.0303277
0.0234624
-0.0226325
0.033142
0.109183
-0.0222346
0.0577905
-0.0366549
0.0907726
-0.0240148
0.0137221
-0.0839631
-0.0574484
0.0847315
-0.09121
0.0979931
0.0602464
-0.0689711
0.0733742
0.0569507
-0.0854087
-0.0622988
0.0862145
-0.0366857
-0.0718872
0.0763915
0.0409938
0.082377
-0.0809379
0.0311457
-0.0429054
-0.0375641
0.0633333
0.0167327
0.0831739
0.0364329
0.0209667
0.0196352
-0.0122434
-0.0132567
0.0377627
0.0735212
0.0217839
0.0859213
0.0265449
0.061714
0.0761651
-0.107847
0.0367538
-0.0151353
0.0933664
0.023028
-0.00337506
-0.0622909
0.0526913
0.0161063
-0.0390623
-0.0378937
-0.0499374
0.100971
-0.0585032
-0.0304157
0.101765
0.0010473
0.10817
-0.0191154
-0.0292719
0.00697681
0.0906383
0.078895
-0.0648321
0.0217905
0.0107028
0.0739109
-0.0571196
-0.0732751
0.00329555
0.075338
-0.0704835
0.045836
0.0636098
-0.00125988
0.0916645
0.0429769
-0.0830823
-0.0808374
-0.00444816
0.0223411
-0.0436829
-0.0874457
0.0295929
-0.094036
0.0887864
-0.0214246
0.0795876
-0.0886275
-0.0164213
-0.0872327
0.083718
-0.0556458
0.0630195
0.0216639
0.0418182
-0.022825
0.0906727
0.0266099
-0.00599751
0.0946631
-0.0281604
0.0543525
0.0404874
0.0283716
-0.0366982
-0.0312544
0.0224822
-0.0381438
0.0680971
-0.0775807
0.0746805
-0.0337832
-0.0164291
-0.0733401
0.0744612
-0.0622264
-0.0874898
0.0745336
-0.0363574
0.0395736
0.0545669
-0.0897145
-0.0749332
-0.0715046
-0.0633942
-0.0562192
0.0180065
0.0919838
0.0373305
-0.0788858
-0.053036
-0.0835983
0.0220532
-0.0467379
-0.0684644
-0.0175629
-0.0561934
-0.0320182
-0.0506036
-0.0167199
0.0800516
-0.0444355
-0.0295475
-0.00859813
0.0244955
-0.00488198
0.0528232
0.0382036
-0.0254296
0.041974
-0.0828978
0.095847
0.0241201
0.0754997
-0.0715308
-0.086004
0.0368904
0.0126081
-0.0808199
-0.0770928
0.0606238
0.0851751
0.00703259
0.0327763
0.054387
-0.0862922
0.0801585
0.0526995
-0.0266334
0.00364152
0.0597209
0.071913
-0.0210361
0.068825
-0.0627055
0.0415013
0.0170285
-0.0788167
0.00114475
0.0229409
-0.0433492
-0.0627405
-0.00333693
-0.018525
0.0915883
-0.0812043
0.0279503
0.00552711
0.0248339
-0.00291298
-0.00297024
0.0810791
0.0509191
0.038165
0.019867
-0.0629371
0.0964386
0.00222334
0.019711
0.0518978
0.0779182
0.0643375
-0.0279889
0.0750598
0.0317224
0.047753
0.0155078
-0.00809407
0.0292848
0.0505311
-0.0699563
-0.0240412
-0.0879182
-0.0454402
-0.0771415
0.0313705
0.00574427
0.0956368
0.0347847
-0.0156562
0.0149527
-0.0320283
0.000614248
-0.0268946
-0.0196591
-0.0337981
0.0852768
0.0209169
0.100144
0.0152357
0.08918
-0.0294116
-0.00259929
0.00256017
-0.0422424
0.0845077
-0.0166593
0.0111375
-0.0830855
0.0371416
-0.0359077
0.0939011
-0.0960486
-0.0810174
-0.0408268
-0.0140179
-0.0436419
-0.0457145
0.0683528
-0.00164385
0.0956173
0.0758236
-0.0184757
-0.00727395
0.0941349
-0.0577419
-0.0673474
-0.0543517
0.0588438
-0.0208611
0.00419014
-0.0271173
-0.0489551
-0.0922096
0.0837834
-0.0391305
0.0822994
-0.0100472
0.0950022
-0.050321
0.0121254
0.0270247
-0.0920205
0.021788
0.0899623
0.0320347
-0.0674038
-0.0536072
0.026933
-0.0190261
0.000955854
-0.0475312
-0.0415933
0.0821181
-0.0126083
0.0626949
-0.0332623
0.0151978
-0.0440207
0.0263635
-0.0731516
0.0524687
-0.00998636
-0.0867711
0.0228537
-0.0934197
0.0620312
0.026736
0.0950187
-0.0861586
-0.0268453
-0.0857897
-0.0620021
0.0640796
0.0396099
0.023201
-0.0539338
-0.0104582
-0.0438809
-0.066894
-0.059294
-0.0279099
-0.0761671
-0.00253023
-0.0813512
0.0375056
-0.0362936
-0.0201085
-0.102167
-0.0855096
0.061771
-0.0783493
0.0641787
-0.0266115
0.022824
0.0147942
-0.0736095
0.00435552
0.0267386
-0.0953956
-0.0946919
-0.0177171
0.0160229
0.0940706
0.028939
0.0223707
-0.058194
-0.0030541
0.00339723
0.0564384
0.00722882
0.0773653
0.0708263
-0.000402074
-0.078881
0.0863737
0.0962309
0.00151847
0.0852511
0.0990975
0.0992704
-0.000684876
0.0427089
0.0282978
-0.00813247
-0.0196207
0.036719
-0.0728895
0.0722724
0.0250416
-0.00552828
-0.0295061
0.0469726
-0.00318526
-0.0842904
-0.0798495
0.0431412
-0.0642468
-0.068021
-0.0877986
0.0412505
-0.0417312
0.0797799
0.086203
0.127748
-0.0535327
0.100854
-0.0238137
0.00970651
0.0190231
-0.00128778
-0.0606849
-0.0962365
-0.019738
-0.0500611
-0.0125355
-0.0497204
-0.0370588
0.0223401
0.02707
0.0114478
0.00199426
-0.0769383
0.0530569
-0.0689739
-0.0706791
0.0862641
0.0379279
0.102228
-0.0389685
0.0651886
0.127803
0.138015
0.0681881
0.0864355
0.0921036
0.0630893
-0.00300093
-0.0655177
-0.0596554
-0.0636098
0.0138508
-0.0380228
0.0853674
0.0433474
0.0467764
0.0309694
0.0324363
-0.0298787
-0.0171796
0.0859343
-0.0453419
0.0175561
0.0608265
0.140758
0.0821369
0.0772371
0.130934
-0.027272
0.101413
0.111415
-0.0122135
0.0966501
0.101384
0.0560012
-0.0583639
0.0620495
0.0436447
0.026945
0.0394492
-0.0466521
0.0619778
0.109057
0.0715188
0.0114343
-0.0628956
-0.0707351
0.0582269
-0.0958928
-0.0755904
0.101848
0.131815
0.00441462
0.125794
0.105136
-0.000101192
0.0651577
0.00331939
-0.0528876
-0.00940008
0.092656
-0.0594508
-0.0790715
0.0577991
0.0886596
-0.000419252
0.0706321
-0.00619882
0.0787381
0.0198295
0.104744
-0.055055
0.00515596
0.00428638
0.0146541
0.021244
0.080187
-0.0144246
0.0555372
-0.0520148
0.101027
-0.0766231
0.0129421
-0.0348567
0.093885
-0.0608933
0.0134241
-0.080646
-0.0381307
0.00764819
0.0184079
-0.049481
0.0890322
-0.0628849
-0.0468445
-0.0922365
0.032004
0.0639103
0.0554987
-0.0545498
-0.0868221
0.100563
0.0324967
-0.0811205
-0.0203316
-0.000646956
0.00501353
-0.0576606
-0.00160919
-0.0902329
0.0601141
-0.0717606
0.00402029
-0.0585408
0.0702889
-0.0878658
0.0680457
-0.0637158
0.011753
-0.0636926
-0.0839991
-0.0228745
0.0325431
-0.031867
0.0709396
-0.0274873
-0.0543358
0.091949
0.0845142
-0.0633241
-0.0904504
0.0313216
-0.0601317
-0.0436384
-0.122537
0.0222844
-0.0534343
-0.116227
-0.127494
0.0478627
-0.0940748
-0.0554687
0.0439411
-0.0285971
0.0635867
0.0290228
0.0699587
-0.0571974
0.0863367
0.0203543
-0.0940342
-0.0756146
0.058828
-0.055712
0.084211
0.0718665
-0.0324247
0.0700055
-0.00297153
-0.0718851
0.000490225
0.0113749
-0.012818
-0.11509
0.0119105
0.0522228
0.00924585
-0.0403991
-0.0782841
-0.0681286
-0.0892416
0.0878585
-0.0173701
0.0713671
-0.0327603
0.0106954
0.0894355
0.0778336
0.0633816
-0.0845717
-0.0150237
-0.0970278
0.0478616
-0.0202103
-0.0346512
0.0129971
0.0126473
-0.114381
-0.113663
-0.13314
-0.055551
-0.0154468
0.0464803
-0.0546065
-0.0213802
-0.0243705
0.0845491
-0.00598439
0.09098
-0.0784204
-0.0891796
0.0936159
0.000988704
0.0879061
-0.076934
0.0610561
0.0534941
0.0991415
0.049503
0.0352197
-0.00131052
-0.0193565
-0.0438372
0.0960365
0.0805681
-0.0840656
-0.115474
-0.0361661
-0.116177
-0.0937048
-0.0217987
0.0371249
0.0966885
0.0841292
0.0303322
0.0678251
-0.0361439
-0.0011789
-0.0394075
0.0631832
0.0945992
-0.0152219
-0.0994897
0.0843134
-0.0917308
-0.0460105
0.0234623
0.0668164
-0.0763352
0.0371297
0.0887409
0.0124779
-0.0919148
-0.00918438
0.0672261
-0.00204887
-0.0697225
0.032845
-0.0476054
0.0509288
-0.0889365
-0.0664321
0.00665625
0.0842704
-0.0500788
0.00164285
-0.0952607
-0.0284817
0.0144206
-5.11318e-05
0.0900928
-0.0148314
-0.0432017
0.045516
-0.0535647
0.0973553
0.0294722
0.0318162
0.0134604
0.00754352
0.0133564
-0.0282405
-0.0450053
0.0826711
-0.0749473
0.0799373
-0.0568615
0.0654957
-0.0878617
-0.0793108
0.0179323
-0.0287458
0.0687737
-0.0143585
0.0749346
-0.083577
0.001804
0.0245148
0.0887421
-0.0484155
-0.0442155
0.0380908
0.0749809
0.0229339
0.0280042
-0.0111291
0.0352785
0.0307264
0.0744216
0.128817
0.103382
0.11058
-0.00770634
0.094541
-0.0267679
0.0316498
0.0552576
-0.0366214
-0.0344559
-0.0793404
-0.088456
-0.0864394
0.00169174
-0.0165805
-0.0664107
-0.0456222
-0.0757517
0.0437461
0.0741875
-0.0468184
-0.0111596
0.0628088
0.016439
-0.000307687
-0.010482
0.000266389
-0.0714266
0.107501
-0.0443789
0.00682944
-0.0344774
0.0150715
-0.0225905
0.0615392
-0.0743422
-0.0296777
0.0678527
-0.116154
0.0508773
0.0508289
-0.0327252
-0.0748652
-0.0279127
-0.0376793
-0.0308818
0.054118
0.00655501
-0.0959995
0.0302402
0.0481133
-0.0461424
0.0015685
0.0238844
0.0585696
-0.0262898
-0.0147047
-0.0355797
-0.0135438
-0.0182088
0.0759446
0.0831215
0.00935247
-0.0192017
-0.0432591
-0.0983686
-0.0837963
-0.108026
0.0476169
0.0430305
0.0728319
0.0182757
0.0813673
-0.0691216
0.0982799
-0.00329138
-0.0593316
0.049954
0.058704
0.00644941
0.0608101
0.0974816
-0.0680094
0.0921227
0.0370848
0.0635588
0.0862194
-0.103039
-0.0485745
-0.0036423
0.0177315
-0.0743202
0.0247578
-0.0468108
0.0479594
0.0345852
-0.100126
0.00832469
0.0503291
0.0966235
-0.0634025
-0.0319558
-0.0824862
-0.0634933
0.0584019
-0.039971
0.10063
-0.051497
0.087913
-0.0769682
-0.028613
-0.031388
-0.0140345
-0.00464675
0.0352897
-0.0512498
-0.0315533
-0.0385281
0.00617722
-0.0785912
0.0125066
0.0921109
0.0507737
0.0599226
-0.00922563
0.0349558
-0.0590386
0.00399986
0.0222263
-0.0409996
-0.0523703
0.0197405
0.0104784
-0.0118156
-0.0925323
0.0657347
-0.0662578
0.0274003
0.0152064
0.0200373
-0.0830516
-0.0324493
-0.0768628
0.0491021
0.0151815
0.079053
0.000718174
0.0825406
-0.0488776
-0.0441017
-0.00552474
-0.0432361
-0.0307429
-0.0355685
0.0362412
-0.0694327
0.0937056
-0.0125855
-0.0545282
-0.0966662
-0.016344
0.028348
0.0023302
0.0861713
-0.090625
0.0885834
0.0300048
0.00856296
-0.0117555
-0.0592331
-0.0682321
0.0559579
-0.0574154
-0.0483646
0.0129928
-0.0387853
-0.0417771
-0.0330703
-0.0457439
0.0486011
0.0348551
-0.0625407
-0.0918845
0.0926277
-0.0900305
0.0545143
0.0573744
0.045424
0.048182
-0.0312567
0.0807562
-0.0373709
0.06264
0.0692256
0.0159559
-0.0223822
0.0585222
-0.00220814
-0.0695518
0.078729
-0.0219959
0.0253726
0.0547716
0.0130746
0.083468
0.0749855
-0.0409784
-0.0971008
0.0900963
0.037161
-0.0558172
-0.0385633
-0.093709
-0.0457849
-0.0768473
0.0075372
-0.0951146
-0.050227
0.0715732
0.0901674
0.0643641
-0.0179319
-0.00940348
-0.0829571
-0.0780197
0.00686313
0.0479204
-0.0352454
-0.0638518
-0.0291761
-0.0138602
0.00307547
0.0607683
0.0303307
0.0203669
-0.0795479
-0.047741
0.0426015
-0.0743895
-0.0543149
0.070485
0.059052
0.00243262
-0.00207035
-0.0114968
-0.0970135
-0.0651475
0.0751455
-0.0728888
-0.0263231
-0.0637181
0.00901707
0.0129419
-0.048222
-0.0592235
0.0848565
0.0212022
0.0549791
0.0240065
-0.0895244
0.0398928
0.0785095
0.0807005
-0.033201
-0.0615938
0.0541276
-0.0870555
-0.0276104
0.0988754
0.0241311
-0.0263206
-0.0203719
0.0993548
-0.0324406
-0.0904456
-0.0556639
-0.0350466
0.0323871
-0.0996818
-0.0206336
-0.0726206
0.0825038
0.0969508
-0.0832471
0.0842616
-0.0189811
-0.0175113
-0.0267035
0.0426662
0.0597835
-0.0848046
-0.0279934
-0.0447192
0.0203145
-0.0916079
0.0281837
-0.00692055
0.00883184
0.0751353
-0.0659678
-0.0111586
0.0174502
0.0157631
0.0465409
0.0450374
0.0582034
0.0627215
-0.0776035
-0.0342525
0.0472606
-0.0397529
0.0371203
-0.00993003
0.0629989
-0.099407
0.0439527
-0.0316913
-0.0757842
-0.0542535
-0.0294076
-0.0675416
0.0168027
0.000125631
-0.0852441
0.0109596
0.0513856
0.0407265
-0.0350862
0.0821675
0.0973086
0.0375826
-0.0481112
0.00263348
0.0644214
-0.0157795
-0.0910886
-0.063946
0.0560665
0.0255611
-0.071883
-0.0391644
-0.0995883
0.0404474
-0.0903108
0.0309533
0.0260511
-0.0827743
0.0853972
-0.0709173
-0.029351
0.0267228
0.0554386
-0.0133623
-0.0747709
0.0881397
-0.0866585
-0.0960369
-0.0602249
-0.0713546
-0.0348588
0.0197769
0.00683569
-0.0543353
-0.118066
-0.0276853
0.0692379
0.0551558
-0.0548272
0.0719728
0.0851233
0.000319175
0.0197114
-0.0338004
-0.0833849
-0.061066
-0.0451831
0.0243273
0.00587147
0.110793
0.0154903
0.094106
-0.0187925
-0.037198
0.0260525
-0.0867194
-0.0677644
0.0256816
0.0621337
0.00779069
-0.0758033
-0.0662645
-0.0763634
-0.0212822
-0.0267813
-0.0298981
0.056782
-0.0158537
0.0490855
0.104474
-0.000488198
-0.0223024
-0.051019
0.0506826
0.016477
0.0327354
0.0122299
-0.0611182
0.103928
0.026259
-0.0917638
-0.0169125
-0.0637676
0.0256473
0.0220807
0.0588825
0.0907384
0.0050305
-0.0578899
0.052496
-0.0350816
-0.103449
-0.0187465
0.0236468
0.0538794
-0.0686841
0.0131784
0.0823385
0.0125495
0.0310428
0.0291011
-0.00274844
-0.0526059
0.0870302
0.00166581
0.0990762
-0.0148018
-0.0591882
0.0722824
-0.0147379
-0.0975999
0.0648015
0.0976654
-0.00272009
-0.0342937
-0.0621801
-0.0666968
-0.116853
-0.115074
0.00489031
-0.00353561
0.0778876
-0.039176
0.049538
0.122027
0.0367031
-0.0389888
0.0585311
-0.0212691
0.0707827
0.0161262
0.0290085
0.105025
-0.0173124
0.100306
-0.0596566
-0.094209
-0.0319768
-0.0300851
0.0151621
-0.0605133
-0.0500078
0.0585714
0.0509099
0.0607098
-0.111031
0.0118492
-0.0290329
-0.120424
-0.0397987
-0.0786155
0.100522
0.0864811
-0.029187
0.113741
-0.0708744
0.109213
-0.0240749
-0.00199103
0.0840252
0.0026834
-0.0186613
0.0564979
-0.000496097
-0.0279395
-0.0178115
0.0876197
-0.0191398
-0.0457347
-0.0520152
0.0129109
0.0421877
0.0185491
-0.0757577
-0.0789489
-0.116871
-0.0158887
-0.0276808
0.0895029
-0.0130804
0.119927
0.0564881
-0.0233265
-0.0794906
-0.0908812
-0.0151457
0.0704693
-0.0919182
-0.0580723
-0.0301161
-0.00903301
-0.0817031
-0.0405559
0.0256335
0.078233
-0.0651937
0.0692417
-0.00351547
-0.0555507
0.0283944
0.020312
-0.0557818
-0.0536072
-0.0950683
-0.12026
0.0401736
0.0614588
0.0850324
-0.00247846
0.131711
-0.0838468
-0.0366735
-0.0669359
-0.0469908
-0.0923249
0.00550646
-0.00697172
0.0448002
0.0166405
-0.0688568
0.0229077
-0.0656367
-0.0128302
0.0989109
-0.0685685
0.0811603
-0.064245
-0.0147007
0.0650546
0.0443414
0.0706397
-0.0459979
-0.124368
-0.00603552
-0.0756749
-0.0576719
0.115706
0.0891351
-0.0902111
-0.0484743
-0.0510888
0.0322135
0.031654
-0.0430924
-0.0136642
-0.104478
0.0250926
0.0298522
0.0355673
0.08789
0.0412185
-0.00970615
-0.0593981
-0.0819165
-0.0935832
-0.0526448
0.0397957
-0.0781137
-0.0953637
0.0602871
-0.0521994
-0.080969
-0.0329395
-0.0622932
0.161765
0.0763743
0.0541572
0.0307325
-0.00608906
0.0467631
-0.00175946
-0.0182453
-0.0245303
0.068606
-0.0828697
0.0841025
0.0932497
0.0132152
0.0594631
-0.0523191
0.0265577
-0.0595709
-0.00462969
-0.0753212
-0.0906226
0.0323133
-0.102343
-0.0752802
-0.105229
-0.0550704
0.079285
0.0499515
0.0533013
-0.0218268
-0.00347793
-0.131498
-0.0510116
-0.0234586
-0.0924349
-0.0981806
0.0672724
-0.0522258
-0.0348197
-0.0502963
0.0301409
-0.0404928
-0.0388658
-0.00712427
-0.0996177
0.0794791
0.0520745
-0.0181552
-0.0192984
-0.031633
-0.0780247
0.0291603
-0.0574842
-0.00969636
-0.0204085
0.122434
0.107893
0.0604444
-0.074998
-0.00642972
0.0014604
-0.0813115
0.011539
-0.0693798
0.0421995
0.0556861
0.0137106
0.0856935
-0.0591037
-0.0732214
-0.0099691
-0.00436351
-0.0295301
-0.0763494
-0.0996041
0.0376572
-0.0380658
-0.106501
-0.0613754
-0.0948443
0.047675
0.038542
0.00305529
0.0315078
0.0836778
0.0867676
-0.131493
-0.0306585
-0.0487918
-0.0638622
-0.0388997
0.0164458
0.0356389
-0.0179807
-0.0692943
0.0541861
0.0338678
0.00819265
-0.0913088
-0.041562
0.0977278
-0.0602496
-0.0417109
0.0390385
0.0405566
-0.0757343
0.0618958
0.131206
-0.0014556
0.0286246
0.100429
0.15041
0.123784
-0.00728354
-0.117461
-0.113333
-0.116817
-0.104147
0.0720019
-0.0436898
0.0248267
-0.0786308
-0.0574868
0.0136193
0.0481657
0.0136772
-0.0906697
-0.00736728
-0.0237755
0.0811859
0.0783758
-0.0698465
0.00842836
-0.0165914
0.0372516
0.0308579
0.0545221
0.0463836
0.122269
0.173443
-0.00782183
0.0408447
0.0363722
-0.00324314
0.0296182
-0.042421
-0.0167428
-0.0941338
-0.085443
-0.0205142
0.0662981
0.0387587
0.0805678
0.047753
-0.0857771
-0.0331806
-0.0711618
0.0573283
0.0506744
-0.0663871
0.0428742
-0.0145619
-0.020286
0.00352844
-0.0404892
0.14396
-0.0213148
0.107137
0.100599
0.0397501
-0.0920218
-0.0840476
-0.0362105
-0.089868
0.0147506
-0.0280275
-0.00455067
-0.0529691
0.0353745
0.0142431
-0.0870492
-0.0394606
-0.0799178
0.0458177
-0.0138036
0.00197286
0.0382831
0.014323
-0.00314333
0.054373
0.0794532
0.025311
0.032719
-0.000859879
0.027004
-0.0262527
0.0514964
-0.00846757
0.0572822
0.073981
-0.0981867
-0.0408699
-0.0396173
-0.0625446
0.0396882
0.0640076
-0.0504634
-0.0171287
0.0986703
0.0936611
-0.0944848
-0.0853711
-0.0141507
0.0156011
0.0286015
-0.0738799
-0.0720955
0.0758575
0.0671661
0.0832298
-0.0357881
0.092218
0.0472882
0.0833611
0.0112941
0.0211426
0.0650086
0.0665207
-0.0602703
-0.0887531
0.0530181
0.0343181
0.0781593
0.0687123
0.0330957
0.0980443
-0.0246611
-0.0554606
0.0961236
0.061814
0.0486349
0.0579158
-0.0774103
-0.00579457
-0.00540255
-0.00155771
0.113675
-0.0844105
0.0305244
0.0237009
-0.0823798
-0.0814118
-0.083983
-0.0100876
0.0709513
0.0866725
0.0328973
-0.0981033
-0.0249486
0.0278072
0.0489893
0.0250618
0.0246051
0.00952781
-0.0154392
-0.017676
0.0177013
0.0643452
0.0649603
-0.0404715
-0.0489962
-0.00516002
0.0657758
0.0138014
-0.0118436
0.0546521
-0.0657799
0.012342
-0.00915738
-0.123433
0.00964198
-0.0466949
0.00509329
0.099695
0.0216143
-0.00605861
0.0732763
-0.100929
-0.0915079
-0.0436395
0.0631853
-0.088033
-0.0983668
-0.00214435
0.0568921
-0.0575477
-0.0308982
-0.083953
0.0781043
0.042432
0.0731089
0.049018
0.06899
-0.0616808
-0.0886791
-0.0189454
-0.106318
-0.112568
-0.0569268
-0.00978048
-0.121788
0.076257
-0.0767985
0.0309676
-0.0764083
-0.0489651
-0.052487
0.0394877
0.0477654
0.0795983
-0.0467512
0.0173821
0.0693666
0.01978
0.0985211
0.0353722
0.0698863
-0.0281344
-0.0773847
0.061152
0.0641607
-0.0444897
-0.045514
-0.0434558
0.049283
0.0536345
-0.0102393
0.0168008
-0.00796802
-0.0917676
0.00741186
0.0747315
0.0582257
0.060214
0.00209422
-0.0510867
0.0938097
-0.0822607
0.0574133
0.0925388
0.00716812
0.0823437
-0.0758105
-0.0548076
0.00524745
0.050209
-0.0495047
-0.0318203
-0.0907434
0.051911
0.0242791
-0.011218
0.0381763
-0.0518857
-0.0277598
-0.0719693
0.0664598
-0.0479295
-0.0173939
-0.0910777
0.0691527
-0.0919781
-0.0767356
0.0803875
-0.00608832
0.000430285
-0.0999687
0.0230203
-0.0650619
-0.000285957
-0.00478724
-0.0133677
-0.0181619
-0.0669121
0.0242247
0.0930387
-0.0103336
0.00433655
0.0850969
0.0245896
0.0165233
0.00772332
0.00722084
-0.0365223
0.0176696
-0.0580468
-0.0564238
-0.0645386
-0.0550971
0.072058
-0.0876086
0.0459223
-0.00676639
0.0166276
0.0791263
-0.0179742
-0.056208
-0.0459248
0.00589238
-0.0173118
-0.0987768
-0.0846557
-0.037972
-0.0095024
0.0136453
-0.0975362
-0.0747145
0.0948642
-0.0899919
-0.0393313
-0.0730367
0.0731532
-0.074074
0.0306285
-0.0816524
0.0825004
-0.0612722
0.0740306
0.0630137
-0.0457546
-0.0805275
-0.0810591
0.0580829
0.00736651
0.0459471
0.00118304
-0.0717566
0.0236507
0.0728768
0.011036
-0.0444937
-0.0711871
0.0958547
0.0406106
0.0514845
0.0499372
-0.0098442
0.00103173
-0.0358096
-0.0821845
-0.0712078
0.0966689
0.0653727
-0.0724654
0.0285417
-0.0905755
0.0510175
0.0532755
-0.0408182
-0.073075
0.0639108
0.0794661
0.070411
-0.0891518
0.0410615
-0.0642349
0.0359752
-0.0155183
-0.0157402
0.0453892
-0.0269967
-0.0271769
0.0453546
-0.0914177
-0.0561395
0.0293366
0.0248717
-0.0111436
-0.031597
0.076159
-0.0322778
-0.0756816
-0.0904249
-0.061555
0.0972095
0.0108974
0.099661
-0.0555432
0.0420746
0.0122597
-0.0324027
-0.066305
0.00952192
0.0141244
-0.0957348
-0.0606906
0.0978837
-0.0466556
0.0195624
-0.0850713
0.0942403
-0.0484185
0.0168715
0.0558483
-0.0196285
0.0202516
0.0839295
-0.0299319
0.0938028
-0.048525
-0.0719227
0.0349641
0.0157757
-0.00502974
-0.0305624
0.083949
-0.0956062
0.00559759
-0.0533258
0.0366353
-0.00567104
-0.0901751
-0.0950468
-0.0707737
-0.0544362
-0.00399473
-0.0429519
-0.0697106
0.0749996
0.0451235
-0.0125229
0.0704524
-0.043658
-0.00318785
0.038647
-0.106208
0.0447713
0.0314205
0.0247547
0.0610784
0.056208
-0.0351514
0.0468537
0.0680412
-0.0773334
0.025033
-0.0853014
-0.0949272
0.0180836
-0.0404769
0.0450947
-0.0307751
0.0637627
0.0570339
-0.0220204
-0.0641718
-0.0630425
-0.0871088
-0.112309
0.00655149
0.041669
-0.134777
0.0155683
0.00751554
-0.0900316
-0.0993985
0.0625637
-0.000318704
-0.0256202
-0.000686172
0.0490887
0.0777686
0.0410519
0.0871592
-0.0828265
0.0626434
0.0691417
0.0270845
-0.0200056
-0.0287976
0.0745123
0.00749777
0.0744283
-0.0801863
-0.0316524
-0.0126548
0.0687601
-0.00216487
0.0179805
-0.0816668
-0.0428994
-0.105629
-0.0754268
0.00330474
-0.0584425
0.0663569
0.0799523
0.0370574
0.0416606
-0.0596171
-0.0794209
0.086025
0.0462489
-0.0562659
-0.0263769
-0.0685432
-0.0200159
0.0338397
-0.0405333
0.0585214
0.0957496
0.056815
0.0888592
0.03146
0.0581527
0.0717336
-0.0120523
-0.0547951
-0.125896
-0.038999
-0.100974
0.0603692
0.0995262
0.0129154
-0.0368447
0.0145019
-0.0655914
0.0214613
0.0239857
0.0188789
0.00767478
-0.0158964
-0.072336
-0.0320885
0.0833071
0.0121021
0.065387
-0.0171425
0.0876894
0.131967
0.112725
0.0631848
0.110883
0.137568
-0.0325556
-0.0882234
-0.105114
0.0391162
0.00329653
0.0277838
0.0687678
-0.0645859
0.0848911
-0.0495673
-0.0686856
-0.0830266
0.0647058
0.0993729
-0.0897249
-0.0628678
0.000586775
0.0886617
0.0259414
-0.0211326
0.123929
0.123835
0.0342179
0.0930356
0.0616295
0.00821993
0.151022
-0.0270297
0.0647457
0.0458196
-0.0770884
0.0427584
-0.0152195
0.0573957
0.0453911
0.0466387
-0.0285271
0.0765112
-0.0943232
0.00903646
0.0451798
0.000467558
-0.0489607
0.0855378
-0.0158117
-0.0628705
-0.0494181
0.0885518
0.0064882
0.0548893
-0.0120459
0.00025159
0.0072051
0.0516085
0.0305755
0.0417974
0.113243
-0.0413126
-0.0380185
0.0389933
-0.0602437
0.142289
-0.0292238
0.0572972
-0.021308
0.0969938
0.0806596
-0.00698296
-0.0228122
-0.0566631
0.0283339
0.0245159
-0.00244676
-0.0881644
0.0136802
-0.0813283
-0.0704673
-0.041621
0.0559334
0.0912536
0.0146109
-0.0506975
-0.0544996
-0.0627684
0.0241256
-0.0463289
-0.0896192
-0.0204476
-0.0104628
-0.0219839
-0.0148264
-0.0511246
0.0927001
-0.0177164
0.0958767
0.0847768
-0.0995285
0.0445509
-0.0480182
-0.0251665
0.0871888
-0.0173794
0.0370648
-0.0776847
0.00880654
-0.0890108
-0.0142369
-0.116911
-0.00136977
0.0531028
0.0645316
0.0238719
0.0263378
-0.0332156
-0.0690717
0.0382889
-0.0438714
0.105226
0.0134431
0.00181047
0.0195924
-0.00412909
-0.034438
-0.0890951
0.0492477
0.0957382
-0.0136486
-0.0130676
-0.0764422
0.0296789
-0.0765738
0.0600388
0.0139365
-0.112872
-0.041947
0.0601591
0.0210162
-0.0284475
0.00319203
-0.0806082
-0.0539644
-0.0980721
0.0803
-0.00847551
0.11053
-0.0280608
0.016429
0.0127397
-0.00165394
0.0679992
-0.0370666
-0.0536667
-0.0496671
-0.000602193
0.0317651
0.0700916
0.0704985
-0.0734094
-0.0308834
-0.0768785
0.0681776
-0.0213871
-0.0388249
-0.048013
-0.130949
-0.0481542
0.000835628
-0.0374482
0.021188
0.0686108
0.0614919
0.0569985
0.0449307
0.113692
-0.0460605
-0.0197864
0.078763
0.00482915
-0.0324989
-0.0447974
-0.0729459
-0.0529874
0.0266913
-0.0791322
0.06513
0.0646236
-0.0521052
0.0361742
-0.0984724
0.0299983
-0.0609077
0.0152469
-0.0963521
-0.000370206
-0.00895336
-0.0334374
0.0432483
0.00574775
-0.00944026
0.00387123
0.10211
0.0125954
-0.0791178
-0.0486777
-0.00147014
0.072144
0.060854
-0.0200032
0.0622427
0.0675967
-0.060606
0.0651353
-0.0808415
-0.0387902
-0.0262217
0.0783038
-0.0713548
-0.0907635
-0.0538861
-0.118123
-0.0264269
-0.0942195
-0.0308529
-0.049341
0.0741056
-0.0668733
0.00150762
-0.0630272
-0.029457
-0.0706554
0.0204372
0.0138059
0.100665
0.0833144
-0.0359973
-0.0128906
-0.0508789
0.0461049
0.0706797
0.0750598
0.00544876
0.0387282
-0.0924579
-0.0799283
-0.0763917
-0.00197851
0.00854976
-0.0938166
-0.0201847
0.0290092
-0.0432806
0.00515657
-0.00137678
0.0687026
-0.0907816
0.00170755
0.0141802
0.0538319
-0.0389861
-0.0476357
0.076538
-0.0543724
0.00560393
-0.0337187
0.0143238
-0.0543366
-0.0282544
0.0290868
-0.0556321
0.0233225
-0.0988241
-0.0713387
0.0257763
-0.105603
-0.0755287
-0.0787038
-0.0561808
0.00746257
0.0255978
0.0819955
0.0536695
0.0487827
-0.0422932
-0.0551964
-0.0941979
-0.0694961
0.0624409
0.02753
-0.0265047
-0.0032424
-0.00235426
-0.0454979
-0.0159491
-0.0448313
0.0873881
0.0360143
0.061436
-0.0551098
0.0699814
-0.0599417
-0.0742695
-0.073073
-0.00903262
0.0288689
-0.051554
0.0413383
0.0456825
0.103642
0.0306328
-0.0907294
0.075879
-0.0700608
0.0225872
-0.00529744
-0.055615
0.0705592
0.037559
0.038591
0.00154379
-0.034123
0.0204544
0.068123
0.0550582
-0.0614728
0.0189835
-0.0190562
0.0978392
-0.0661053
0.0682087
-0.0487981
-0.0759418
-0.0726481
-0.0665547
0.0750046
-0.0164862
-0.00513885
0.0894027
0.00203528
-0.00439208
0.00406401
-0.0980141
0.042714
0.0874421
0.0826326
-0.0282264
0.0608888
-0.0889362
0.0488281
-0.0312588
0.00619074
0.0816696
0.0227852
0.0432386
0.0440424
0.0466372
0.000388048
-0.0299959
-0.0561755
-0.0553658
-0.0919931
0.00921542
-0.0389495
0.103288
0.068582
0.071897
0.0439367
-0.0406594
-0.0520197
-0.0344611
-0.0673985
0.0654336
-0.0363965
-0.088833
-0.0958766
0.0862044
0.0362392
0.0719541
-0.0218326
-0.0217693
-0.00614991
0.0132895
-0.0372333
0.0591804
0.0607946
-0.0280002
0.0777704
-0.0660619
-0.0480058
0.0779945
0.0308543
-0.0466031
-0.0529218
-0.0296772
0.107271
-0.0476147
-0.0501472
0.0343242
-0.0850089
-0.068932
-0.0297187
0.061482
0.0326345
-0.00663175
-0.0883881
0.0247215
0.0342368
0.00681051
-0.0594532
0.00362492
0.0151812
-0.0306757
-0.0220447
-0.039005
-0.0141453
-0.072756
-0.0210943
0.0491876
0.0350447
0.000663952
0.0287235
-0.0629703
0.123038
-0.0320724
0.105611
0.0760032
-0.0615385
-0.033107
0.0433033
-0.0814643
0.0183138
0.0665496
0.0628602
0.026459
-0.0994873
-0.0953343
-0.0923667
0.0605965
-0.0756748
0.0426479
-0.0610631
-0.00209015
0.0514985
0.0253105
-0.0317728
-0.0148428
0.0991019
0.113593
0.0585189
-0.0506941
0.0017157
0.0170615
-0.0846006
0.00167424
0.014461
0.0739187
-0.0625862
0.0133362
-0.0536248
0.0326937
0.0424035
-0.0271076
-0.0635805
0.0413862
-0.0575493
-0.0929674
0.02749
0.000606576
-0.0202579
-0.0654884
0.0559936
-0.0742013
0.0442247
0.0530589
-0.00992132
-0.0769232
0.0187146
0.0371205
0.0587181
0.0693567
0.0146912
-0.0588015
0.0247042
-0.00591504
-0.0579377
0.0807462
0.0111503
0.0829769
-0.0189334
-0.0448158
-0.0162555
0.0980936
-0.0874313
-0.064999
0.0520319
-0.0304074
-0.0260694
-0.0208425
-0.00754087
0.0844291
0.00889804
0.0864033
0.0526449
-0.0227284
0.0494429
0.0479007
0.0475259
0.0102259
-0.0145028
0.0659428
0.0088746
-0.0734706
0.0270147
-0.0507296
-0.0300964
-0.0255576
-0.0359638
0.034164
-0.0422261
-0.0995785
0.0214249
0.00370134
-0.0272296
-0.0474674
-0.064313
0.00643044
0.0319672
0.00720958
0.0810955
-0.0345664
0.0354321
-0.0454407
0.0011772
0.0477701
0.06559
-0.0148476
-0.0238294
0.0358117
0.0886171
0.0860562
0.0145153
0.0776151
-0.0374165
-0.0981382
-0.0209821
0.0764499
0.0220799
0.0892254
-0.059694
-0.0754737
-0.0627034
0.00600498
0.0699895
0.0233314
-0.016516
0.043794
0.0622421
-0.079996
-0.0536399
0.0696858
0.0321201
-0.0750366
-0.0895658
-0.0454984
0.0359898
0.00547245
0.0501224
0.0463978
-0.0924367
-0.0231216
-0.000587196
-0.0133943
-0.00693184
0.0114004
0.00659741
-0.0153638
0.0747786
0.00792086
-0.0397582
0.0839057
0.0362382
0.052598
0.020335
0.0131804
0.0986722
0.0366527
-0.0610149
0.0553645
0.0540868
0.0511943
0.0958426
0.0870252
0.00681933
0.0780904
-0.0737534
0.03653
-0.0775104
-0.0711336
0.00308603
0.0349373
-0.00231331
-0.0734641
0.0391823
-0.0485878
-0.0499126
0.0503028
-0.0278864
0.0526343
-0.0559137
0.0794274
0.00352256
-0.0292085
-0.0214078
0.0638456
0.0984652
-0.071427
-0.0233347
0.0683343
0.0374007
-0.0508575
-0.071553
-0.083015
0.060535
-0.0267342
0.0852064
-0.0447456
0.0389585
0.0914973
0.0753504
-0.00963653
0.00201621
0.0678906
-0.0765569
0.0786848
0.0869322
-0.0175417
-0.0689153
-0.0604682
-0.0155353
0.0202746
0.081468
0.0994414
0.0699587
-0.00580259
-0.0752468
-0.0673238
-0.0342497
0.00984935
-0.0354967
0.0757869
-0.0328683
-0.0181293
-0.0407044
-0.0755451
0.086091
-0.0192256
-0.040062
-0.0558014
0.022573
0.0101606
0.0528971
-0.00267904
0.013886
-0.0268565
0.00715303
-0.0420992
-0.052119
-0.0819603
-0.0264673
-0.0140111
0.0859729
0.0351445
0.0878959
-0.0488989
0.125142
0.0951908
-0.0232398
0.00315483
-0.0360364
0.0779696
0.0391862
-0.0043429
0.0772675
0.0190755
-0.0845615
-0.0405024
0.0551733
-0.0126839
0.0738465
0.0748208
0.0351071
-0.0102523
-0.0172192
-0.0837112
0.0925737
0.017908
-0.0251019
-0.00431081
0.0332892
0.0589636
0.0497288
0.0900429
0.057302
-0.0306082
0.0787309
0.0957301
0.0591167
-0.09109
-0.0591018
0.069182
-0.104402
-0.0026259
0.06058
0.0204486
0.0474805
-0.0469424
-0.0873159
-0.0965031
0.0784279
0.0640106
-0.0161285
0.0922323
-0.0417161
0.00281704
0.0892305
0.0871588
0.0609162
-0.0268376
-0.051039
0.0126194
0.0359816
-0.0403873
0.0334542
0.0678351
-0.0163152
0.0551852
-0.0453806
-0.0254671
-0.121041
0.0670843
-0.00358645
-0.0431123
-0.0213818
0.0591025
0.0632214
-0.0396861
0.00402391
-0.0480424
0.0192728
-0.0434843
-0.0481421
-0.0246394
0.0244998
0.0807979
0.0540465
-0.0479288
-0.0139987
-0.0695811
-0.0698879
0.0102238
0.114939
0.0732235
-0.00645357
0.0105545
0.0576732
0.0340167
-0.0389929
-0.0874241
0.0702341
0.0770062
0.0484198
0.0360548
-0.0192037
0.0223366
-0.0468283
0.0147262
-0.0713012
0.0335949
-0.0283414
-0.0953183
0.0665584
-0.0176716
0.0969934
-0.0222655
-0.0312488
0.0731191
0.0562322
0.0615638
-0.0565547
0.0381415
0.0836426
-0.0284744
-0.0264248
0.0999996
-0.0237194
-0.0165447
-0.0367875
-0.0368383
0.0832952
-0.0127227
0.0098582
-0.0584221
0.0861237
-0.00149062
-0.00335587
-0.0503565
0.0825159
-0.0608031
0.0137588
-0.0494375
-0.00327708
0.0024601
-0.0580805
-0.0420728
0.051239
0.0783437
-0.0460591
-0.0296827
0.115422
0.0768899
0.00641195
-0.0674368
-0.0358935
-0.0340846
-0.0524084
0.0130905
0.0237084
0.0448338
0.0421743
-0.0474224
0.0836782
0.078172
-0.0377169
-0.0618341
0.089104
0.0326348
0.027673
0.0216355
-0.040287
-0.15159
-0.116893
0.0646172
0.111944
0.0223298
0.0567947
0.0564601
-0.00728218
-0.0407379
-0.00312099
0.061006
-0.054685
0.081466
0.0659656
0.089959
0.0901827
0.0110781
0.0477772
-0.0795165
-0.0884736
0.0196597
0.0122614
0.071237
0.00305719
-0.0742448
-0.13493
-0.0607769
-0.0758177
-0.153328
0.006629
0.0841047
0.125189
-0.0309984
0.0663294
0.0904611
-0.0323892
0.0263428
-0.0596774
0.0356302
0.00698234
-0.0378174
0.0505659
-0.0402758
-0.0218366
-0.00855872
0.00533609
0.0193936
-0.0327683
0.0912368
0.0235937
-0.141125
-0.077928
-0.058229
-0.0800486
-0.0788427
-0.0910232
-0.0438387
-0.109636
0.017008
-0.03945
0.0581711
-0.0992223
0.0482011
0.069526
0.0290693
0.0268194
0.01348
0.0323257
0.00554527
-0.00484746
-0.0201886
0.0408373
0.0963686
-0.00927841
0.0725246
0.0172496
-0.0102067
-0.100686
0.0187303
-0.144219
-0.151986
-0.152552
-0.107824
-0.0342087
0.0143036
0.08384
0.0988319
0.111279
-0.0421033
0.0317512
-0.0245841
-0.0527227
-0.0519426
-0.0636795
0.0578702
0.062076
-0.0285281
-0.0496296
-0.0540008
0.020201
-0.0459764
0.0106737
-0.0659084
-0.0199419
-0.0623681
0.00503176
-0.108038
0.0248887
-0.102403
0.0552551
-0.101205
-0.130259
0.0667568
0.130857
0.0275414
0.0678265
-0.0888698
-0.0225237
0.00104287
0.0340156
0.012887
-0.0140725
0.0569563
0.0692077
0.0937944
-0.0234897
0.00174792
0.0745402
-0.0820924
0.0420476
0.0717471
0.0117355
-0.101755
-0.0970816
-0.0881372
0.06315
0.0131019
-0.106423
-0.107079
-0.054677
-0.0354452
0.178216
0.0492911
0.109834
0.0379473
-0.0846156
-0.0986318
-0.129947
-0.0533907
-0.0617038
-0.0501776
-0.0746655
0.0687935
-0.0608465
0.000259492
0.0862259
0.0953088
-0.0723599
-0.0316375
-0.0936196
0.079328
0.0824713
-0.105947
0.0245208
0.0377114
0.00281113
-0.0252518
0.00167237
0.108546
0.0477202
0.137555
0.0152491
-0.0213387
0.0356734
0.0439817
0.0498039
-0.0590626
0.0765062
-0.0367141
-0.0161505
0.0886881
-0.00962428
-0.0135769
0.0413939
-0.0679332
0.0220067
0.0615696
0.0726588
0.0819736
0.0899115
-0.0602768
0.0648472
0.0783624
0.0693747
-0.0456446
0.0844096
0.139388
0.0251041
0.0904627
0.057018
-0.0883058
-0.0253699
-0.106334
0.0459291
0.0529086
0.0616316
0.0817173
0.0678366
-0.0385825
-0.0163839
-0.0658088
0.0481687
-0.0890873
0.0570581
0.0877045
0.0287152
-0.0566088
0.0445733
-0.0898891
0.00760481
-0.0486263
-0.0383105
-0.0345735
0.028544
0.0634444
-0.00566318
0.0194921
-0.0935092
-0.0754094
0.0526408
-0.0306675
0.0800274
0.0867813
-0.0530169
0.0479234
-0.0210012
-0.0693507
0.0316762
-0.0543304
-0.0307133
-0.0845026
0.0635861
-0.00877537
0.0025663
0.0436978
-0.00877946
0.0408725
0.0708471
0.0895735
-0.0451135
0.0910926
-0.0326485
-0.0343721
-0.0141028
-0.0475314
-0.0522008
-0.029905
0.0774371
-0.0318118
-0.0292509
-0.0457617
0.0151245
0.0872032
0.0354853
0.0636488
-0.0343494
-0.00546386
0.097729
-0.0946913
-0.0202954
-0.0925177
0.0478809
0.116174
0.0195764
0.11926
0.0769791
0.069546
0.0504497
0.0597153
-0.0138884
0.0300748
-0.095263
0.0667347
0.0766254
0.0441655
0.00898973
0.0484413
-0.0794603
0.00909302
-0.0143602
-0.0191364
0.0467753
-0.0151697
-0.0634832
-0.0759985
0.0139207
0.019195
-0.0465574
-0.0239728
0.0193452
0.107801
0.0206446
0.0151326
0.111498
0.0713677
0.0626148
-0.040831
-0.080983
-0.106818
-0.0898106
0.0058086
0.0568954
-0.0188205
-0.0368056
0.00112179
0.0538812
-0.0841716
0.0300527
-0.0832522
-0.0962898
0.0857812
0.017164
0.0144649
0.0925705
0.0243818
0.0967869
-0.00456567
0.0312773
-0.0523708
-0.0241613
-0.0440987
0.0736499
0.0143037
0.012592
-0.0614368
-0.00127665
0.0819155
0.087104
-0.0642716
-0.0425169
-0.0744809
0.0175651
-0.0351447
0.0195711
-0.0655746
0.0122986
-0.0247862
-0.0414221
-0.0754949
-0.086658
0.0226106
-0.0648495
0.0404134
0.0602836
0.0916103
-0.0639127
-0.0485985
0.0770719
0.0820036
0.0517492
0.0728185
0.100119
0.031644
0.00424639
0.0735548
-0.0221024
0.0660953
0.0421963
-0.0337483
-0.018226
-0.0329709
0.0142335
-0.0958964
-0.0381064
-0.102727
0.0869032
-0.000251815
0.0862495
0.0455978
-0.0752366
-0.0332681
-0.0700678
0.0642341
0.0137977
-0.042566
-0.00691201
-0.0791315
-0.00915272
0.0122595
-0.0771716
-0.0746378
0.0283195
-0.059718
0.0624576
0.0920659
0.0296474
-0.0794516
0.0682383
-0.0195954
-0.0378981
-0.0532455
0.0599486
-0.101846
-0.0500188
0.0701495
0.0640248
0.0767938
-0.0446494
-0.0377009
-0.0445416
-0.0958412
-0.0288034
-0.00392852
-0.0890797
-0.0541344
-0.0748645
-0.0704318
-0.0411099
0.0126492
0.0734593
-0.0545189
-0.00484966
0.0442321
-0.0078144
0.0925732
0.0898132
-0.108869
-0.109031
0.00353857
-0.0856627
0.0151097
0.0505133
-0.0399411
-0.0480695
-0.0895083
0.0264252
-0.0506955
0.0659524
0.0954759
-0.0527641
0.0178726
0.0444469
0.0303148
0.0187196
-0.0117209
0.0552801
0.00107491
0.0133868
-0.0583413
-0.0278793
0.0241537
0.00521617
-0.0582966
-0.0891784
0.0498697
-0.0150649
-0.0548663
-0.0228343
0.0918612
0.079952
-0.0435885
-0.0592565
-0.0342217
-0.00989198
-0.0116091
0.0424528
0.0361632
0.04162
-0.0302714
0.0750805
-0.0294184
0.0890193
0.0789829
-0.00213454
0.0583301
-0.0393425
-0.0560778
0.0650834
-0.0833377
0.0373711
-0.0206334
0.0287869
0.00248536
-0.0262043
0.0162548
-0.0545272
0.0196712
-0.0705119
-0.0720304
-0.00812185
-0.0537471
-0.0948706
-0.0505557
-0.0581706
0.0842308
0.0868931
-0.000217467
-0.0948142
0.0119845
0.0483687
0.00964993
-0.0399702
-0.0914972
-0.00471482
0.00807608
0.085911
-0.029214
0.0110299
0.0208144
0.0934425
0.0127943
0.0395298
-0.065218
0.0342538
-0.0322122
-0.0712601
-0.076571
0.0451954
-0.0687005
0.0362511
0.0740537
0.0901822
0.0350736
0.0910735
-0.0970693
-0.0942899
-0.0349008
-0.065469
-0.0922296
0.0116972
-0.0237634
0.0806919
-0.0622392
0.0245963
-0.0477717
0.0408272
-0.0440885
0.0437588
0.0834875
0.0809007
0.0733972
0.0587487
0.00821395
-0.0782078
0.0765685
-0.0678236
-0.0587214
-0.0878939
-0.0245751
0.0906561
-0.0224273
-0.00494882
-0.0606477
0.0416933
-0.0200895
0.0336535
0.0635536
-0.0286639
-0.0287485
0.0828301
-0.00874396
-0.0174072
-0.0372723
-0.0799385
0.0931917
0.0118721
-0.0820651
-0.0580652
-0.0454738
0.0812114
0.0889772
0.0812872
-0.0520284
0.0344764
-0.0109046
-0.0822258
0.0436339
0.0747869
0.0936572
0.00947495
-0.0917398
-0.0330241
0.00595669
0.00291182
-0.0499419
-0.0750906
-0.047011
0.00315294
-0.0715309
0.0694571
0.0796404
-0.07781
-0.0185693
-0.0371253
-0.0261301
0.0871634
-0.00393829
0.0926637
0.012185
-0.059371
0.0636103
-0.0335657
0.0998529
-0.0624955
-0.013975
-0.00646143
-0.0977934
0.0179017
-0.0598403
-0.0161114
0.00139821
0.0320964
-0.0441579
-0.0341812
0.0506473
0.036345
0.0437026
0.0495559
0.0772147
-0.00801528
0.0122072
0.0624314
-0.098015
0.0860306
-0.0593511
-0.0698299
-0.0547183
0.0242067
-0.0592769
0.00944507
-0.00350918
0.0946535
0.0209489
-0.0816422
0.0442884
-0.0487481
-0.0519691
-0.0313864
-0.0698376
0.0192318
0.083185
-0.102328
0.0818152
0.0197606
0.0986886
0.00450635
0.0692336
-0.0791855
0.0483382
0.0609857
0.037008
0.037281
0.0871112
-0.0921488
0.0326558
0.01287
-0.0209185
0.0160846
-0.0988659
-0.0221291
0.00657312
-0.00583195
-0.0858476
0.077582
0.0587366
0.0327244
0.00789155
0.0465105
0.0399061
0.0658054
-0.0829487
-0.00756666
0.00755595
0.123636
0.0234507
-0.0603957
0.0842957
0.114848
0.0102202
0.113735
0.0315989
0.0234965
-0.015101
0.0903923
-0.082981
0.0632145
0.0583321
-0.00714893
0.00342286
0.0428037
0.0517328
-0.0684571
0.0262292
-0.0481046
0.0340645
-0.0131329
-0.0169052
-0.0972153
0.0591017
-0.104055
0.0283063
-0.0679752
0.0857032
0.140232
0.0222616
0.035238
0.0655492
0.0541613
-0.0361514
-0.0195275
-0.0174911
0.00150737
-0.0392824
0.0646716
-0.0371529
0.0809829
-0.00174023
-0.0908207
0.069621
0.0692856
0.029564
0.0712704
-0.0336949
-0.0401207
0.0600527
-0.0331199
0.0646961
-0.00490711
0.0219785
-0.0811597
0.0773447
0.0233742
-0.0599117
0.0272917
-0.0569273
0.098508
0.0421799
-0.0374612
-0.0169746
-0.0161353
0.0525694
0.0197898
0.0393598
0.0888087
0.0811147
0.0883142
-0.087903
0.00471209
0.0349349
0.00671138
0.0460128
0.0216284
-0.0884931
0.0126576
0.0035346
0.0768226
-0.063764
0.0751305
-0.103087
0.0278276
0.0991417
-0.0415099
-0.0324967
0.0292428
-0.0574402
-0.0755949
-0.0194375
-0.020057
0.0910305
0.0908944
0.0341964
-0.00644527
0.0885683
0.0906861
-0.0708693
-0.105667
0.0723225
0.0278313
-0.103469
0.0847765
-0.0306705
0.0800175
-0.086011
0.0761956
-0.0796735
0.0294514
-0.0150047
-0.0751281
0.0689937
0.0102162
0.041114
0.0396825
-0.00179408
-0.0116192
0.0873075
0.0194708
-0.0220728
0.028618
0.0592248
-0.0673826
0.0324565
-0.0360304
0.00123878
-0.0836607
0.0367002
0.048303
0.0942827
-0.0346062
0.0337572
0.045046
0.0599134
0.0250024
-0.0472068
0.0713219
-0.0551614
-0.0361748
0.0157419
-0.0680613
-0.00933384
0.0163351
0.116107
-0.0539446
-0.029332
-0.0293336
0.08199
0.0788606
-0.0181648
0.0969758
0.0437569
0.0417429
0.0511926
0.0752535
-0.0438915
0.111628
-0.0387405
-0.0142469
0.0901776
0.11461
0.00414109
0.138302
0.12665
-0.033731
-0.0318696
0.0917817
0.0859834
0.0581153
-0.021176
0.061659
-0.0448815
0.0180131
-0.0596748
-0.0722835
-0.0174154
0.0210954
0.0227619
0.000794631
-0.0191096
-0.0187888
-0.0376946
-0.0301971
-0.074664
0.0267563
0.0634559
0.148908
0.00676834
0.120945
0.0922729
-0.0291775
0.0244534
0.0608687
0.0731177
-0.0357649
-0.0930599
0.102494
0.116407
0.065891
-0.0672155
0.0786234
0.0699377
0.0163942
-0.0320151
0.0491777
-0.0945656
-0.0953233
0.0140204
-0.0231949
0.0753086
-0.0981443
-0.041268
0.0890154
0.119048
0.140205
0.114291
0.0238069
0.0963688
0.0298008
0.0809309
0.100965
-0.0938032
-0.0396222
0.0470217
-0.08823
-0.0462488
-0.00460083
0.0895982
-0.0701503
-0.0817098
-0.0386124
0.0781795
0.00779857
-0.0620316
0.00345725
0.0268726
-0.0872881
0.0641689
-0.00874078
0.0318057
0.00144078
0.0767666
0.0446709
0.0985591
0.0583643
0.11401
-0.0469261
-0.022661
0.0423108
-0.102343
0.0652676
-0.0218066
-0.095344
0.00775689
-0.10378
0.0257288
-0.00971812
0.0777004
0.0210157
0.0858966
0.0311743
-0.00541627
0.0718386
0.0984906
-0.0294082
-0.0104385
-0.0551645
-0.0647093
0.0164018
0.0754532
0.0807776
0.10786
0.0768347
-0.0198446
-0.0641575
0.0382232
0.0693489
-0.0801215
-0.014461
-0.0734972
0.0897398
-0.000475534
0.0826752
0.090937
0.00225017
0.00488771
0.0906433
0.0501393
-0.0968082
0.049232
0.0338434
0.0605813
-0.0150211
0.0403841
0.0785149
-0.0582077
0.00594221
0.0840459
0.0516656
-0.0103627
0.0702705
0.0642605
-0.0220013
0.00933302
-0.0937015
0.0273226
0.0372646
0.0726931
-0.0170419
-0.068659
0.0502341
-0.0297926
-0.00358146
0.0696605
-0.0796892
0.0187085
-0.0137958
0.0745283
-0.099558
-0.0323038
-0.0964388
0.06606
0.00169331
0.0217013
0.0622983
0.0572502
0.0862947
-0.0415438
-0.0391711
-0.0494328
0.0246669
0.031591
-0.00565222
-0.0675148
-0.0535777
-0.00438811
-0.0899805
-0.0202155
-0.0693267
0.0970265
-0.0182304
-0.0808553
0.0124503
-0.0229313
-0.029178
-0.017652
-0.0429834
-0.0419206
-0.0655087
-0.0262764
-0.056684
0.082222
-0.0218043
0.0114748
0.077153
-0.0154589
-0.0884115
0.105208
-0.0932138
-0.0609979
-0.138504
-0.0801539
-0.0295703
0.103124
-0.0385216
-0.0723116
0.0840624
0.028015
0.115085
0.0828248
0.0248326
0.0444622
0.00522468
0.00687318
0.0828032
0.0447813
0.0266087
0.00563394
0.0628183
-0.0299897
0.0350306
-0.0937745
-0.0958207
-0.0636469
-0.0233007
-0.079392
-0.0821555
-0.0531081
-0.0486527
-0.0510415
0.0683474
-0.0390576
0.0481072
0.108921
-0.0627012
-0.0679891
-0.0323666
-0.0487155
0.0731208
0.0412678
-0.00654657
-0.0612693
0.0451113
0.0858233
0.0927566
0.00998508
0.0318302
-0.032023
-0.0465457
0.0093116
0.0177221
-0.00592771
0.00303114
0.00438143
-0.0334919
0.0579172
-0.0654349
-0.0370325
0.103107
0.0662725
0.004408
-0.0216095
0.0839148
0.0365182
0.0987385
0.0707927
0.0592256
0.0790762
-0.0994694
0.0167728
-0.0818608
-0.0606042
-0.0811638
0.0857854
-0.095711
-0.0953616
0.0367585
-0.0117568
0.0495112
-0.0862464
-0.0549865
-0.0161104
0.0618041
0.100919
0.0503268
0.0627166
-0.0518385
0.00980717
0.0300747
0.0672187
-0.0181123
-0.0128685
-0.0305175
-0.0867347
-0.0270467
0.0752557
-0.0870298
-0.0613604
0.0523837
0.0793645
0.0131915
0.057367
-0.00307731
-0.0246129
0.0770687
-0.0885785
0.00576247
0.015359
0.0116071
0.0529119
0.0102327
0.0876461
0.0514146
0.065762
-0.0785508
0.0239273
0.08782
0.0608515
-0.0503701
-0.014365
0.0842222
0.0955449
-0.0466664
0.0261922
0.0595263
-0.0165263
-0.0839719
-0.0293947
-0.0607284
0.00717817
0.0532954
0.0460674
-0.0111996
0.0771495
0.0309538
0.1027
-0.0507574
-0.034945
-0.0676028
0.0128753
-0.046797
0.0206031
-0.00999665
-0.0174743
-0.0836088
-0.0165397
0.0994849
0.0338024
0.0338693
-0.0480421
0.0825363
0.0312139
-0.0249713
-0.0802646
-0.0653885
0.083934
0.0181597
0.0234085
0.0755829
-0.0784929
-0.0135567
-0.06203
0.0865995
-0.0255684
0.0127014
0.0145036
0.0184915
0.0115148
0.0739943
-0.0485187
-0.00107078
0.0642665
-0.0929211
0.000373566
0.0191806
0.00901627
-0.0413268
0.0893476
0.053656
0.0836152
0.081807
0.0417476
-0.0610821
-0.0223897
0.0834908
-0.0979613
-0.0102772
-0.0974516
-0.0571765
0.0838226
0.0225356
0.043243
0.0441537
-0.0920898
0.0577909
-0.023304
-0.0181277
-0.057365
-0.0709468
0.0318153
0.038313
-0.00687349
0.0149376
-0.0614628
0.00154881
0.0337145
0.0583394
-0.0887508
0.0855355
0.0575362
0.0384847
-0.0987714
-0.0512053
0.0401477
-0.0148034
-0.06861
0.0215437
0.0707351
0.0670637
-0.0259772
-0.00872989
-0.0935106
0.0135099
-0.0018929
-0.0340662
0.0823586
-0.091734
-0.0591066
-0.0310672
0.00758316
0.0893983
-0.065549
-0.00721042
0.0725934
-0.0704442
-0.0870224
0.0275711
-0.00931532
0.0215811
0.0512233
0.0743511
0.086845
0.0420503
0.00758638
-0.0271466
-0.018492
0.0355865
-0.0971104
0.0691626
-0.0419623
0.0742836
0.0909479
-0.0746707
0.0487611
-0.0518703
-0.0497243
0.000330029
-0.0670166
-0.0278527
0.0930732
-0.0575996
-0.0961878
0.0573475
0.0943047
0.080335
-0.0931814
0.0195863
-0.00688205
-0.0115368
-0.0768253
0.0110949
0.0528718
-0.0278492
0.0821057
-0.0732175
-0.1009
-0.0847462
-0.00160505
0.0346874
0.0361923
0.0743803
0.0823478
0.0358239
0.0929676
-0.0202287
-0.0052385
0.0196591
0.0339511
0.0033042
0.0269178
-0.01389
0.0942384
0.0169602
0.0118964
-0.0937263
0.0442637
0.0551867
-0.0857375
0.0628798
0.0233261
0.0877682
0.0306642
0.0151638
-0.0269723
0.057583
-0.0541225
0.0826636
0.0438284
-0.0545471
-0.0112874
0.0360995
-0.0509624
0.0701718
-0.041206
-0.0482942
0.0143254
-0.0324843
0.00112334
0.0821555
-0.00108566
-0.0582056
-0.0803499
0.0832237
-0.0804368
0.0847642
-0.0063205
-0.0166358
0.0640151
-0.0459538
0.0135934
-0.073846
0.0513029
0.023842
-0.0536163
-0.0945911
0.047583
-0.0454567
0.0511899
-0.0487995
0.01717
-0.0550549
0.0163589
-0.0586656
-0.00538372
-0.0223504
0.0531463
0.0612391
-0.0339416
0.0674139
0.0990964
-0.0923899
0.0912242
-0.0596902
-0.0462878
0.0792456
-0.087871
0.00534676
-0.0453165
-0.018047
-0.03022
0.0147532
-0.0763685
0.0786056
0.00966933
-0.0803593
-0.0748572
-0.00779705
-0.0460895
0.0851858
-0.0871917
0.0330844
-0.0316952
0.0376499
-0.0831431
-0.00132804
-0.0864773
-0.0686458
0.0118251
-0.0796044
-0.0540902
-0.0126062
-0.0773833
0.0442276
-0.0433705
0.0990816
-0.0301283
0.0899879
-0.0189725
0.0873074
0.0582799
-0.0191817
-0.0730086
0.0767674
0.00234377
0.0721999
0.00612493
-0.0134337
-0.0132073
0.0248535
-0.0321276
-0.0425461
0.0184615
-0.00783526
0.00291975
0.0764434
-0.0258409
0.060033
0.0479762
-0.0294192
0.029224
-0.070027
0.0361094
0.0115607
-0.0242998
0.0803008
-0.00324742
0.0220424
0.00188692
0.010672
0.0916285
-0.0510312
-0.0278816
0.0751756
-0.0242443
-0.0377545
0.00940038
-0.0274839
0.098325
-0.0506553
0.0298654
-0.0514561
-0.00056762
0.0293286
-0.0669246
-0.0984122
0.028079
0.0206115
-0.0197311
0.0305293
0.0426354
0.107546
0.115077
0.0975256
0.0530031
0.0866212
-0.0239017
0.0413556
-0.00198586
0.0296026
0.00511699
-0.0954021
-0.07498
-0.0446253
-0.0792031
0.0562634
0.0748984
0.0506845
0.055711
-0.0247465
0.0538616
0.0311872
-0.0416361
-0.0874837
-0.0987932
0.0139128
0.0463447
0.0333081
0.0542668
0.0796889
-0.00604077
0.0780718
0.0498808
-0.00155275
0.0904592
-0.0436816
0.0379662
-0.0692998
-0.0255452
-0.0542866
0.0783383
-0.0159349
0.0450729
0.0926294
-0.064734
0.127756
0.119648
0.0423455
0.0106638
0.00697993
-0.0608466
0.0492883
-0.0543669
-0.0447214
0.0695442
0.0397998
-0.0192047
0.0384323
0.0584436
0.0436947
0.0594157
0.00987129
0.101597
-0.0732954
0.0888135
-0.013273
-0.0216434
-0.050273
0.107251
-0.0241709
0.107736
0.128589
0.105631
0.081286
-0.0185141
0.0616641
0.088903
0.0807809
-0.000386589
-0.0086182
0.0280554
-0.0318502
-0.0822061
0.083929
-0.0777572
0.0920898
-0.00445972
-0.0680122
-0.0145179
-0.000768289
0.0294582
-0.103645
-0.11238
-0.0562369
-0.113622
-0.0561053
-0.0553541
0.00567183
0.0733253
0.0391721
0.1222
-0.0668517
-0.0319184
0.0109821
-0.0101136
-0.08642
-0.0343098
0.0828958
0.0585565
0.0675787
0.0779255
-0.0144106
0.035053
-0.0424181
-0.000643348
-0.0062731
-0.0311028
0.00496245
0.0241579
0.0658595
0.0477536
0.00318331
-0.080126
-0.0388921
0.100721
0.0101802
-0.0712286
-0.0197597
-0.0271979
0.00968142
-0.104089
0.0339512
-0.0260973
0.0600722
0.0135543
-0.0758236
-0.0415145
0.0103861
-0.0537102
0.028461
-0.0312347
-0.0815828
-0.0630556
0.0510725
-0.0553308
-0.0644446
-0.0327602
0.027251
-0.101818
-0.0997854
-0.00843587
0.0033324
-0.0311013
0.0842304
0.0637637
0.0192535
0.0898065
-0.0201664
-0.0788873
-0.0893717
0.0129245
-0.0310319
0.047813
-0.046917
-0.0363944
-0.0558336
-0.0124622
-0.00598077
-0.105435
-0.0516144
-0.140166
0.0610002
-0.0823028
0.0470893
0.070796
0.00284502
0.115015
0.0175392
-0.0353275
0.0613775
0.121916
0.0310302
0.00595703
-0.00941794
-0.0442367
-0.0791614
-0.0979891
-0.114219
0.0290296
0.0756114
0.0352533
-0.0307766
-0.00307101
-0.0420377
0.034932
-0.0856932
-0.0359082
0.0587275
-0.0823995
-0.0934908
0.0518031
-0.00925381
0.0830199
0.0595756
0.133169
-0.00361189
-0.0510586
0.105313
0.0224841
0.114702
0.0886
0.00498764
-0.0531064
-0.0267163
-0.0114423
-0.11838
0.0296916
-0.0117488
0.0488305
0.0833296
-0.0146779
0.0892667
-0.0484938
-0.0579221
0.0985235
-0.0678825
-0.0147477
0.0915162
0.00362887
-0.0818461
0.0764712
-0.0633328
0.0698063
0.111812
0.14652
0.0705845
0.106096
0.016553
0.0259765
-0.000513734
0.0571511
0.026239
0.0533477
0.0130353
0.0595374
-0.075934
0.021912
-0.0665537
0.00512203
-0.0155463
-0.0730771
0.0944317
-0.0460603
0.00809323
-0.00170917
-0.0233953
-0.00402925
-0.000409953
0.0092906
-0.0782059
-0.0266455
0.0896491
0.106008
0.147278
0.124983
0.0582618
0.0950757
-0.0277943
0.0797535
0.0101836
-0.0615847
-0.0564509
-0.0766228
0.00694717
-0.0451742
-0.00965935
-0.0855144
0.0539411
0.0406396
0.0810086
0.0117666
0.0898851
0.0551692
-0.069609
0.0114717
0.0430171
-0.0515835
-0.0430366
0.0958091
-0.00880806
-0.0235855
-0.058607
0.105597
0.079046
0.00981862
-0.112722
-0.0393798
-0.00824811
-0.0149157
0.066401
-0.0274895
0.0182766
0.0758134
-0.00927458
0.0574856
-0.00516158
0.0958156
-0.08708
0.0519088
0.102886
-0.012614
-0.0171528
0.0460959
-0.00886956
-0.045915
0.0404519
0.00650124
0.0691528
0.0772956
0.0140212
0.0500467
-0.0314871
0.0567858
0.0564499
0.023211
-0.00161509
0.0382262
0.0682124
-0.0692556
-0.0791227
-0.0170139
-0.0200962
-0.076198
0.018331
-0.00226451
0.103003
0.0104909
0.0895261
0.0945008
0.0545445
0.0753131
-0.0983165
-0.115034
-0.0185097
0.0576687
0.100377
-0.0572129
0.0700091
0.0224084
-0.099392
-0.0648042
0.0591679
0.0170274
-0.00834525
-0.0229627
0.0613019
-0.0274667
-0.0226526
0.0652309
0.00286841
0.0771867
0.0445066
0.060172
0.0575258
-0.0441202
0.0118098
-0.0196991
-0.00303165
-0.0243592
-0.0112327
-0.078582
0.0155238
-0.0944998
-0.00523779
-0.0376479
0.0194356
-0.0143689
-0.0690016
-0.0365662
0.0519221
-0.0103475
0.0706607
-0.0361143
-0.0631748
0.0136416
0.0114051
-0.0861126
-0.0695236
-0.00390548
0.0562736
0.0471235
-0.0776853
-0.024042
0.0354958
-0.0654949
0.0618201
0.0713901
0.0164369
-0.0732669
-0.0657524
-0.0860193
0.00476466
-0.0363835
-0.0534348
-0.124598
0.0139848
-0.0542949
-0.040803
0.0711381
0.0157177
0.0989172
0.0249794
-0.085935
0.0630414
-0.0197514
0.0621981
0.0551097
0.0114959
-0.050189
0.0955408
0.0457459
0.0682833
0.0926682
0.0691028
-0.0349029
0.0281726
0.0649643
-0.00619373
0.106088
-0.000500613
-0.0298919
0.0904412
0.0374541
0.0676265
0.0969632
0.0816458
-0.0320938
0.000902585
0.112092
0.0756229
-0.0350916
0.0988089
0.0936183
-0.0762248
0.01892
0.0713435
-0.00923438
0.0834647
0.0401811
-0.0302997
0.0309757
0.0846293
0.00306074
0.108156
0.103379
0.0501914
0.080141
-0.0436293
0.0249565
-0.0245678
-0.0501516
-0.0789751
0.040694
-0.0358095
0.025647
0.0266987
-0.0968555
0.0956832
0.0616307
-0.077464
0.0253936
-0.0812076
-0.0326946
0.0738759
-0.0355946
-0.0802751
0.0199322
-0.0107265
0.0570876
-0.0387704
0.0934193
0.0190778
-0.0185309
0.0280798
0.0794815
-0.0226891
0.0339022
0.0578425
0.0665173
-0.0737935
0.00262318
-0.0743571
-0.0477687
-0.0229415
-0.068562
0.0792976
0.0498977
0.0892478
0.0266266
-0.0798356
-0.0345055
0.0832341
-0.087129
0.0342859
0.0602237
-0.0204538
0.0713556
0.0176993
-0.092861
-0.0772037
0.0378016
-0.0508162
-0.0660942
-0.076361
-0.0510204
-0.0374204
-0.0697111
-0.00334854
-0.0803526
0.0367088
0.0501044
-0.0157208
0.0746736
-0.0960798
-0.0593216
-0.0459551
-0.0624998
-0.00164776
0.0636607
0.0281666
0.0847773
-0.0278575
0.0403651
-0.0538106
0.0705949
0.0110125
-0.0370389
0.0579169
0.0535097
0.0503996
0.0201557
-0.108144
0.06289
-0.00930682
0.0816125
-0.0450382
0.0340939
0.0772781
0.084088
-0.0563825
0.0561102
0.0500427
-0.0698427
-0.0595521
-0.00388407
0.0699839
0.0612669
0.0217658
-0.0412608
0.0263043
-0.0473303
0.088511
0.0911329
-0.0780426
-0.0173243
-0.0685761
-0.084091
-0.0108121
0.0681597
-0.0393179
0.0502255
0.0763588
0.081288
0.00118431
-0.0496426
0.00398
-0.013279
0.00339101
0.0907779
0.0536354
0.0366469
-0.0817978
0.0621961
0.0658207
0.00982797
0.0601247
0.0207663
0.069131
0.0549998
-0.0731483
0.0338028
-0.0916357
0.0783983
-0.0653228
-0.0318878
0.0427396
0.099711
-0.0848181
0.0318767
-0.0158165
0.0880555
0.00177949
-0.0978047
0.0233828
-0.0555654
0.0837583
0.0683101
-0.0329952
-0.0608446
-0.0717622
-0.062654
0.0498689
-0.077529
0.0914857
0.094186
0.0165441
0.0255679
-0.0169555
0.0506196
0.0411396
-0.0848415
-0.0284521
0.0746733
-0.0709032
-0.07269
0.0429364
-0.0262322
0.0964095
0.0118289
0.0955778
-0.0370409
0.00626457
0.0970974
-0.042046
-0.0268183
-0.0272273
-0.034859
-0.0192373
0.010074
-0.00321529
-0.0251277
0.00517627
-0.00450901
-0.0218986
0.0692228
-0.0649627
-0.0534931
0.0810795
-0.0627714
-0.0509437
-0.00728941
0.0385716
-0.0186095
-0.0452148
0.0175797
0.0941578
-0.0572733
-0.0187758
0.00509329
0.0228846
0.0750358
-0.0941094
0.040494
0.0840027
0.041341
0.00531517
0.0597282
-0.0545085
0.0714027
-0.0152868
0.00842525
0.0495194
0.0455823
-0.00530756
-0.00609886
0.0257482
-0.0306585
-0.0669103
-0.00757584
-0.022752
-0.0306479
-0.0419583
-0.0744404
0.0540691
-0.0338127
0.0277153
-0.0399064
-0.0234484
-0.0552781
-0.0764866
0.0488401
-0.0809397
-0.0738726
-0.053713
0.0375755
0.0139862
0.0561937
0.0427232
-0.0286326
-0.000930135
